{"learner":{"attributes":{},"feature_names":["Product_Code","Year","Week_Number"],"feature_types":["int","int","int"],"gradient_booster":{"model":{"cats":{"enc":[],"feature_segments":[],"sorted_idx":[]},"gbtree_model_param":{"num_parallel_tree":"1","num_trees":"100"},"iteration_indptr":[0,1,2,3,4,5,6,7,8,9,10,11,12,13,14,15,16,17,18,19,20,21,22,23,24,25,26,27,28,29,30,31,32,33,34,35,36,37,38,39,40,41,42,43,44,45,46,47,48,49,50,51,52,53,54,55,56,57,58,59,60,61,62,63,64,65,66,67,68,69,70,71,72,73,74,75,76,77,78,79,80,81,82,83,84,85,86,87,88,89,90,91,92,93,94,95,96,97,98,99,100],"tree_info":[0,0,0,0,0,0,0,0,0,0,0,0,0,0,0,0,0,0,0,0,0,0,0,0,0,0,0,0,0,0,0,0,0,0,0,0,0,0,0,0,0,0,0,0,0,0,0,0,0,0,0,0,0,0,0,0,0,0,0,0,0,0,0,0,0,0,0,0,0,0,0,0,0,0,0,0,0,0,0,0,0,0,0,0,0,0,0,0,0,0,0,0,0,0,0,0,0,0,0,0],"trees":[{"base_weights":[-3.54934E-2,-1.8458704E0,3.1725874E0,9.345913E0,-5.581532E0,5.717473E0,2.2324617E1,-1.0043918E1,-1.0387948E0,8.69655E0,-6.801227E0,1.2225821E1,3.773854E1,-1.1126019E1,-7.245209E0,7.9579574E-1,-3.0395312E0,1.5687079E1,8.04979E0,-8.5169735E0,-4.7700367E0,2.6084158E1,8.358917E0,4.7519398E1,4.9012647E0,-1.1570003E1,-7.921107E0,-2.9415724E0,-8.2947934E-1,-3.8502586E0,3.7226644E0,-2.1601002E0,-6.3772464E0,1.8287028E0,1.0151265E0,9.605778E-1,6.757477E-1,-6.6415024E-1,-1.0170095E0,1.1277695E-1,-6.508828E-1,-4.122846E-1,3.4151266E0,-3.7040022E-1,1.6052576E0,4.921047E0,5.157866E-1,1.2486799E0,-2.1474151E-1,-2.8421345E-1,-1.1648479E0,2.5258485E-2,-1.1215843E0,-7.8722304E-1,9.5438206E-1,-2.2040021E-1,-5.89479E-1,2.1005626E-1,1.0151265E0,-3.2763728E-1,8.646074E-2,-8.1474155E-1,-4.4737354E-1],"categories":[],"categories_nodes":[],"categories_segments":[],"categories_sizes":[],"default_left":[0,0,0,0,0,0,0,0,0,0,0,0,0,0,0,0,0,0,0,0,0,0,0,0,0,0,0,0,0,0,0,0,0,0,0,0,0,0,0,0,0,0,0,0,0,0,0,0,0,0,0,0,0,0,0,0,0,0,0,0,0,0,0],"id":0,"left_children":[1,-1,3,5,7,9,11,13,15,17,19,21,23,25,27,29,31,33,35,37,39,41,43,45,47,49,51,53,-1,55,57,59,61,-1,-1,-1,-1,-1,-1,-1,-1,-1,-1,-1,-1,-1,-1,-1,-1,-1,-1,-1,-1,-1,-1,-1,-1,-1,-1,-1,-1,-1,-1],"loss_changes":[4.184449E4,0E0,3.2639504E4,1.6543084E4,5.057428E3,1.0426927E4,1.1524602E4,3.0097852E2,4.6123535E2,8.909922E2,1.4756421E2,2.35423E3,9.402395E3,3.4993164E1,1.4724744E2,9.118271E2,1.6234186E2,7.343408E1,3.5333984E2,1.9265991E1,2.8422687E2,2.5776313E3,3.6789705E3,1.3938164E3,4.5455832E2,1.8948242E1,3.7985504E2,6.29182E2,0E0,7.4519226E1,4.0621826E2,1.6827626E2,3.985077E0,0E0,0E0,0E0,0E0,0E0,0E0,0E0,0E0,0E0,0E0,0E0,0E0,0E0,0E0,0E0,0E0,0E0,0E0,0E0,0E0,0E0,0E0,0E0,0E0,0E0,0E0,0E0,0E0,0E0,0E0],"parents":[2147483647,0,0,2,2,3,3,4,4,5,5,6,6,7,7,8,8,9,9,10,10,11,11,12,12,13,13,14,14,15,15,16,16,17,17,18,18,19,19,20,20,21,21,22,22,23,23,24,24,25,25,26,26,27,27,29,29,30,30,31,31,32,32],"right_children":[2,-1,4,6,8,10,12,14,16,18,20,22,24,26,28,30,32,34,36,38,40,42,44,46,48,50,52,54,-1,56,58,60,62,-1,-1,-1,-1,-1,-1,-1,-1,-1,-1,-1,-1,-1,-1,-1,-1,-1,-1,-1,-1,-1,-1,-1,-1,-1,-1,-1,-1,-1,-1],"split_conditions":[1E0,-1.8458704E0,6E0,4E0,8E0,3E0,3.4E1,7E0,2.6E1,4E0,3.1E1,1E1,5E0,4.6E1,1E1,1E1,4.7E1,2E0,2.7E1,1.7E1,3.5E1,3E0,2.4E1,5.2E1,3.7E1,3E0,4.7E1,8E0,-8.2947934E-1,6E0,2.3E1,4.1E1,5E1,1.8287028E0,1.0151265E0,9.605778E-1,6.757477E-1,-6.6415024E-1,-1.0170095E0,1.1277695E-1,-6.508828E-1,-4.122846E-1,3.4151266E0,-3.7040022E-1,1.6052576E0,4.921047E0,5.157866E-1,1.2486799E0,-2.1474151E-1,-2.8421345E-1,-1.1648479E0,2.5258485E-2,-1.1215843E0,-7.8722304E-1,9.5438206E-1,-2.2040021E-1,-5.89479E-1,2.1005626E-1,1.0151265E0,-3.2763728E-1,8.646074E-2,-8.1474155E-1,-4.4737354E-1],"split_indices":[0,0,0,0,0,0,2,0,2,2,2,2,0,2,2,2,2,0,2,2,2,2,2,2,2,2,2,2,0,2,2,2,2,0,0,0,0,0,0,0,0,0,0,0,0,0,0,0,0,0,0,0,0,0,0,0,0,0,0,0,0,0,0],"split_type":[0,0,0,0,0,0,0,0,0,0,0,0,0,0,0,0,0,0,0,0,0,0,0,0,0,0,0,0,0,0,0,0,0,0,0,0,0,0,0,0,0,0,0,0,0,0,0,0,0,0,0,0,0,0,0,0,0,0,0,0,0,0,0],"sum_hessian":[7.06E2,1.04E2,6.02E2,3.53E2,2.49E2,2.77E2,7.6E1,1.25E2,1.24E2,2.24E2,5.3E1,4.7E1,2.9E1,8.8E1,3.7E1,6.5E1,5.9E1,1.7E1,2.07E2,2.7E1,2.6E1,9E0,3.8E1,2.2E1,7E0,7.5E1,1.3E1,8E0,2.9E1,2.5E1,4E1,4.8E1,1.1E1,1E1,7E0,9.1E1,1.16E2,1.5E1,1.2E1,6E0,2E1,2E0,7E0,1.5E1,2.3E1,2.1E1,1E0,3E0,4E0,1E0,7.4E1,4E0,9E0,6E0,2E0,1.5E1,1E1,3.3E1,7E0,3.5E1,1.3E1,4E0,7E0],"tree_param":{"num_deleted":"0","num_feature":"3","num_nodes":"63","size_leaf_vector":"1"}},{"base_weights":[-2.764734E-1,-1.6643904E0,2.5393012E0,7.989119E0,-5.1272006E0,5.0871277E0,1.9821007E1,-8.851265E0,-1.5958341E0,7.9989467E0,-6.1960235E0,3.2529137E0,2.8784218E1,5.1477435E-3,-8.926511E0,-5.8402586E-1,-6.4443636E-1,9.828622E0,6.3465705E0,-8.391965E0,-4.149572E0,4.3870387E0,-6.5263504E-1,2.4026192E1,4.461808E1,-9.249934E0,-7.174399E0,-9.651248E-1,7.383417E-1,6.5394276E-1,1.4165264E0,-3.8329442E-3,7.400761E-1,-6.698763E-1,-1.0600533E0,-5.932147E-2,-5.9841776E-1,1.0085967E0,2.6564246E-1,2.73585E0,1.6026064E0,4.897035E0,4.899972E-1,-9.961128E-1,-7.037168E-1,2.3620296E-2,-1.04313E0,-5.6320284E-3,-4.123735E-1],"categories":[],"categories_nodes":[],"categories_segments":[],"categories_sizes":[],"default_left":[0,0,0,0,0,0,0,0,0,0,0,0,0,0,0,0,0,0,0,0,0,0,0,0,0,0,0,0,0,0,0,0,0,0,0,0,0,0,0,0,0,0,0,0,0,0,0,0,0],"id":1,"left_children":[1,-1,3,5,7,9,11,13,15,17,19,21,23,-1,25,27,-1,29,31,33,35,37,-1,39,41,43,45,47,-1,-1,-1,-1,-1,-1,-1,-1,-1,-1,-1,-1,-1,-1,-1,-1,-1,-1,-1,-1,-1],"loss_changes":[3.202664E4,0E0,2.4817117E4,1.181377E4,3.2341812E3,9.24882E3,1.0004594E4,8.08457E1,6.241764E2,6.1181934E2,2.2582251E2,3.059041E2,2.2428672E3,0E0,1.0722656E0,3.3201898E2,0E0,1.3908301E3,8.079912E2,2.995752E1,2.052345E2,2.0004825E2,0E0,5.212715E2,1.3158203E3,8.255078E1,5.5758264E2,2.9543533E2,0E0,0E0,0E0,0E0,0E0,0E0,0E0,0E0,0E0,0E0,0E0,0E0,0E0,0E0,0E0,0E0,0E0,0E0,0E0,0E0,0E0],"parents":[2147483647,0,0,2,2,3,3,4,4,5,5,6,6,7,7,8,8,9,9,10,10,11,11,12,12,14,14,15,15,17,17,18,18,19,19,20,20,21,21,23,23,24,24,25,25,26,26,27,27],"right_children":[2,-1,4,6,8,10,12,14,16,18,20,22,24,-1,26,28,-1,30,32,34,36,38,-1,40,42,44,46,48,-1,-1,-1,-1,-1,-1,-1,-1,-1,-1,-1,-1,-1,-1,-1,-1,-1,-1,-1,-1,-1],"split_conditions":[1E0,-1.6643904E0,6E0,4E0,8E0,3E0,2.8E1,2E0,4.3E1,2.6E1,2.6E1,2.7E1,4.5E1,5.1477435E-3,4.6E1,4.1E1,-6.4443636E-1,1.7E1,3E1,2E1,3.5E1,8E0,-6.5263504E-1,5E0,5.2E1,7E0,4.8E1,3.4E1,7.383417E-1,6.5394276E-1,1.4165264E0,-3.8329442E-3,7.400761E-1,-6.698763E-1,-1.0600533E0,-5.932147E-2,-5.9841776E-1,1.0085967E0,2.6564246E-1,2.73585E0,1.6026064E0,4.897035E0,4.899972E-1,-9.961128E-1,-7.037168E-1,2.3620296E-2,-1.04313E0,-5.6320284E-3,-4.123735E-1],"split_indices":[0,0,0,0,0,0,2,2,2,2,2,2,2,0,2,2,0,2,2,2,2,2,0,0,2,0,2,2,0,0,0,0,0,0,0,0,0,0,0,0,0,0,0,0,0,0,0,0,0],"split_type":[0,0,0,0,0,0,0,0,0,0,0,0,0,0,0,0,0,0,0,0,0,0,0,0,0,0,0,0,0,0,0,0,0,0,0,0,0,0,0,0,0,0,0,0,0,0,0,0,0],"sum_hessian":[6.93E2,1.01E2,5.92E2,3.46E2,2.46E2,2.79E2,6.7E1,1.19E2,1.27E2,2.22E2,5.7E1,2.4E1,4.3E1,1E0,1.18E2,1.06E2,2.1E1,1.03E2,1.19E2,2.6E1,3.1E1,2.2E1,2E0,3.5E1,8E0,9.6E1,2.2E1,1.02E2,4E0,6E1,4.3E1,1.7E1,1.02E2,1.7E1,9E0,1.1E1,2E1,4E0,1.8E1,2.3E1,1.2E1,7E0,1E0,7E1,2.6E1,7E0,1.5E1,8E1,2.2E1],"tree_param":{"num_deleted":"0","num_feature":"3","num_nodes":"49","size_leaf_vector":"1"}},{"base_weights":[1.474336E-1,-9.732059E-1,2.7022216E0,-1.9668912E0,1.7783805E0,4.4575667E-1,4.871791E0,-1.3669993E0,-5.825212E0,7.9089108E0,-1.4501338E0,4.222153E0,-1.4753141E0,1.6661494E0,3.8993459E0,2.9544609E0,-1.7867672E0,-1.1161183E0,-4.696715E-1,2.4904373E1,2.3415105E0,-6.2670965E0,-2.595838E-1,-6.474984E-1,8.027679E0,-9.599045E-1,1.3806421E-2,1.3769193E0,6.495131E0,3.7665176E0,8.216167E-1,-2.593616E0,8.7721246E-1,-1.9450749E0,7.762465E-1,1.449954E-1,2.7104821E0,-9.062865E0,1.2422188E1,-9.4068775E0,-1.5589836E0,3.1495497E0,-1.7849175E0,1.1050234E1,2.62667E0,5.432141E-1,-4.9296328E-1,3.0884948E0,-4.728338E0,1.0409618E1,1.0398923E0,1.3031323E-1,4.9927148E-1,1.9815984E-1,-4.2291185E-1,-1.8005335E-1,-8.166628E-1,-7.839615E-1,3.5424435E-1,-2.8546218E-2,-7.5306654E-1,-1.2162236E0,-5.677082E-1,1.721798E0,5.180423E-1,-3.6110803E-1,-1.0404443E0,2.8903607E-1,-6.730918E-1,4.981955E-1,-4.0770203E-1,-6.43542E-1,1.374915E-1,2.61857E-1,1.3443164E0,3.2996845E-2,4.4855928E-1,-2.149756E-1,1.5808801E-1,4.5328792E-2,1.047378E0,-5.8937174E-1,-2.5806725E-1,1.3290113E0,6.8351495E-1,-3.1958753E-1,3.2296422E-1],"categories":[],"categories_nodes":[],"categories_segments":[],"categories_sizes":[],"default_left":[0,0,0,0,0,0,0,0,0,0,0,0,0,0,0,0,0,0,0,0,0,0,0,0,0,0,0,0,0,0,0,0,0,0,0,0,0,0,0,0,0,0,0,0,0,0,0,0,0,0,0,0,0,0,0,0,0,0,0,0,0,0,0,0,0,0,0,0,0,0,0,0,0,0,0,0,0,0,0,0,0,0,0,0,0,0,0],"id":2,"left_children":[1,3,5,7,9,11,13,15,17,19,21,23,25,-1,27,29,31,-1,33,35,37,39,41,-1,43,-1,45,47,49,51,53,55,57,59,-1,-1,-1,61,63,65,67,69,71,73,75,77,-1,79,81,83,85,-1,-1,-1,-1,-1,-1,-1,-1,-1,-1,-1,-1,-1,-1,-1,-1,-1,-1,-1,-1,-1,-1,-1,-1,-1,-1,-1,-1,-1,-1,-1,-1,-1,-1,-1,-1],"loss_changes":[2.0095903E3,1.3377928E3,1.0454775E3,8.229695E2,2.5844944E3,7.752298E2,1.1846985E3,5.712503E2,1.3664546E3,4.1996104E3,4.9156897E2,1.5174757E3,8.590347E2,0E0,6.589199E2,4.5401108E1,6.1486237E2,0E0,3.1874164E2,5.2841113E2,4.1363145E3,2.3663635E2,3.696263E2,0E0,4.1174536E2,0E0,1.6232062E2,5.684327E2,1.0568984E3,5.3905792E1,6.1109253E1,9.5324475E2,1.5843394E3,2.0178847E2,0E0,0E0,0E0,1.09348755E2,5.706736E2,2.0245483E1,2.0354851E2,3.116357E2,7.288938E2,3.0779663E2,4.5483192E1,1.5988509E2,0E0,8.126459E2,1.4824371E1,2.0775073E2,2.1437749E2,0E0,0E0,0E0,0E0,0E0,0E0,0E0,0E0,0E0,0E0,0E0,0E0,0E0,0E0,0E0,0E0,0E0,0E0,0E0,0E0,0E0,0E0,0E0,0E0,0E0,0E0,0E0,0E0,0E0,0E0,0E0,0E0,0E0,0E0,0E0,0E0],"parents":[2147483647,0,0,1,1,2,2,3,3,4,4,5,5,6,6,7,7,8,8,9,9,10,10,11,11,12,12,14,14,15,15,16,16,18,18,19,19,20,20,21,21,22,22,24,24,26,26,27,27,28,28,29,29,30,30,31,31,32,32,33,33,37,37,38,38,39,39,40,40,41,41,42,42,43,43,44,44,45,45,47,47,48,48,49,49,50,50],"right_children":[2,4,6,8,10,12,14,16,18,20,22,24,26,-1,28,30,32,-1,34,36,38,40,42,-1,44,-1,46,48,50,52,54,56,58,60,-1,-1,-1,62,64,66,68,70,72,74,76,78,-1,80,82,84,86,-1,-1,-1,-1,-1,-1,-1,-1,-1,-1,-1,-1,-1,-1,-1,-1,-1,-1,-1,-1,-1,-1,-1,-1,-1,-1,-1,-1,-1,-1,-1,-1,-1,-1,-1,-1],"split_conditions":[2.025E3,4.2E1,2.4E1,3.7E1,4.6E1,9E0,2.5E1,4E0,2.024E3,2.023E3,2.022E3,3E0,1.2E1,1.6661494E0,3.6E1,2.024E3,3E1,-1.1161183E0,4.1E1,2.022E3,2.024E3,5E1,2.023E3,-6.474984E-1,7E0,-9.599045E-1,2.3E1,3.4E1,4E1,2E0,3E0,2.7E1,2.023E3,4E1,7.762465E-1,1.449954E-1,2.7104821E0,4.4E1,4.4E1,4.7E1,5.2E1,5.1E1,2.024E3,4E0,8E0,1.5E1,-4.9296328E-1,3.2E1,3.5E1,3.8E1,4.1E1,1.3031323E-1,4.9927148E-1,1.9815984E-1,-4.2291185E-1,-1.8005335E-1,-8.166628E-1,-7.839615E-1,3.5424435E-1,-2.8546218E-2,-7.5306654E-1,-1.2162236E0,-5.677082E-1,1.721798E0,5.180423E-1,-3.6110803E-1,-1.0404443E0,2.8903607E-1,-6.730918E-1,4.981955E-1,-4.0770203E-1,-6.43542E-1,1.374915E-1,2.61857E-1,1.3443164E0,3.2996845E-2,4.4855928E-1,-2.149756E-1,1.5808801E-1,4.5328792E-2,1.047378E0,-5.8937174E-1,-2.5806725E-1,1.3290113E0,6.8351495E-1,-3.1958753E-1,3.2296422E-1],"split_indices":[1,2,2,2,2,2,2,2,1,1,1,2,2,0,2,1,2,0,2,1,1,2,1,0,2,0,2,2,2,2,2,2,1,2,0,0,0,2,2,2,2,2,1,2,2,2,0,2,2,2,2,0,0,0,0,0,0,0,0,0,0,0,0,0,0,0,0,0,0,0,0,0,0,0,0,0,0,0,0,0,0,0,0,0,0,0,0],"split_type":[0,0,0,0,0,0,0,0,0,0,0,0,0,0,0,0,0,0,0,0,0,0,0,0,0,0,0,0,0,0,0,0,0,0,0,0,0,0,0,0,0,0,0,0,0,0,0,0,0,0,0,0,0,0,0,0,0,0,0,0,0,0,0,0,0,0,0,0,0,0,0,0,0,0,0,0,0,0,0,0,0,0,0,0,0,0,0],"sum_hessian":[7E2,4.87E2,2.13E2,3.58E2,1.29E2,1.05E2,1.08E2,3.11E2,4.7E1,4.4E1,8.5E1,3.5E1,7E1,7E0,1.01E2,2.7E1,2.84E2,2.3E1,2.4E1,1E1,3.4E1,1.6E1,6.9E1,9E0,2.6E1,1E1,6E1,5.2E1,4.9E1,1.9E1,8E0,2.18E2,6.6E1,2.1E1,3E0,1E0,9E0,1.6E1,1.8E1,9E0,7E0,2.1E1,4.8E1,1.6E1,1E1,5.5E1,5E0,4.1E1,1.1E1,2.8E1,2.1E1,7E0,1.2E1,7E0,1E0,1.92E2,2.6E1,1.5E1,5.1E1,1.7E1,4E0,7E0,9E0,1E1,8E0,2E0,7E0,4E0,3E0,1.7E1,4E0,1.9E1,2.9E1,4E0,1.2E1,5E0,5E0,1.5E1,4E1,3.1E1,1E1,6E0,5E0,1.4E1,1.4E1,7E0,1.4E1],"tree_param":{"num_deleted":"0","num_feature":"3","num_nodes":"87","size_leaf_vector":"1"}},{"base_weights":[2.5892743E-1,-2.3079925E0,1.9598721E0,-7.8166455E-1,-4.386378E0,-1.3253973E0,3.9430652E0,-2.2165694E0,9.615537E-1,-1.004417E0,-8.689172E0,-4.91942E0,1.4124448E0,4.0800986E0,-9.795665E-1,1.5779103E0,-3.345208E0,7.5920463E0,-6.323977E-1,-7.655231E0,1.62344E0,-8.965928E0,-9.956723E-2,-8.118185E0,-3.150908E0,6.6858144E0,-2.6837635E-1,3.6486404E0,9.63327E0,-1.0771692E0,4.871722E0,-6.4052978E0,-1.0069225E0,1.2784618E1,4.5416E0,-2.9888952E0,2.836037E0,-8.541975E-1,-3.2866058E0,1.3256238E1,-1.9069855E0,-8.098902E0,-1.1461307E0,2.1718016E-1,-8.637426E0,7.0881295E0,-5.0719175E0,-3.8249558E-1,1.6639433E0,-3.3484523E0,3.171376E0,6.83551E0,3.1081111E0,1.4102503E1,1.7252617E0,-2.754283E-1,2.1570697E-1,1.7764585E-1,6.639156E-1,-3.4899747E-1,-7.110185E-1,1.0850766E0,-2.9025766E-1,1.8559341E0,6.701102E-1,-4.3678194E-1,8.42861E-1,6.326131E-4,-6.3172704E-1,9.280829E-1,-1.7720096E-1,2.9860452E-1,-8.463721E-1,-1.6814543E-1,1.6411923E0,-5.49411E-1,1.277667E-1,-9.9015516E-1,-4.865503E-1,-1.1367745E0,-7.3206186E-1,-1.9545518E-1,8.6591625E-1,-6.0092247E-1,-2.3059908E-1,3.130808E-2,-5.1912606E-1,7.531635E-1,1.6004981E-1,1.6835995E-1,1.4811113E0,1.3514294E-1,4.0511608E-1,6.049438E-1,1.8990488E0,-4.069758E-1,6.016225E-1],"categories":[],"categories_nodes":[],"categories_segments":[],"categories_sizes":[],"default_left":[0,0,0,0,0,0,0,0,0,0,0,0,0,0,0,0,0,0,0,0,0,0,0,0,0,0,0,0,0,0,0,0,0,0,0,0,0,0,0,0,0,0,0,0,0,0,0,0,0,0,0,0,0,0,0,0,0,0,0,0,0,0,0,0,0,0,0,0,0,0,0,0,0,0,0,0,0,0,0,0,0,0,0,0,0,0,0,0,0,0,0,0,0,0,0,0,0],"id":3,"left_children":[1,3,5,7,9,11,13,15,17,19,21,23,25,27,-1,29,31,33,35,37,39,41,-1,43,45,47,49,51,53,55,57,59,61,63,65,67,69,-1,71,73,75,77,-1,-1,79,81,83,-1,-1,85,87,89,91,93,95,-1,-1,-1,-1,-1,-1,-1,-1,-1,-1,-1,-1,-1,-1,-1,-1,-1,-1,-1,-1,-1,-1,-1,-1,-1,-1,-1,-1,-1,-1,-1,-1,-1,-1,-1,-1,-1,-1,-1,-1,-1,-1],"loss_changes":[3.1874749E3,9.197097E2,2.865453E3,4.2485986E2,1.7811538E3,1.6403662E3,5.558179E2,4.035599E2,8.1858984E2,1.235845E3,1.06051025E2,3.8172827E2,8.438356E2,6.165532E2,0E0,1.9764499E2,5.0873657E2,1.7953223E2,5.2339813E2,4.9402954E1,2.1197844E3,1.9681152E1,0E0,1.5233325E2,9.800763E2,2.4699097E3,7.840322E2,4.1629395E2,6.471814E2,7.645561E1,4.2912537E1,3.888965E1,9.755742E2,5.1285095E1,4.1775568E2,3.7887036E2,7.885912E2,0E0,1.8764426E2,5.9325977E2,4.6396948E2,1.9662866E2,0E0,0E0,3.0684814E0,1.3057565E2,9.243628E1,0E0,0E0,2.6477783E2,2.2767584E2,1.4542891E3,3.573291E2,3.574773E2,2.234143E2,0E0,0E0,0E0,0E0,0E0,0E0,0E0,0E0,0E0,0E0,0E0,0E0,0E0,0E0,0E0,0E0,0E0,0E0,0E0,0E0,0E0,0E0,0E0,0E0,0E0,0E0,0E0,0E0,0E0,0E0,0E0,0E0,0E0,0E0,0E0,0E0,0E0,0E0,0E0,0E0,0E0,0E0],"parents":[2147483647,0,0,1,1,2,2,3,3,4,4,5,5,6,6,7,7,8,8,9,9,10,10,11,11,12,12,13,13,15,15,16,16,17,17,18,18,19,19,20,20,21,21,23,23,24,24,25,25,26,26,27,27,28,28,29,29,30,30,31,31,32,32,33,33,34,34,35,35,36,36,38,38,39,39,40,40,41,41,44,44,45,45,46,46,49,49,50,50,51,51,52,52,53,53,54,54],"right_children":[2,4,6,8,10,12,14,16,18,20,22,24,26,28,-1,30,32,34,36,38,40,42,-1,44,46,48,50,52,54,56,58,60,62,64,66,68,70,-1,72,74,76,78,-1,-1,80,82,84,-1,-1,86,88,90,92,94,96,-1,-1,-1,-1,-1,-1,-1,-1,-1,-1,-1,-1,-1,-1,-1,-1,-1,-1,-1,-1,-1,-1,-1,-1,-1,-1,-1,-1,-1,-1,-1,-1,-1,-1,-1,-1,-1,-1,-1,-1,-1,-1],"split_conditions":[2.024E3,3.5E1,2.2E1,1.7E1,2.023E3,2.025E3,5.2E1,4E0,2.1E1,4.2E1,5.2E1,9E0,7E0,4.7E1,-9.795665E-1,2.023E3,9E0,1.8E1,3E1,4E1,4.6E1,4.8E1,-9.956723E-2,2E0,1.3E1,4E0,1.5E1,2.5E1,5E1,3E0,2E0,5E0,1E1,2.023E3,1.9E1,2.023E3,3.2E1,-8.541975E-1,4.1E1,4.3E1,2.022E3,4.4E1,-1.1461307E0,2.1718016E-1,4E0,1E1,2E1,-3.8249558E-1,1.6639433E0,9E0,1.7E1,2.4E1,3.3E1,4.8E1,5.1E1,-2.754283E-1,2.1570697E-1,1.7764585E-1,6.639156E-1,-3.4899747E-1,-7.110185E-1,1.0850766E0,-2.9025766E-1,1.8559341E0,6.701102E-1,-4.3678194E-1,8.42861E-1,6.326131E-4,-6.3172704E-1,9.280829E-1,-1.7720096E-1,2.9860452E-1,-8.463721E-1,-1.6814543E-1,1.6411923E0,-5.49411E-1,1.277667E-1,-9.9015516E-1,-4.865503E-1,-1.1367745E0,-7.3206186E-1,-1.9545518E-1,8.6591625E-1,-6.0092247E-1,-2.3059908E-1,3.130808E-2,-5.1912606E-1,7.531635E-1,1.6004981E-1,1.6835995E-1,1.4811113E0,1.3514294E-1,4.0511608E-1,6.049438E-1,1.8990488E0,-4.069758E-1,6.016225E-1],"split_indices":[1,2,2,2,1,1,2,2,2,2,2,2,2,2,0,1,2,2,2,2,2,2,0,2,2,2,2,2,2,2,2,2,2,1,2,1,2,0,2,2,1,2,0,0,2,2,2,0,0,2,2,2,2,2,2,0,0,0,0,0,0,0,0,0,0,0,0,0,0,0,0,0,0,0,0,0,0,0,0,0,0,0,0,0,0,0,0,0,0,0,0,0,0,0,0,0,0],"split_type":[0,0,0,0,0,0,0,0,0,0,0,0,0,0,0,0,0,0,0,0,0,0,0,0,0,0,0,0,0,0,0,0,0,0,0,0,0,0,0,0,0,0,0,0,0,0,0,0,0,0,0,0,0,0,0,0,0,0,0,0,0,0,0,0,0,0,0,0,0,0,0,0,0,0,0,0,0,0,0,0,0,0,0,0,0,0,0,0,0,0,0,0,0,0,0,0,0],"sum_hessian":[7.28E2,2.9E2,4.38E2,1.68E2,1.22E2,1.65E2,2.73E2,9.2E1,7.6E1,6.9E1,5.3E1,7.1E1,9.4E1,2.71E2,2E0,2.1E1,7.1E1,1.4E1,6.2E1,1.9E1,5E1,5.1E1,2E0,2.4E1,4.7E1,2.2E1,7.2E1,2.53E2,1.8E1,1.2E1,9E0,3E1,4.1E1,4E0,1E1,3.7E1,2.5E1,1.5E1,4E0,1.1E1,3.9E1,4.1E1,1E1,1E0,2.3E1,7E0,4E1,1.1E1,1.1E1,3.8E1,3.4E1,3.5E1,2.18E2,1.1E1,7E0,8E0,4E0,4E0,5E0,7E0,2.3E1,5E0,3.6E1,1E0,3E0,3E0,7E0,2E1,1.7E1,1E1,1.5E1,2E0,2E0,2E0,9E0,1.8E1,2.1E1,2.5E1,1.6E1,5E0,1.8E1,1E0,6E0,2.9E1,1.1E1,1.3E1,2.5E1,8E0,2.6E1,2.2E1,1.3E1,7.7E1,1.41E2,5E0,6E0,3E0,4E0],"tree_param":{"num_deleted":"0","num_feature":"3","num_nodes":"97","size_leaf_vector":"1"}},{"base_weights":[7.884094E-2,-1.4814311E0,2.712706E0,7.472466E0,-4.507315E0,4.772921E0,1.8391823E1,-7.5801597E0,-1.7353498E0,7.2832055E0,-5.3491125E0,2.9512422E0,1.2216684E0,-4.297337E0,-8.921642E0,-9.636512E-1,4.3495874E0,5.8506308E0,1.2630977E1,-3.928153E-2,-5.800755E-1,-3.0628483E0,-7.523321E-1,-1.0456593E1,-5.697571E0,1.2256551E-1,7.706267E-1,1.1010526E0,2.9689616E-1,9.7578716E-1,1.9116751E0,-1.5958153E-1,-3.2486013E-1,-6.613791E-1,-1.119646E0,-7.1877193E-1,-4.1307265E-1],"categories":[],"categories_nodes":[],"categories_segments":[],"categories_sizes":[],"default_left":[0,0,0,0,0,0,0,0,0,0,0,0,0,0,0,0,0,0,0,0,0,0,0,0,0,0,0,0,0,0,0,0,0,0,0,0,0],"id":4,"left_children":[1,-1,3,5,7,9,11,13,15,17,19,-1,-1,21,23,-1,25,27,29,-1,-1,31,-1,33,35,-1,-1,-1,-1,-1,-1,-1,-1,-1,-1,-1,-1],"loss_changes":[2.7930266E4,0E0,2.0824848E4,1.0671434E4,2.0396396E3,7.5092573E3,4.583785E3,4.637002E2,6.195908E3,1.7341162E3,1.2979126E2,0E0,0E0,1.1634265E2,3.3632568E2,0E0,7.5603577E2,2.7627046E3,7.265425E2,0E0,0E0,2.1734772E0,0E0,7.663672E1,3.5684753E1,0E0,0E0,0E0,0E0,0E0,0E0,0E0,0E0,0E0,0E0,0E0,0E0],"parents":[2147483647,0,0,2,2,3,3,4,4,5,5,6,6,7,7,8,8,9,9,10,10,13,13,14,14,16,16,17,17,18,18,21,21,23,23,24,24],"right_children":[2,-1,4,6,8,10,12,14,16,18,20,-1,-1,22,24,-1,26,28,30,-1,-1,32,-1,34,36,-1,-1,-1,-1,-1,-1,-1,-1,-1,-1,-1,-1],"split_conditions":[1E0,-1.4814311E0,6E0,4E0,8E0,3E0,2.025E3,2.023E3,2.024E3,2.025E3,2.024E3,2.9512422E0,1.2216684E0,7E0,7E0,-9.636512E-1,2.025E3,2.023E3,2E0,-3.928153E-2,-5.800755E-1,2.022E3,-7.523321E-1,2.024E3,2.025E3,1.2256551E-1,7.706267E-1,1.1010526E0,2.9689616E-1,9.7578716E-1,1.9116751E0,-1.5958153E-1,-3.2486013E-1,-6.613791E-1,-1.119646E0,-7.1877193E-1,-4.1307265E-1],"split_indices":[0,0,0,0,0,0,1,1,1,1,1,0,0,0,0,0,1,1,0,0,0,1,0,1,1,0,0,0,0,0,0,0,0,0,0,0,0],"split_type":[0,0,0,0,0,0,0,0,0,0,0,0,0,0,0,0,0,0,0,0,0,0,0,0,0,0,0,0,0,0,0,0,0,0,0,0,0],"sum_hessian":[7.1E2,1.06E2,6.04E2,3.64E2,2.4E2,2.93E2,7.1E1,1.13E2,1.27E2,2.35E2,5.8E1,2.4E1,4.7E1,3.4E1,7.9E1,5.5E1,7.2E1,1.87E2,4.8E1,5E0,5.3E1,2.6E1,8E0,5.2E1,2.7E1,3.8E1,3.4E1,6.6E1,1.21E2,3.5E1,1.3E1,4E0,2.2E1,1E1,4.2E1,1.2E1,1.5E1],"tree_param":{"num_deleted":"0","num_feature":"3","num_nodes":"37","size_leaf_vector":"1"}},{"base_weights":[2.2970851E-1,-1.3385469E0,2.6590571E0,7.4530244E0,-3.8700838E0,5.3282228E0,1.6149302E1,-6.857093E0,-1.0931255E0,8.060117E0,-5.504449E0,2.626413E0,9.946305E0,-4.27045E0,-7.91352E0,-7.537713E0,3.6734219E0,1.2892581E1,5.977799E0,1.2891065E-1,-6.021964E-1,8.119281E-1,1.3819036E0,-3.1709807E0,-6.7808294E-1,-9.0282774E-1,-5.645724E0,-9.076873E-1,-5.3773427E-1,6.7155756E-2,7.7150166E-1,3.373005E-1,1.3583595E0,4.7009054E-1,9.151115E-1,1.6073422E-1,-3.7841466E-1,-6.6388845E-1,-3.8945967E-1],"categories":[],"categories_nodes":[],"categories_segments":[],"categories_sizes":[],"default_left":[0,0,0,0,0,0,0,0,0,0,0,0,0,0,0,0,0,0,0,0,0,0,0,0,0,0,0,0,0,0,0,0,0,0,0,0,0,0,0],"id":5,"left_children":[1,-1,3,5,7,9,11,13,15,17,19,-1,21,23,25,27,29,31,33,-1,-1,-1,-1,35,-1,-1,37,-1,-1,-1,-1,-1,-1,-1,-1,-1,-1,-1,-1],"loss_changes":[2.4247234E4,0E0,1.9497746E4,6.547506E3,2.1823313E3,8.626541E3,4.1307266E3,3.132456E2,4.266833E3,2.2574834E3,2.1519312E2,0E0,2.061997E2,8.614142E1,1.7402441E2,1.4737476E2,9.6540454E2,4.080752E2,6.215078E2,0E0,0E0,0E0,0E0,9.104968E1,0E0,0E0,2.9796997E1,0E0,0E0,0E0,0E0,0E0,0E0,0E0,0E0,0E0,0E0,0E0,0E0],"parents":[2147483647,0,0,2,2,3,3,4,4,5,5,6,6,7,7,8,8,9,9,10,10,12,12,13,13,14,14,15,15,16,16,17,17,18,18,23,23,26,26],"right_children":[2,-1,4,6,8,10,12,14,16,18,20,-1,22,24,26,28,30,32,34,-1,-1,-1,-1,36,-1,-1,38,-1,-1,-1,-1,-1,-1,-1,-1,-1,-1,-1,-1],"split_conditions":[1E0,-1.3385469E0,6E0,4E0,8E0,3E0,2.025E3,2.023E3,2.024E3,2.023E3,2.024E3,2.626413E0,5E0,7E0,7E0,2.023E3,2.025E3,2.022E3,2.025E3,1.2891065E-1,-6.021964E-1,8.119281E-1,1.3819036E0,2.022E3,-6.7808294E-1,-9.0282774E-1,2.025E3,-9.076873E-1,-5.3773427E-1,6.7155756E-2,7.7150166E-1,3.373005E-1,1.3583595E0,4.7009054E-1,9.151115E-1,1.6073422E-1,-3.7841466E-1,-6.6388845E-1,-3.8945967E-1],"split_indices":[0,0,0,0,0,0,1,1,1,1,1,0,0,0,0,1,1,1,1,0,0,0,0,1,0,0,1,0,0,0,0,0,0,0,0,0,0,0,0],"split_type":[0,0,0,0,0,0,0,0,0,0,0,0,0,0,0,0,0,0,0,0,0,0,0,0,0,0,0,0,0,0,0,0,0,0,0,0,0,0,0],"sum_hessian":[7.31E2,1.1E2,6.21E2,3.58E2,2.63E2,2.89E2,6.9E1,1.26E2,1.37E2,2.31E2,5.8E1,2.5E1,4.4E1,3.8E1,8.8E1,5.8E1,7.9E1,6.8E1,1.63E2,4E0,5.4E1,3.2E1,1.2E1,2.8E1,1E1,5.7E1,3.1E1,3.2E1,2.6E1,4.6E1,3.3E1,5E0,6.3E1,1.18E2,4.5E1,3E0,2.5E1,1.8E1,1.3E1],"tree_param":{"num_deleted":"0","num_feature":"3","num_nodes":"39","size_leaf_vector":"1"}},{"base_weights":[-2.0296925E-1,-1.2137655E0,1.888402E0,5.455763E0,-3.3041925E0,3.6524003E0,1.1801194E1,-6.1125255E0,-5.1435965E-1,6.1061378E0,-4.9352326E0,1.9753056E0,7.527582E0,-2.142566E0,-7.370119E0,-6.37026E0,3.4745104E0,8.521943E0,5.1620474E0,-4.6750546E-2,-5.3123206E-1,5.098106E-1,1.1281313E0,-4.684907E0,-1.345008E-1,-8.582408E-1,-4.398777E0,-7.660513E-1,-4.321266E-1,1.3666876E-1,5.720022E-1,2.4676363E-1,9.148947E-1,4.2173162E-1,7.4826425E-1,-1.5132084E-1,-6.6853786E-1,-5.397846E-1,-3.2496682E-1],"categories":[],"categories_nodes":[],"categories_segments":[],"categories_sizes":[],"default_left":[0,0,0,0,0,0,0,0,0,0,0,0,0,0,0,0,0,0,0,0,0,0,0,0,0,0,0,0,0,0,0,0,0,0,0,0,0,0,0],"id":6,"left_children":[1,-1,3,5,7,9,11,13,15,17,19,-1,21,23,25,27,29,31,33,-1,-1,-1,-1,35,-1,-1,37,-1,-1,-1,-1,-1,-1,-1,-1,-1,-1,-1,-1],"loss_changes":[1.774442E4,0E0,1.1224961E4,4.0649736E3,1.9320469E3,5.9513096E3,2.5359775E3,5.9829785E2,2.9419365E3,4.554912E2,1.0365442E2,0E0,4.2582544E2,5.6556366E1,2.972456E2,1.0172681E2,3.471681E2,2.0518799E2,3.1921777E2,0E0,0E0,0E0,0E0,3.4297882E1,0E0,0E0,1.5751953E1,0E0,0E0,0E0,0E0,0E0,0E0,0E0,0E0,0E0,0E0,0E0,0E0],"parents":[2147483647,0,0,2,2,3,3,4,4,5,5,6,6,7,7,8,8,9,9,10,10,12,12,13,13,14,14,15,15,16,16,17,17,18,18,23,23,26,26],"right_children":[2,-1,4,6,8,10,12,14,16,18,20,-1,22,24,26,28,30,32,34,-1,-1,-1,-1,36,-1,-1,38,-1,-1,-1,-1,-1,-1,-1,-1,-1,-1,-1,-1],"split_conditions":[1E0,-1.2137655E0,6E0,4E0,8E0,3E0,2.025E3,2.023E3,2.024E3,2.023E3,2.024E3,1.9753056E0,5E0,2.022E3,7E0,2.023E3,2.025E3,2.022E3,2.025E3,-4.6750546E-2,-5.3123206E-1,5.098106E-1,1.1281313E0,7E0,-1.345008E-1,-8.582408E-1,2.025E3,-7.660513E-1,-4.321266E-1,1.3666876E-1,5.720022E-1,2.4676363E-1,9.148947E-1,4.2173162E-1,7.4826425E-1,-1.5132084E-1,-6.6853786E-1,-5.397846E-1,-3.2496682E-1],"split_indices":[0,0,0,0,0,0,1,1,1,1,1,0,0,1,0,1,1,1,1,0,0,0,0,0,0,0,1,0,0,0,0,0,0,0,0,0,0,0,0],"split_type":[0,0,0,0,0,0,0,0,0,0,0,0,0,0,0,0,0,0,0,0,0,0,0,0,0,0,0,0,0,0,0,0,0,0,0,0,0,0,0],"sum_hessian":[7.09E2,1.05E2,6.04E2,3.58E2,2.46E2,2.8E2,7.8E1,1.22E2,1.24E2,2.18E2,6.2E1,2.6E1,5.2E1,3E1,9.2E1,5E1,7.4E1,5.9E1,1.59E2,5E0,5.7E1,3.3E1,1.9E1,6E0,2.4E1,6.4E1,2.8E1,2.9E1,2.1E1,3.9E1,3.5E1,6E0,5.3E1,1.15E2,4.4E1,3E0,3E0,1.3E1,1.5E1],"tree_param":{"num_deleted":"0","num_feature":"3","num_nodes":"39","size_leaf_vector":"1"}},{"base_weights":[9.0482026E-1,-1.1025264E0,2.816839E0,6.6545177E0,-3.0223393E0,4.3573713E0,1.5309184E1,-5.919892E0,-2.847715E-1,6.2406206E0,-3.905427E0,2.4404018E0,9.305972E0,-3.1525443E0,-7.0488634E0,-6.6684747E-1,4.1450596E0,9.087594E0,4.9338937E0,-6.6999835E-1,-3.6153567E-1,6.9141096E-1,1.259281E0,-1.440943E0,-7.458613E-1,-8.572662E0,-4.216275E0,9.94873E-2,7.716848E-1,-1.3440421E-1,1.0197527E0,3.026373E-1,9.0575665E-1,1.6002826E-1,-1.8877748E-1,-6.046829E-1,-9.242388E-1,-5.460484E-1,-2.5250867E-1],"categories":[],"categories_nodes":[],"categories_segments":[],"categories_sizes":[],"default_left":[0,0,0,0,0,0,0,0,0,0,0,0,0,0,0,0,0,0,0,0,0,0,0,0,0,0,0,0,0,0,0,0,0,0,0,0,0,0,0],"id":7,"left_children":[1,-1,3,5,7,9,11,13,15,17,19,-1,21,23,25,-1,27,29,31,-1,-1,-1,-1,33,-1,35,37,-1,-1,-1,-1,-1,-1,-1,-1,-1,-1,-1,-1],"loss_changes":[1.6180919E4,0E0,1.3711945E4,7.2693936E3,1.9258501E3,4.5837183E3,3.976959E3,3.4644043E2,3.5907605E3,8.442949E2,2.0361206E1,0E0,2.90292E2,2.5458237E2,3.2210742E2,0E0,8.3620764E2,8.705088E2,1.278343E3,0E0,0E0,0E0,0E0,3.9711693E1,0E0,3.376831E1,5.1441833E1,0E0,0E0,0E0,0E0,0E0,0E0,0E0,0E0,0E0,0E0,0E0,0E0],"parents":[2147483647,0,0,2,2,3,3,4,4,5,5,6,6,7,7,8,8,9,9,10,10,12,12,13,13,14,14,16,16,17,17,18,18,23,23,25,25,26,26],"right_children":[2,-1,4,6,8,10,12,14,16,18,20,-1,22,24,26,-1,28,30,32,-1,-1,-1,-1,34,-1,36,38,-1,-1,-1,-1,-1,-1,-1,-1,-1,-1,-1,-1],"split_conditions":[1E0,-1.1025264E0,6E0,4E0,8E0,3E0,2.025E3,2.023E3,2.024E3,2.023E3,2.024E3,2.4404018E0,5E0,7E0,7E0,-6.6684747E-1,2.025E3,2.022E3,2.025E3,-6.6999835E-1,-3.6153567E-1,6.9141096E-1,1.259281E0,2.022E3,-7.458613E-1,2.024E3,2.025E3,9.94873E-2,7.716848E-1,-1.3440421E-1,1.0197527E0,3.026373E-1,9.0575665E-1,1.6002826E-1,-1.8877748E-1,-6.046829E-1,-9.242388E-1,-5.460484E-1,-2.5250867E-1],"split_indices":[0,0,0,0,0,0,1,1,1,1,1,0,0,0,0,0,1,1,1,0,0,0,0,1,0,1,1,0,0,0,0,0,0,0,0,0,0,0,0],"split_type":[0,0,0,0,0,0,0,0,0,0,0,0,0,0,0,0,0,0,0,0,0,0,0,0,0,0,0,0,0,0,0,0,0,0,0,0,0,0,0],"sum_hessian":[7.07E2,9.7E1,6.1E2,3.68E2,2.42E2,2.92E2,7.6E1,1.17E2,1.25E2,2.38E2,5.4E1,2.9E1,4.7E1,3.5E1,8.2E1,5.1E1,7.4E1,7.3E1,1.65E2,3E0,5.1E1,2.9E1,1.8E1,2.6E1,9E0,5.2E1,3E1,4E1,3.4E1,7E0,6.6E1,1.14E2,5.1E1,3E0,2.3E1,1.3E1,3.9E1,1.6E1,1.4E1],"tree_param":{"num_deleted":"0","num_feature":"3","num_nodes":"39","size_leaf_vector":"1"}},{"base_weights":[6.902206E-1,-1.2261013E0,1.8635985E0,1.0552673E0,-3.636446E0,-5.631498E-1,3.7124913E0,5.0534683E-1,1.32526E0,-1.4412242E0,-6.0178604E0,-2.1559222E0,7.2228545E-1,1.0401025E1,3.2735019E0,1.2058623E0,-2.3413768E0,-7.497554E0,3.4682122E-1,2.3933718E0,-6.7842317E0,-4.259656E0,-1.1209989E0,-5.3046566E-1,1.3983068E0,7.0850366E-1,1.2416886E0,9.533664E-1,4.9895334E0,-1.9177352E-1,5.0680223E0,-5.8317394E0,2.507555E0,-5.3320203E0,-1.0218107E0,8.23132E0,-2.0449302E0,-6.610911E-2,4.0858765E0,-7.560361E-1,-5.538212E0,1.7892048E0,-5.990673E0,1.6880783E0,-2.3868225E0,7.054144E0,-6.983479E-2,-3.5313997E0,1.4792258E0,5.3966827E0,-4.7314787E-1,1.6119869E-1,-4.810473E-1,9.727584E-1,7.059231E-3,-3.2950598E-1,-6.6852254E-1,5.526328E-1,-1.4322728E-1,-9.926047E-1,-2.3685046E-1,1.07363306E-1,1.4213105E0,-3.7959012E-1,1.5848145E-2,5.672242E-1,-3.366108E-2,-1.7829978E-1,-7.4213845E-1,4.9395323E-2,2.6371554E-1,-4.6963048E-1,-8.0934185E-1,3.362043E-2,-3.0599225E-1,9.080692E-2,9.0422976E-1,-1.2851362E-1,2.2733322E-1,-6.3685155E-1,-1.0571751E-2,2.5991794E-1,7.778876E-2,7.154263E-1,4.7563106E-1],"categories":[],"categories_nodes":[],"categories_segments":[],"categories_sizes":[],"default_left":[0,0,0,0,0,0,0,0,0,0,0,0,0,0,0,0,0,0,0,0,0,0,0,0,0,0,0,0,0,0,0,0,0,0,0,0,0,0,0,0,0,0,0,0,0,0,0,0,0,0,0,0,0,0,0,0,0,0,0,0,0,0,0,0,0,0,0,0,0,0,0,0,0,0,0,0,0,0,0,0,0,0,0,0,0],"id":8,"left_children":[1,3,5,7,9,11,13,15,-1,17,19,21,23,25,27,29,31,33,35,37,39,41,43,-1,45,-1,-1,47,49,51,53,55,57,59,-1,61,63,-1,65,-1,67,69,71,-1,73,75,77,79,81,83,-1,-1,-1,-1,-1,-1,-1,-1,-1,-1,-1,-1,-1,-1,-1,-1,-1,-1,-1,-1,-1,-1,-1,-1,-1,-1,-1,-1,-1,-1,-1,-1,-1,-1,-1],"loss_changes":[1.6032668E3,1.4940352E3,1.9852548E3,9.323618E2,6.8138745E2,3.946591E2,7.029375E2,2.720369E2,0E0,7.6062976E2,4.223435E2,1.8246442E2,4.433721E2,1.2294434E1,9.3884106E2,5.893423E2,4.715857E2,3.977997E1,1.0540094E3,3.3719288E1,1.4218994E1,3.038976E2,1.3847291E3,0E0,8.059389E2,0E0,0E0,2.4577606E2,5.6380884E2,6.825676E2,6.746025E2,1.2612122E1,1.5063655E2,1.2624927E2,0E0,5.413451E2,1.6650029E2,0E0,2.9972069E1,0E0,1.7063239E2,6.3855324E0,2.1868774E1,0E0,1.03669464E2,2.3617572E2,2.2503857E2,1.0623636E2,7.024103E1,1.13413086E2,0E0,0E0,0E0,0E0,0E0,0E0,0E0,0E0,0E0,0E0,0E0,0E0,0E0,0E0,0E0,0E0,0E0,0E0,0E0,0E0,0E0,0E0,0E0,0E0,0E0,0E0,0E0,0E0,0E0,0E0,0E0,0E0,0E0,0E0,0E0],"parents":[2147483647,0,0,1,1,2,2,3,3,4,4,5,5,6,6,7,7,9,9,10,10,11,11,12,12,13,13,14,14,15,15,16,16,17,17,18,18,19,19,20,20,21,21,22,22,24,24,27,27,28,28,29,29,30,30,31,31,32,32,33,33,35,35,36,36,38,38,40,40,41,41,42,42,44,44,45,45,46,46,47,47,48,48,49,49],"right_children":[2,4,6,8,10,12,14,16,-1,18,20,22,24,26,28,30,32,34,36,38,40,42,44,-1,46,-1,-1,48,50,52,54,56,58,60,-1,62,64,-1,66,-1,68,70,72,-1,74,76,78,80,82,84,-1,-1,-1,-1,-1,-1,-1,-1,-1,-1,-1,-1,-1,-1,-1,-1,-1,-1,-1,-1,-1,-1,-1,-1,-1,-1,-1,-1,-1,-1,-1,-1,-1,-1,-1],"split_conditions":[2.024E3,3.2E1,2.4E1,3.1E1,2.023E3,2.025E3,2.5E1,2.4E1,1.32526E0,4E1,3.5E1,9E0,3E0,2.025E3,3.5E1,1.7E1,2.8E1,3.7E1,4.6E1,3.3E1,4.5E1,3E0,1.2E1,-5.3046566E-1,7E0,7.0850366E-1,1.2416886E0,2.6E1,5.2E1,1.3E1,2E1,2.5E1,2.023E3,3.4E1,-1.0218107E0,4.4E1,5E1,-6.610911E-2,3.4E1,-7.560361E-1,4.7E1,2E0,8E0,1.6880783E0,1.6E1,4E0,1.8E1,2.025E3,3E1,3.8E1,-4.7314787E-1,1.6119869E-1,-4.810473E-1,9.727584E-1,7.059231E-3,-3.2950598E-1,-6.6852254E-1,5.526328E-1,-1.4322728E-1,-9.926047E-1,-2.3685046E-1,1.07363306E-1,1.4213105E0,-3.7959012E-1,1.5848145E-2,5.672242E-1,-3.366108E-2,-1.7829978E-1,-7.4213845E-1,4.9395323E-2,2.6371554E-1,-4.6963048E-1,-8.0934185E-1,3.362043E-2,-3.0599225E-1,9.080692E-2,9.0422976E-1,-1.2851362E-1,2.2733322E-1,-6.3685155E-1,-1.0571751E-2,2.5991794E-1,7.778876E-2,7.154263E-1,4.7563106E-1],"split_indices":[1,2,2,2,1,1,2,2,0,2,2,2,2,1,2,2,2,2,2,2,2,2,2,0,2,0,0,2,2,2,2,2,1,2,0,2,2,0,2,0,2,2,2,0,2,2,2,1,2,2,0,0,0,0,0,0,0,0,0,0,0,0,0,0,0,0,0,0,0,0,0,0,0,0,0,0,0,0,0,0,0,0,0,0,0],"split_type":[0,0,0,0,0,0,0,0,0,0,0,0,0,0,0,0,0,0,0,0,0,0,0,0,0,0,0,0,0,0,0,0,0,0,0,0,0,0,0,0,0,0,0,0,0,0,0,0,0,0,0,0,0,0,0,0,0,0,0,0,0,0,0,0,0,0,0,0,0,0,0,0,0,0,0,0,0,0,0,0,0,0,0,0,0],"sum_hessian":[7.11E2,2.7E2,4.41E2,1.39E2,1.31E2,1.91E2,2.5E2,1.34E2,5E0,6.9E1,6.2E1,8.5E1,1.06E2,1.4E1,2.36E2,1.08E2,2.6E1,1.5E1,5.4E1,5E0,5.7E1,2.7E1,5.8E1,1E1,9.6E1,7E0,7E0,1.01E2,1.35E2,8E1,2.8E1,1.5E1,1.1E1,1E1,5E0,1.2E1,4.2E1,2E0,3E0,3.2E1,2.5E1,6E0,2.1E1,3E0,5.5E1,1.9E1,7.7E1,1E1,9.1E1,1.3E2,5E0,5.8E1,2.2E1,1.4E1,1.4E1,5E0,1E1,6E0,5E0,3E0,7E0,6E0,6E0,2.3E1,1.9E1,2E0,1E0,9E0,1.6E1,3E0,3E0,1.5E1,6E0,1.1E1,4.4E1,5E0,1.4E1,5.1E1,2.6E1,5E0,5E0,3.4E1,5.7E1,3.2E1,9.8E1],"tree_param":{"num_deleted":"0","num_feature":"3","num_nodes":"85","size_leaf_vector":"1"}},{"base_weights":[-3.995519E-1,-2.6886562E-1,-4.662057E0,-1.089249E0,7.291209E-1,-5.532767E0,-3.3675236E-1,-8.1100804E-1,-4.5382977E0,-1.397446E0,2.26421E0,-2.4180667E-1,-5.9562483E0,-1.2535255E0,1.5933317E0,-5.3208723E0,-1.4304494E0,-3.0818121E0,7.7566653E-1,1.8548026E0,8.422797E0,-7.3513144E-1,-3.3699328E-1,1.9962792E-1,-2.1728237E0,4.5141687E0,-1.6028762E0,-7.3037047E0,-2.2111022E0,2.5469175E-1,-5.050204E-1,2.0651658E0,-5.9127827E0,3.420176E0,-3.7071753E0,2.5150542E0,-2.5031228E0,1.208837E0,1.6064355E-1,-7.695196E-2,3.1336054E-1,2.0299567E-2,-2.780467E-1,2.0463811E-1,8.9983284E-1,1.1951031E-1,-2.2931035E-1,-3.5233983E-1,-8.085457E-1,-7.11668E-1,-8.752958E-2,-2.8415576E-1,6.824377E-1,-3.7728533E-1,-7.5783825E-1,-3.3079E-1,6.393897E-1,-1.2911731E-1,-7.7737826E-1,3.0979595E-1,1.00607894E-1,-6.260525E-1,-1.3825895E-1],"categories":[],"categories_nodes":[],"categories_segments":[],"categories_sizes":[],"default_left":[0,0,0,0,0,0,0,0,0,0,0,0,0,0,0,0,0,0,0,0,0,0,0,0,0,0,0,0,0,0,0,0,0,0,0,0,0,0,0,0,0,0,0,0,0,0,0,0,0,0,0,0,0,0,0,0,0,0,0,0,0,0,0],"id":9,"left_children":[1,3,5,7,9,11,-1,13,15,17,19,-1,21,23,25,27,29,31,33,35,37,-1,-1,39,41,43,45,47,49,-1,-1,51,53,55,57,59,61,-1,-1,-1,-1,-1,-1,-1,-1,-1,-1,-1,-1,-1,-1,-1,-1,-1,-1,-1,-1,-1,-1,-1,-1,-1,-1],"loss_changes":[3.9313855E2,5.6408154E2,5.0386963E0,3.5907343E2,1.0184142E3,1.065979E-1,0E0,3.75448E2,6.048822E1,4.8189194E2,4.4074554E2,0E0,7.69928E0,3.9719046E2,5.206938E2,1.19506165E2,1.1364209E2,1.0904607E3,7.0026447E2,4.9831848E2,2.5542542E2,0E0,0E0,3.322524E2,2.6330902E2,3.0249866E2,5.488401E1,9.930176E0,5.9299828E1,0E0,0E0,6.498994E2,1.4249268E2,7.614248E2,2.0611124E2,1.2794214E2,8.8181015E1,0E0,0E0,0E0,0E0,0E0,0E0,0E0,0E0,0E0,0E0,0E0,0E0,0E0,0E0,0E0,0E0,0E0,0E0,0E0,0E0,0E0,0E0,0E0,0E0,0E0,0E0],"parents":[2147483647,0,0,1,1,2,2,3,3,4,4,5,5,7,7,8,8,9,9,10,10,12,12,13,13,14,14,15,15,16,16,17,17,18,18,19,19,20,20,23,23,24,24,25,25,26,26,27,27,28,28,31,31,32,32,33,33,34,34,35,35,36,36],"right_children":[2,4,6,8,10,12,-1,14,16,18,20,-1,22,24,26,28,30,32,34,36,38,-1,-1,40,42,44,46,48,50,-1,-1,52,54,56,58,60,62,-1,-1,-1,-1,-1,-1,-1,-1,-1,-1,-1,-1,-1,-1,-1,-1,-1,-1,-1,-1,-1,-1,-1,-1,-1,-1],"split_conditions":[5.1E1,2.9E1,5.2E1,2.7E1,2.024E3,2.023E3,-3.3675236E-1,2.3E1,2.025E3,4.4E1,4.8E1,-2.4180667E-1,2.024E3,2.024E3,2.5E1,2.8E1,2.8E1,3.5E1,2.023E3,4.4E1,5E1,-7.3513144E-1,-3.3699328E-1,1.7E1,6E0,2.025E3,2.023E3,2.023E3,2.023E3,2.5469175E-1,-5.050204E-1,2.023E3,2.023E3,2.022E3,4.8E1,4E1,4.5E1,1.208837E0,1.6064355E-1,-7.695196E-2,3.1336054E-1,2.0299567E-2,-2.780467E-1,2.0463811E-1,8.9983284E-1,1.1951031E-1,-2.2931035E-1,-3.5233983E-1,-8.085457E-1,-7.11668E-1,-8.752958E-2,-2.8415576E-1,6.824377E-1,-3.7728533E-1,-7.5783825E-1,-3.3079E-1,6.393897E-1,-1.2911731E-1,-7.7737826E-1,3.0979595E-1,1.00607894E-1,-6.260525E-1,-1.3825895E-1],"split_indices":[2,2,2,2,1,1,0,2,1,2,2,0,1,1,2,2,2,2,1,2,2,0,0,2,2,1,1,1,1,0,0,1,1,1,2,2,2,0,0,0,0,0,0,0,0,0,0,0,0,0,0,0,0,0,0,0,0,0,0,0,0,0,0],"split_type":[0,0,0,0,0,0,0,0,0,0,0,0,0,0,0,0,0,0,0,0,0,0,0,0,0,0,0,0,0,0,0,0,0,0,0,0,0,0,0,0,0,0,0,0,0,0,0,0,0,0,0,0,0,0,0,0,0,0,0,0,0,0,0],"sum_hessian":[7.07E2,6.87E2,2E1,3.77E2,3.1E2,1E1,1E1,3.5E2,2.7E1,1.3E2,1.8E2,2E0,8E0,2.96E2,5.4E1,2.1E1,6E0,7.3E1,5.7E1,1.7E2,1E1,4E0,4E0,1.15E2,1.81E2,2.8E1,2.6E1,1.2E1,9E0,3E0,3E0,2.6E1,4.7E1,3.6E1,2.1E1,1.48E2,2.2E1,6E0,4E0,8.7E1,2.8E1,3.7E1,1.44E2,1.9E1,9E0,5E0,2.1E1,3E0,9E0,1E0,8E0,1.3E1,1.3E1,2.2E1,2.5E1,1.1E1,2.5E1,1.4E1,7E0,1.06E2,4.2E1,4E0,1.8E1],"tree_param":{"num_deleted":"0","num_feature":"3","num_nodes":"63","size_leaf_vector":"1"}},{"base_weights":[-7.8285176E-1,-9.6019775E-1,8.1411904E-1,3.5788898E0,-3.1996555E0,2.0488276E0,9.712992E0,-5.827242E0,-4.623893E-1,3.712164E0,-4.6674356E0,1.6750193E0,6.348902E-1,-3.0953717E0,-6.811498E0,-5.9096794E0,3.9020483E0,2.6813092E0,7.612559E0,8.7924786E-2,-5.1973003E-1,-2.1308904E0,-5.0936574E-1,-7.56561E-1,-4.950539E0,-6.7439485E-1,-4.6054277E-1,2.0712872E-1,5.67363E-1,4.6351406E-1,1.5449817E-1,6.5768546E-1,9.7320455E-1,2.9639626E-1,-2.67896E-1,-1.8006678E-1,-5.233833E-1],"categories":[],"categories_nodes":[],"categories_segments":[],"categories_sizes":[],"default_left":[0,0,0,0,0,0,0,0,0,0,0,0,0,0,0,0,0,0,0,0,0,0,0,0,0,0,0,0,0,0,0,0,0,0,0,0,0],"id":10,"left_children":[1,-1,3,5,7,9,11,13,15,17,19,-1,-1,21,23,25,27,29,31,-1,-1,33,-1,-1,35,-1,-1,-1,-1,-1,-1,-1,-1,-1,-1,-1,-1],"loss_changes":[1.0289054E4,0E0,6.880597E3,3.424599E3,1.8169836E3,3.3128906E3,1.6218408E3,3.257788E2,2.9948545E3,9.3250415E2,1.779701E2,0E0,0E0,5.8529114E1,9.446338E1,2.9874756E1,2.1528235E2,4.1245508E2,4.3556396E1,0E0,0E0,8.054102E1,0E0,0E0,1.7345764E1,0E0,0E0,0E0,0E0,0E0,0E0,0E0,0E0,0E0,0E0,0E0,0E0],"parents":[2147483647,0,0,2,2,3,3,4,4,5,5,6,6,7,7,8,8,9,9,10,10,13,13,14,14,15,15,16,16,17,17,18,18,21,21,24,24],"right_children":[2,-1,4,6,8,10,12,14,16,18,20,-1,-1,22,24,26,28,30,32,-1,-1,34,-1,-1,36,-1,-1,-1,-1,-1,-1,-1,-1,-1,-1,-1,-1],"split_conditions":[1E0,-9.6019775E-1,6E0,4E0,8E0,3E0,2.025E3,2.023E3,2.024E3,2.025E3,2.024E3,1.6750193E0,6.348902E-1,7E0,7E0,2.023E3,2.025E3,2.023E3,2E0,8.7924786E-2,-5.1973003E-1,2.022E3,-5.0936574E-1,-7.56561E-1,2.024E3,-6.7439485E-1,-4.6054277E-1,2.0712872E-1,5.67363E-1,4.6351406E-1,1.5449817E-1,6.5768546E-1,9.7320455E-1,2.9639626E-1,-2.67896E-1,-1.8006678E-1,-5.233833E-1],"split_indices":[0,0,0,0,0,0,1,1,1,1,1,0,0,0,0,1,1,1,0,0,0,1,0,0,1,0,0,0,0,0,0,0,0,0,0,0,0],"split_type":[0,0,0,0,0,0,0,0,0,0,0,0,0,0,0,0,0,0,0,0,0,0,0,0,0,0,0,0,0,0,0,0,0,0,0,0,0],"sum_hessian":[7.29E2,1.11E2,6.18E2,3.66E2,2.52E2,2.94E2,7.2E1,1.28E2,1.24E2,2.36E2,5.8E1,2.2E1,5E1,3.5E1,9.3E1,5.5E1,6.9E1,1.88E2,4.8E1,5E0,5.3E1,2.5E1,1E1,6.4E1,2.9E1,3.1E1,2.4E1,3.5E1,3.4E1,6.8E1,1.2E2,3.5E1,1.3E1,2E0,2.3E1,3E0,2.6E1],"tree_param":{"num_deleted":"0","num_feature":"3","num_nodes":"37","size_leaf_vector":"1"}},{"base_weights":[-2.510694E-1,-8.74845E-1,1.2284253E0,4.5549936E0,-3.229564E0,2.9283714E0,1.1422381E1,-5.2120194E0,-1.1571137E0,4.6611133E0,-4.024336E0,6.7031484E0,2.9420668E1,-4.9493814E0,-7.3384047E0,2.1638867E-1,-3.336334E0,1.0093259E1,4.2122145E0,-6.398842E0,-9.189747E-1,1.6826056E1,4.754562E0,3.1931262E0,-3.5322953E-2,-5.4354935E0,7.9556626E-1,-9.0942365E-1,-1.553183E-1,-4.666769E0,2.130908E0,-5.679023E-1,-2.4863715E0,2.5469443E-1,1.4366354E0,2.8002876E-1,6.155967E-1,-4.8295996E-1,-7.7507275E-1,5.1058378E-2,-6.7393255E-1,-2.2971049E-1,2.8759372E0,-2.729972E-1,9.3962425E-1,-4.4735795E-1,-6.1585474E-1,3.535621E-1,-4.1984206E-1,-3.6497325E-1,-9.8914236E-1,8.399438E-1,1.21069565E-1,8.785683E-2,-4.5727944E-1],"categories":[],"categories_nodes":[],"categories_segments":[],"categories_sizes":[],"default_left":[0,0,0,0,0,0,0,0,0,0,0,0,0,0,0,0,0,0,0,0,0,0,0,0,0,0,0,0,0,0,0,0,0,0,0,0,0,0,0,0,0,0,0,0,0,0,0,0,0,0,0,0,0,0,0],"id":11,"left_children":[1,-1,3,5,7,9,11,13,15,17,19,21,23,25,27,29,31,33,35,37,39,41,43,-1,-1,45,47,-1,-1,49,51,-1,53,-1,-1,-1,-1,-1,-1,-1,-1,-1,-1,-1,-1,-1,-1,-1,-1,-1,-1,-1,-1,-1,-1],"loss_changes":[8.647594E3,0E0,8.704977E3,3.7198877E3,1.0252126E3,3.3076565E3,5.238828E3,3.516382E1,3.7187433E2,4.9151367E2,3.9967303E2,9.457185E2,9.8303125E2,3.310686E2,1.0776947E2,7.298097E2,8.145734E1,4.793474E2,5.426267E2,2.8331665E1,2.114543E2,1.891685E3,1.5889879E3,0E0,0E0,4.756494E1,1.5168199E2,0E0,0E0,8.079953E1,3.1286008E2,0E0,2.6378296E2,0E0,0E0,0E0,0E0,0E0,0E0,0E0,0E0,0E0,0E0,0E0,0E0,0E0,0E0,0E0,0E0,0E0,0E0,0E0,0E0,0E0,0E0],"parents":[2147483647,0,0,2,2,3,3,4,4,5,5,6,6,7,7,8,8,9,9,10,10,11,11,12,12,13,13,14,14,15,15,16,16,17,17,18,18,19,19,20,20,21,21,22,22,25,25,26,26,29,29,30,30,32,32],"right_children":[2,-1,4,6,8,10,12,14,16,18,20,22,24,26,28,30,32,34,36,38,40,42,44,-1,-1,46,48,-1,-1,50,52,-1,54,-1,-1,-1,-1,-1,-1,-1,-1,-1,-1,-1,-1,-1,-1,-1,-1,-1,-1,-1,-1,-1,-1],"split_conditions":[1E0,-8.74845E-1,6E0,4E0,8E0,3E0,4.1E1,4.9E1,3.4E1,4E0,3.1E1,1E1,5.2E1,4.6E1,5.2E1,1E1,3.7E1,2E0,3.3E1,1.9E1,4.7E1,4E0,2.7E1,3.1931262E0,-3.5322953E-2,2.3E1,4.8E1,-9.0942365E-1,-1.553183E-1,9E0,1.3E1,-5.679023E-1,4.3E1,2.5469443E-1,1.4366354E0,2.8002876E-1,6.155967E-1,-4.8295996E-1,-7.7507275E-1,5.1058378E-2,-6.7393255E-1,-2.2971049E-1,2.8759372E0,-2.729972E-1,9.3962425E-1,-4.4735795E-1,-6.1585474E-1,3.535621E-1,-4.1984206E-1,-3.6497325E-1,-9.8914236E-1,8.399438E-1,1.21069565E-1,8.785683E-2,-4.5727944E-1],"split_indices":[0,0,0,0,0,0,2,2,2,2,2,2,2,2,2,2,2,2,2,2,2,2,2,0,0,2,2,0,0,2,2,0,2,0,0,0,0,0,0,0,0,0,0,0,0,0,0,0,0,0,0,0,0,0,0],"split_type":[0,0,0,0,0,0,0,0,0,0,0,0,0,0,0,0,0,0,0,0,0,0,0,0,0,0,0,0,0,0,0,0,0,0,0,0,0,0,0,0,0,0,0,0,0,0,0,0,0,0,0,0,0,0,0],"sum_hessian":[6.86E2,1.01E2,5.85E2,3.35E2,2.5E2,2.72E2,6.3E1,1.27E2,1.23E2,2.18E2,5.4E1,5.1E1,1.2E1,1.16E2,1.1E1,7.6E1,4.7E1,1.5E1,2.03E2,3E1,2.4E1,7E0,4.4E1,1.1E1,1E0,1.07E2,9E0,8E0,3E0,2.1E1,5.5E1,1.1E1,3.6E1,6E0,9E0,1.19E2,8.4E1,1.6E1,1.4E1,2E1,4E0,3E0,4E0,1.7E1,2.7E1,4.9E1,5.8E1,6E0,3E0,1.9E1,2E0,6E0,4.9E1,1.4E1,2.2E1],"tree_param":{"num_deleted":"0","num_feature":"3","num_nodes":"55","size_leaf_vector":"1"}},{"base_weights":[2.0848125E-1,-8.0812496E-1,1.6143185E0,4.8535757E0,-2.8180037E0,3.0415685E0,1.1426724E1,-4.8842936E0,-7.46019E-1,4.6083136E0,-3.2237988E0,1.8027314E0,7.906684E-1,-1.997524E0,-5.9159536E0,-4.552072E0,2.1183367E0,3.504155E0,8.8527565E0,2.8820902E-1,-3.6163867E-1,-1.1572108E0,-4.0666172E-1,-6.731808E-1,-4.073876E0,-5.755604E-1,-3.0016434E-1,3.893445E-2,4.132603E-1,4.4042054E-1,1.4688839E-1,6.9528115E-1,1.1980604E0,1.5890618E-1,-1.4404751E-1,-4.6302262E-1,-3.1346637E-1],"categories":[],"categories_nodes":[],"categories_segments":[],"categories_sizes":[],"default_left":[0,0,0,0,0,0,0,0,0,0,0,0,0,0,0,0,0,0,0,0,0,0,0,0,0,0,0,0,0,0,0,0,0,0,0,0,0],"id":12,"left_children":[1,-1,3,5,7,9,11,13,15,17,19,-1,-1,21,23,25,27,29,31,-1,-1,33,-1,-1,35,-1,-1,-1,-1,-1,-1,-1,-1,-1,-1,-1,-1],"loss_changes":[8.438896E3,0E0,8.900928E3,4.2292363E3,1.1180625E3,2.783034E3,1.6465078E3,3.7832227E2,1.4486921E3,1.0281362E3,1.4705743E2,0E0,0E0,5.788678E1,1.1685083E2,8.9085205E1,2.630725E2,3.2509497E2,1.9006714E2,0E0,0E0,2.329287E1,0E0,0E0,2.2068481E0,0E0,0E0,0E0,0E0,0E0,0E0,0E0,0E0,0E0,0E0,0E0,0E0],"parents":[2147483647,0,0,2,2,3,3,4,4,5,5,6,6,7,7,8,8,9,9,10,10,13,13,14,14,15,15,16,16,17,17,18,18,21,21,24,24],"right_children":[2,-1,4,6,8,10,12,14,16,18,20,-1,-1,22,24,26,28,30,32,-1,-1,34,-1,-1,36,-1,-1,-1,-1,-1,-1,-1,-1,-1,-1,-1,-1],"split_conditions":[1E0,-8.0812496E-1,6E0,4E0,8E0,3E0,2.025E3,2.023E3,2.024E3,2.025E3,2.024E3,1.8027314E0,7.906684E-1,7E0,7E0,2.023E3,2.025E3,2.024E3,2E0,2.8820902E-1,-3.6163867E-1,2.022E3,-4.0666172E-1,-6.731808E-1,2.025E3,-5.755604E-1,-3.0016434E-1,3.893445E-2,4.132603E-1,4.4042054E-1,1.4688839E-1,6.9528115E-1,1.1980604E0,1.5890618E-1,-1.4404751E-1,-4.6302262E-1,-3.1346637E-1],"split_indices":[0,0,0,0,0,0,1,1,1,1,1,0,0,0,0,1,1,1,0,0,0,1,0,0,1,0,0,0,0,0,0,0,0,0,0,0,0],"split_type":[0,0,0,0,0,0,0,0,0,0,0,0,0,0,0,0,0,0,0,0,0,0,0,0,0,0,0,0,0,0,0,0,0,0,0,0,0],"sum_hessian":[7.22E2,1.04E2,6.18E2,3.57E2,2.61E2,2.81E2,7.6E1,1.3E2,1.31E2,2.25E2,5.6E1,2.5E1,5.1E1,3.5E1,9.5E1,5.6E1,7.5E1,1.8E2,4.5E1,3E0,5.3E1,2.6E1,9E0,6.4E1,3.1E1,3E1,2.6E1,4.1E1,3.4E1,1.24E2,5.6E1,3E1,1.5E1,2E0,2.4E1,1.7E1,1.4E1],"tree_param":{"num_deleted":"0","num_feature":"3","num_nodes":"37","size_leaf_vector":"1"}},{"base_weights":[3.521157E-1,-7.109131E-1,1.6572471E0,4.160763E0,-1.8165002E0,2.6510575E0,9.286959E0,-3.645501E0,-1.6175166E-2,4.0470753E0,-3.3061538E0,1.9391574E0,3.9640996E-1,-1.5705729E0,-4.4034896E0,-2.3759837E0,6.8492126E-1,7.435455E0,2.5466306E0,2.1580732E-1,-3.806466E-1,-1.3421084E-1,-2.451133E-1,-4.935526E0,-3.2145324E0,-4.5655494E0,5.4787554E-2,-1.1636069E-1,8.458072E-1,1.0060932E-1,5.730826E-1,-3.6661935E-1,-5.235621E-1,-5.2498955E-1,-1.2295339E-1,-5.129483E-1,-3.5579252E-1],"categories":[],"categories_nodes":[],"categories_segments":[],"categories_sizes":[],"default_left":[0,0,0,0,0,0,0,0,0,0,0,0,0,0,0,0,0,0,0,0,0,0,0,0,0,0,0,0,0,0,0,0,0,0,0,0,0],"id":13,"left_children":[1,-1,3,5,7,9,11,13,15,17,19,-1,-1,21,23,25,-1,27,29,-1,-1,-1,-1,31,33,35,-1,-1,-1,-1,-1,-1,-1,-1,-1,-1,-1],"loss_changes":[6.867269E3,0E0,5.225507E3,2.6763066E3,8.297255E2,2.2671172E3,4.172179E3,1.8968066E2,2.0900017E3,1.0995613E3,1.5037317E2,0E0,0E0,3.7514954E0,4.1698364E1,6.170916E2,0E0,5.9900977E2,7.4966174E2,0E0,0E0,0E0,0E0,4.04126E0,1.18791016E2,1.3002441E1,0E0,0E0,0E0,0E0,0E0,0E0,0E0,0E0,0E0,0E0,0E0],"parents":[2147483647,0,0,2,2,3,3,4,4,5,5,6,6,7,7,8,8,9,9,10,10,13,13,14,14,15,15,17,17,18,18,23,23,24,24,25,25],"right_children":[2,-1,4,6,8,10,12,14,16,18,20,-1,-1,22,24,26,-1,28,30,-1,-1,-1,-1,32,34,36,-1,-1,-1,-1,-1,-1,-1,-1,-1,-1,-1],"split_conditions":[1E0,-7.109131E-1,6E0,4E0,8E0,3E0,2.025E3,2.023E3,2.025E3,2.023E3,2.024E3,1.9391574E0,3.9640996E-1,7E0,7E0,2.024E3,6.8492126E-1,2.022E3,2.025E3,2.1580732E-1,-3.806466E-1,-1.3421084E-1,-2.451133E-1,2.024E3,2.025E3,2.023E3,5.4787554E-2,-1.1636069E-1,8.458072E-1,1.0060932E-1,5.730826E-1,-3.6661935E-1,-5.235621E-1,-5.2498955E-1,-1.2295339E-1,-5.129483E-1,-3.5579252E-1],"split_indices":[0,0,0,0,0,0,1,1,1,1,1,0,0,0,0,1,0,1,1,0,0,0,0,1,1,1,0,0,0,0,0,0,0,0,0,0,0],"split_type":[0,0,0,0,0,0,0,0,0,0,0,0,0,0,0,0,0,0,0,0,0,0,0,0,0,0,0,0,0,0,0,0,0,0,0,0,0],"sum_hessian":[7.03E2,1.04E2,5.99E2,3.48E2,2.51E2,2.7E2,7.8E1,1.24E2,1.27E2,2.19E2,5.1E1,2.6E1,5.2E1,3.4E1,9E1,9.5E1,3.2E1,6.6E1,1.53E2,4E0,4.7E1,2.9E1,5E0,6E1,3E1,5.4E1,4.1E1,7E0,5.9E1,1.04E2,4.9E1,1.4E1,4.6E1,1.4E1,1.6E1,3.2E1,2.2E1],"tree_param":{"num_deleted":"0","num_feature":"3","num_nodes":"37","size_leaf_vector":"1"}},{"base_weights":[7.7648954E-3,-7.5656074E-1,4.8655877E-1,1.2789654E0,-2.5465276E0,-1.4976791E0,2.0424209E0,-1.1968282E-1,3.8302727E0,-3.1787174E0,4.4489846E-1,5.9573585E-1,-2.1898906E0,1.5107474E0,1.4141537E0,1.4325247E0,-6.2301666E-1,8.290725E0,1.0834463E0,-1.1520638E0,-3.7054648E0,2.751455E0,-7.330964E-1,-2.7792923E0,2.902799E0,-2.5546827E0,5.1029388E-2,-6.7343163E-1,3.175721E0,1.9029113E-3,2.9972079E0,6.4554143E0,1.1404388E1,-4.526786E0,3.4362388E0,-3.1036348E0,1.0382483E0,-5.4596204E-1,-2.9170797E0,4.6066704E0,-2.4945323E-1,2.5752747E0,-2.203645E0,2.5630176E-1,-4.4335585E0,-3.738858E0,5.610995E0,-1.9602678E0,-4.2555184E0,1.4953302E-1,-1.1568071E0,1.2927513E-1,-1.1940926E0,7.752237E0,2.239093E0,-1.2458054E-1,7.9868555E-1,4.558061E-1,-2.2551103E-1,9.906805E-1,7.7765755E-2,-2.8942108E-2,1.9296736E0,1.8107705E-1,-7.997359E-1,6.1966634E-1,3.634288E-2,-7.288942E-1,-1.2995566E-1,-3.1886652E-2,3.2734054E-1,3.4945592E-1,-3.379637E-1,-1.9566601E-2,6.5667385E-1,9.4116783E-1,-3.1958467E-1,-6.023636E-1,5.113068E-1,5.4958057E-2,-2.9581643E-3,-4.7941643E-1,-5.314541E-3,-1.2658517E-1,-4.7643858E-1,2.0132463E-1,6.3390976E-1,-3.0709758E-1,-9.436394E-2,-5.6329656E-1,-2.612101E-1,-2.620217E-2,-1.758508E-1,-2.7846214E-1,3.0372956E-1,-5.64443E-1,-3.7806645E-2,2.805865E-1,1.199386E0,-5.916905E-2,3.6428833E-1],"categories":[],"categories_nodes":[],"categories_segments":[],"categories_sizes":[],"default_left":[0,0,0,0,0,0,0,0,0,0,0,0,0,0,0,0,0,0,0,0,0,0,0,0,0,0,0,0,0,0,0,0,0,0,0,0,0,0,0,0,0,0,0,0,0,0,0,0,0,0,0,0,0,0,0,0,0,0,0,0,0,0,0,0,0,0,0,0,0,0,0,0,0,0,0,0,0,0,0,0,0,0,0,0,0,0,0,0,0,0,0,0,0,0,0,0,0,0,0,0,0],"id":14,"left_children":[1,3,5,7,9,11,13,15,17,19,21,23,25,-1,27,29,-1,31,33,35,37,39,41,43,45,47,49,51,53,55,57,59,61,63,65,67,69,-1,71,73,-1,75,77,79,81,83,85,87,89,-1,91,93,95,97,99,-1,-1,-1,-1,-1,-1,-1,-1,-1,-1,-1,-1,-1,-1,-1,-1,-1,-1,-1,-1,-1,-1,-1,-1,-1,-1,-1,-1,-1,-1,-1,-1,-1,-1,-1,-1,-1,-1,-1,-1,-1,-1,-1,-1,-1,-1],"loss_changes":[2.565362E2,9.8700854E2,1.3336425E3,4.5364282E2,2.7373938E2,2.7663095E2,1.9650552E3,7.9615814E2,5.4236145E2,1.2276782E2,7.2661995E1,3.8181506E2,1.170285E2,0E0,8.5530054E2,1.4997176E2,0E0,2.3527222E1,3.9834674E2,1.1436064E2,1.1407117E2,9.908342E1,9.324716E1,1.01569916E2,5.42599E2,1.1601129E2,3.8363873E1,4.4873737E1,5.2274023E2,3.686142E2,2.7261813E2,2.470459E2,4.6704285E2,2.1243597E2,1.7587538E2,9.62363E1,4.0477516E1,0E0,2.1051556E2,6.717522E1,0E0,2.6680057E2,3.941464E2,6.870059E-1,2.028006E1,1.679422E1,4.2247986E1,1.021156E2,5.5461487E1,0E0,5.9999504E0,3.7282556E2,2.3391948E2,4.069403E2,4.233811E2,0E0,0E0,0E0,0E0,0E0,0E0,0E0,0E0,0E0,0E0,0E0,0E0,0E0,0E0,0E0,0E0,0E0,0E0,0E0,0E0,0E0,0E0,0E0,0E0,0E0,0E0,0E0,0E0,0E0,0E0,0E0,0E0,0E0,0E0,0E0,0E0,0E0,0E0,0E0,0E0,0E0,0E0,0E0,0E0,0E0,0E0],"parents":[2147483647,0,0,1,1,2,2,3,3,4,4,5,5,6,6,7,7,8,8,9,9,10,10,11,11,12,12,14,14,15,15,17,17,18,18,19,19,20,20,21,21,22,22,23,23,24,24,25,25,26,26,27,27,28,28,29,29,30,30,31,31,32,32,33,33,34,34,35,35,36,36,38,38,39,39,41,41,42,42,43,43,44,44,45,45,46,46,47,47,48,48,50,50,51,51,52,52,53,53,54,54],"right_children":[2,4,6,8,10,12,14,16,18,20,22,24,26,-1,28,30,-1,32,34,36,38,40,42,44,46,48,50,52,54,56,58,60,62,64,66,68,70,-1,72,74,-1,76,78,80,82,84,86,88,90,-1,92,94,96,98,100,-1,-1,-1,-1,-1,-1,-1,-1,-1,-1,-1,-1,-1,-1,-1,-1,-1,-1,-1,-1,-1,-1,-1,-1,-1,-1,-1,-1,-1,-1,-1,-1,-1,-1,-1,-1,-1,-1,-1,-1,-1,-1,-1,-1,-1,-1],"split_conditions":[2.024E3,2.9E1,2.4E1,1.6E1,5E1,8E0,2.5E1,1.3E1,2E1,3.5E1,5.1E1,2.025E3,2.2E1,1.5107474E0,3.6E1,2.023E3,-6.2301666E-1,1.9E1,2.3E1,2.023E3,4E1,2.023E3,2.022E3,3E0,3E0,1.9E1,2.3E1,3E1,3.8E1,1.1E1,1E1,1.8E1,2.023E3,2.023E3,2.6E1,3E1,3.4E1,-5.4596204E-1,4.1E1,2.022E3,-2.4945323E-1,5.2E1,5.2E1,2E0,7E0,2E0,4E0,1.4E1,2.025E3,1.4953302E-1,2.025E3,2.025E3,3.1E1,3.7E1,4.1E1,-1.2458054E-1,7.9868555E-1,4.558061E-1,-2.2551103E-1,9.906805E-1,7.7765755E-2,-2.8942108E-2,1.9296736E0,1.8107705E-1,-7.997359E-1,6.1966634E-1,3.634288E-2,-7.288942E-1,-1.2995566E-1,-3.1886652E-2,3.2734054E-1,3.4945592E-1,-3.379637E-1,-1.9566601E-2,6.5667385E-1,9.4116783E-1,-3.1958467E-1,-6.023636E-1,5.113068E-1,5.4958057E-2,-2.9581643E-3,-4.7941643E-1,-5.314541E-3,-1.2658517E-1,-4.7643858E-1,2.0132463E-1,6.3390976E-1,-3.0709758E-1,-9.436394E-2,-5.6329656E-1,-2.612101E-1,-2.620217E-2,-1.758508E-1,-2.7846214E-1,3.0372956E-1,-5.64443E-1,-3.7806645E-2,2.805865E-1,1.199386E0,-5.916905E-2,3.6428833E-1],"split_indices":[1,2,2,2,2,2,2,2,2,2,2,1,2,0,2,1,0,2,2,1,2,1,1,2,2,2,2,2,2,2,2,2,1,1,2,2,2,0,2,1,0,2,2,2,2,2,2,2,1,0,1,1,2,2,2,0,0,0,0,0,0,0,0,0,0,0,0,0,0,0,0,0,0,0,0,0,0,0,0,0,0,0,0,0,0,0,0,0,0,0,0,0,0,0,0,0,0,0,0,0,0],"split_type":[0,0,0,0,0,0,0,0,0,0,0,0,0,0,0,0,0,0,0,0,0,0,0,0,0,0,0,0,0,0,0,0,0,0,0,0,0,0,0,0,0,0,0,0,0,0,0,0,0,0,0,0,0,0,0,0,0,0,0,0,0,0,0,0,0,0,0,0,0,0,0,0,0,0,0,0,0,0,0,0,0,0,0,0,0,0,0,0,0,0,0,0,0,0,0,0,0,0,0,0,0],"sum_hessian":[6.99E2,2.69E2,4.3E2,1.26E2,1.43E2,1.89E2,2.41E2,8.2E1,4.4E1,1.18E2,2.5E1,4.7E1,1.42E2,1E1,2.31E2,6.6E1,1.6E1,1.6E1,2.8E1,2.5E1,9.3E1,8E0,1.7E1,1.9E1,2.8E1,1.22E2,2E1,1.06E2,1.25E2,3.5E1,3.1E1,1.2E1,4E0,8E0,2E1,1.3E1,1.2E1,2.7E1,6.6E1,6E0,2E0,5E0,1.2E1,7E0,1.2E1,8E0,2E1,9.2E1,3E1,9E0,1.1E1,4.2E1,6.4E1,2E1,1.05E2,3.1E1,4E0,2.4E1,7E0,7E0,5E0,2E0,2E0,3E0,5E0,1E1,1E1,3E0,1E1,8E0,4E0,4E0,6.2E1,2E0,4E0,2E0,3E0,8E0,4E0,3E0,4E0,1.1E1,1E0,3E0,5E0,4E0,1.6E1,4.3E1,4.9E1,1.5E1,1.5E1,5E0,6E0,2.1E1,2.1E1,9E0,5.5E1,1E1,1E1,3.5E1,7E1],"tree_param":{"num_deleted":"0","num_feature":"3","num_nodes":"101","size_leaf_vector":"1"}},{"base_weights":[1.1039515E-1,-6.441875E-1,1.2309966E0,3.4555826E0,-1.9468232E0,2.5245454E0,6.8204775E0,-3.50283E0,-5.3996885E-1,3.6784525E0,-1.9953443E0,-1.7148457E0,1.3260943E1,-1.9763392E0,-4.11534E0,9.8705584E-1,-1.7708E0,9.9449533E-1,4.73919E0,-5.8703375E0,-1.3483778E0,7.9611135E0,-4.518284E0,1.6929249E1,4.191054E0,-2.3341458E0,2.7375805E0,-3.701986E0,-6.2869663E0,-1.3361263E0,7.4593143E0,-1.2284827E0,-3.6599202E0,8.268835E-1,-1.5495512E-1,9.746987E-1,2.8898248E-1,-2.597423E-1,-8.493897E-1,3.987411E-1,-2.915405E-1,-6.510656E-1,1.3870146E0,-7.7366877E-1,5.782398E-1,4.1551986E-1,1.9828814E0,1.906022E0,-3.6626336E-1,-4.7734132E-1,-1.7489819E-1,3.8748533E-1,2.315178E-2,-4.3872187E-1,2.4139313E-1,-7.458002E-1,-2.0803963E-1,-3.3357686E-1,9.060345E-2,1.9623898E0,1.7691284E-1,-2.4590008E-1,2.2169815E-2,-7.234149E-1,-1.865665E-1],"categories":[],"categories_nodes":[],"categories_segments":[],"categories_sizes":[],"default_left":[0,0,0,0,0,0,0,0,0,0,0,0,0,0,0,0,0,0,0,0,0,0,0,0,0,0,0,0,0,0,0,0,0,0,0,0,0,0,0,0,0,0,0,0,0,0,0,0,0,0,0,0,0,0,0,0,0,0,0,0,0,0,0,0,0],"id":15,"left_children":[1,-1,3,5,7,9,11,13,15,17,19,21,23,25,27,29,31,33,35,37,39,41,43,45,47,49,51,53,55,57,59,61,63,-1,-1,-1,-1,-1,-1,-1,-1,-1,-1,-1,-1,-1,-1,-1,-1,-1,-1,-1,-1,-1,-1,-1,-1,-1,-1,-1,-1,-1,-1,-1,-1],"loss_changes":[5.2284355E3,0E0,4.3048823E3,1.1043389E3,5.4756635E2,1.4781198E3,4.255543E3,1.03130615E2,2.5172266E2,6.3585645E2,1.3749004E2,9.582529E2,1.392979E3,6.711008E1,5.2128418E1,9.1214075E2,7.131703E1,1.2157197E3,1.4628936E3,4.6631226E1,4.3805258E2,7.7441693E2,9.39834E2,1.0658213E3,1.7046993E3,4.0182007E1,7.6531334E0,3.165208E2,4.3596893E1,2.0478067E2,1.0727827E3,1.0582912E2,8.911276E1,0E0,0E0,0E0,0E0,0E0,0E0,0E0,0E0,0E0,0E0,0E0,0E0,0E0,0E0,0E0,0E0,0E0,0E0,0E0,0E0,0E0,0E0,0E0,0E0,0E0,0E0,0E0,0E0,0E0,0E0,0E0,0E0],"parents":[2147483647,0,0,2,2,3,3,4,4,5,5,6,6,7,7,8,8,9,9,10,10,11,11,12,12,13,13,14,14,15,15,16,16,17,17,18,18,19,19,20,20,21,21,22,22,23,23,24,24,25,25,26,26,27,27,28,28,29,29,30,30,31,31,32,32],"right_children":[2,-1,4,6,8,10,12,14,16,18,20,22,24,26,28,30,32,34,36,38,40,42,44,46,48,50,52,54,56,58,60,62,64,-1,-1,-1,-1,-1,-1,-1,-1,-1,-1,-1,-1,-1,-1,-1,-1,-1,-1,-1,-1,-1,-1,-1,-1,-1,-1,-1,-1,-1,-1,-1,-1],"split_conditions":[1E0,-6.441875E-1,6E0,4E0,8E0,3E0,2.8E1,1.9E1,2.6E1,1.7E1,1.2E1,1E1,5E0,1.8E1,4.8E1,1.9E1,4.7E1,4E0,2.5E1,9E0,2E1,3E0,5E0,3.2E1,3.3E1,5E0,7E0,4.6E1,5.2E1,1E1,2.2E1,3.7E1,4.9E1,8.268835E-1,-1.5495512E-1,9.746987E-1,2.8898248E-1,-2.597423E-1,-8.493897E-1,3.987411E-1,-2.915405E-1,-6.510656E-1,1.3870146E0,-7.7366877E-1,5.782398E-1,4.1551986E-1,1.9828814E0,1.906022E0,-3.6626336E-1,-4.7734132E-1,-1.7489819E-1,3.8748533E-1,2.315178E-2,-4.3872187E-1,2.4139313E-1,-7.458002E-1,-2.0803963E-1,-3.3357686E-1,9.060345E-2,1.9623898E0,1.7691284E-1,-2.4590008E-1,2.2169815E-2,-7.234149E-1,-1.865665E-1],"split_indices":[0,0,0,0,0,0,2,2,2,2,2,2,0,2,2,2,2,2,2,2,2,2,0,2,2,2,0,2,2,2,2,2,2,0,0,0,0,0,0,0,0,0,0,0,0,0,0,0,0,0,0,0,0,0,0,0,0,0,0,0,0,0,0,0,0],"split_type":[0,0,0,0,0,0,0,0,0,0,0,0,0,0,0,0,0,0,0,0,0,0,0,0,0,0,0,0,0,0,0,0,0,0,0,0,0,0,0,0,0,0,0,0,0,0,0,0,0,0,0,0,0,0,0,0,0,0,0,0,0,0,0,0,0],"sum_hessian":[7.1E2,1.03E2,6.07E2,3.57E2,2.5E2,2.81E2,7.6E1,1.18E2,1.32E2,2.24E2,5.7E1,3.3E1,4.3E1,3.5E1,8.3E1,5.9E1,7.3E1,6.4E1,1.6E2,7E0,5E1,7E0,2.6E1,3E1,1.3E1,3.3E1,2E0,7.2E1,1.1E1,4.4E1,1.5E1,5.8E1,1.5E1,1.6E1,4.8E1,4.2E1,1.18E2,4E0,3E0,1.1E1,3.9E1,2E0,5E0,2E1,6E0,6E0,2.4E1,4E0,9E0,5E0,2.8E1,1E0,1E0,6.5E1,7E0,8E0,3E0,2.3E1,2.1E1,4E0,1.1E1,3.1E1,2.7E1,4E0,1.1E1],"tree_param":{"num_deleted":"0","num_feature":"3","num_nodes":"65","size_leaf_vector":"1"}},{"base_weights":[-1.5141964E-1,-1.5362868E0,3.7644923E-1,-2.4819128E-1,-4.582685E0,7.378306E-1,-2.2601042E0,-2.4772878E0,7.06404E-1,-3.7186031E0,-7.221224E0,4.6991116E-1,3.432069E0,2.9017955E-2,-4.7870326E0,-5.9796256E-1,-1.4470352E0,-2.2231439E-1,2.660888E0,-5.7447352E0,-1.8679079E0,-4.812099E0,-1.1438731E0,-6.2524265E-1,9.498018E-1,-5.678669E0,4.8958507E0,-2.0160353E0,2.0723643E0,-6.936912E-1,-3.2904172E0,2.3058379E-1,-1.9075705E0,-1.9461535E0,3.5643005E0,8.7881243E-1,-1.6714784E0,-3.431353E0,-7.193826E-1,-3.8002872E0,5.421936E-1,-7.23247E-1,-1.9931075E-1,4.5298204E0,-1.3225217E0,1.0956028E0,-5.939641E-1,-1.4408503E-1,-6.238063E-1,9.755669E0,2.561697E0,-4.350934E0,1.1545922E0,6.1244166E-1,-1.2635858E-1,-8.188778E-1,-1.8601757E0,-5.7857656E-1,3.200328E-1,8.2435094E-2,-2.7683645E-1,-3.5792646E-1,-7.684656E-2,8.648736E-1,1.4348686E-1,5.8739703E-2,-5.62775E-1,-4.5264718E-1,-6.570574E-2,-1.9654341E-1,-5.354364E-1,-7.978327E-2,1.6133313E-1,-2.9967173E-3,7.5730085E-1,5.256143E-2,-3.248841E-1,2.902898E-2,1.6570468E-1,5.1951677E-1,1.4189236E0,3.6020908E-1,9.100968E-2,-5.309886E-1,-2.3300052E-1,3.569613E-1,-1.008343E-1,4.30088E-1,-2.877588E-1,-1.9267038E-2,-6.8145245E-1],"categories":[],"categories_nodes":[],"categories_segments":[],"categories_sizes":[],"default_left":[0,0,0,0,0,0,0,0,0,0,0,0,0,0,0,0,0,0,0,0,0,0,0,0,0,0,0,0,0,0,0,0,0,0,0,0,0,0,0,0,0,0,0,0,0,0,0,0,0,0,0,0,0,0,0,0,0,0,0,0,0,0,0,0,0,0,0,0,0,0,0,0,0,0,0,0,0,0,0,0,0,0,0,0,0,0,0,0,0,0,0],"id":16,"left_children":[1,3,5,7,9,11,13,15,17,19,21,23,25,27,29,-1,31,33,35,37,39,41,-1,43,45,47,49,51,53,-1,55,57,59,61,63,-1,65,67,-1,69,71,-1,-1,73,75,77,-1,-1,-1,79,81,83,85,-1,87,-1,89,-1,-1,-1,-1,-1,-1,-1,-1,-1,-1,-1,-1,-1,-1,-1,-1,-1,-1,-1,-1,-1,-1,-1,-1,-1,-1,-1,-1,-1,-1,-1,-1,-1,-1],"loss_changes":[5.0864297E2,7.522805E2,4.8187943E2,2.911423E2,1.03102295E2,3.1888367E2,3.5299023E2,1.3928726E2,1.7484741E2,1.5800824E2,7.7042175E1,2.1344322E2,5.612472E2,1.420768E2,7.04834E1,0E0,2.5935753E1,4.3775266E2,8.3759766E2,4.5713684E1,1.1849123E2,5.381494E1,0E0,4.51711E2,2.8977283E2,5.23555E0,3.720335E2,1.3087613E2,1.5223264E2,0E0,1.1787839E2,1.6145248E2,6.3424263E1,8.572104E1,2.1495636E2,0E0,1.731035E2,2.7407677E1,0E0,2.939737E1,1.8511398E1,0E0,0E0,2.0837125E2,3.933186E2,1.2476123E2,0E0,0E0,0E0,1.4869666E2,3.967961E1,7.007675E0,4.538766E1,0E0,1.5854033E2,0E0,1.3086949E2,0E0,0E0,0E0,0E0,0E0,0E0,0E0,0E0,0E0,0E0,0E0,0E0,0E0,0E0,0E0,0E0,0E0,0E0,0E0,0E0,0E0,0E0,0E0,0E0,0E0,0E0,0E0,0E0,0E0,0E0,0E0,0E0,0E0,0E0],"parents":[2147483647,0,0,1,1,2,2,3,3,4,4,5,5,6,6,7,7,8,8,9,9,10,10,11,11,12,12,13,13,14,14,16,16,17,17,18,18,19,19,20,20,21,21,23,23,24,24,25,25,26,26,27,27,28,28,30,30,31,31,32,32,33,33,34,34,36,36,37,37,39,39,40,40,43,43,44,44,45,45,49,49,50,50,51,51,52,52,54,54,56,56],"right_children":[2,4,6,8,10,12,14,16,18,20,22,24,26,28,30,-1,32,34,36,38,40,42,-1,44,46,48,50,52,54,-1,56,58,60,62,64,-1,66,68,-1,70,72,-1,-1,74,76,78,-1,-1,-1,80,82,84,86,-1,88,-1,90,-1,-1,-1,-1,-1,-1,-1,-1,-1,-1,-1,-1,-1,-1,-1,-1,-1,-1,-1,-1,-1,-1,-1,-1,-1,-1,-1,-1,-1,-1,-1,-1,-1,-1],"split_conditions":[1.7E1,1.2E1,4.8E1,4E0,1.6E1,4.5E1,2.023E3,2.023E3,2.025E3,1.4E1,2.025E3,2.024E3,2.022E3,5E1,2.024E3,-5.9796256E-1,2.024E3,9E0,7E0,2.024E3,2.025E3,2.024E3,-1.1438731E0,2E1,4.4E1,4.6E1,4.6E1,2.022E3,5.1E1,-6.936912E-1,4.9E1,2E0,2E0,6E0,1E1,8.7881243E-1,1E1,2.023E3,-7.193826E-1,1.5E1,1.5E1,-7.23247E-1,-1.9931075E-1,2.023E3,2.023E3,2.9E1,-5.939641E-1,-1.4408503E-1,-6.238063E-1,2.024E3,2.024E3,4.9E1,4.9E1,6.1244166E-1,2.022E3,-8.188778E-1,5.2E1,-5.7857656E-1,3.200328E-1,8.2435094E-2,-2.7683645E-1,-3.5792646E-1,-7.684656E-2,8.648736E-1,1.4348686E-1,5.8739703E-2,-5.62775E-1,-4.5264718E-1,-6.570574E-2,-1.9654341E-1,-5.354364E-1,-7.978327E-2,1.6133313E-1,-2.9967173E-3,7.5730085E-1,5.256143E-2,-3.248841E-1,2.902898E-2,1.6570468E-1,5.1951677E-1,1.4189236E0,3.6020908E-1,9.100968E-2,-5.309886E-1,-2.3300052E-1,3.569613E-1,-1.008343E-1,4.30088E-1,-2.877588E-1,-1.9267038E-2,-6.8145245E-1],"split_indices":[2,2,2,2,2,2,1,1,1,2,1,1,1,2,1,0,1,2,2,1,1,1,0,2,2,2,2,1,2,0,2,2,2,2,2,0,2,1,0,2,2,0,0,1,1,2,0,0,0,1,1,2,2,0,1,0,2,0,0,0,0,0,0,0,0,0,0,0,0,0,0,0,0,0,0,0,0,0,0,0,0,0,0,0,0,0,0,0,0,0,0],"split_type":[0,0,0,0,0,0,0,0,0,0,0,0,0,0,0,0,0,0,0,0,0,0,0,0,0,0,0,0,0,0,0,0,0,0,0,0,0,0,0,0,0,0,0,0,0,0,0,0,0,0,0,0,0,0,0,0,0,0,0,0,0,0,0,0,0,0,0,0,0,0,0,0,0,0,0,0,0,0,0,0,0,0,0,0,0,0,0,0,0,0,0],"sum_hessian":[6.94E2,1.91E2,5.03E2,1.35E2,5.6E1,4.43E2,6E1,4E1,9.5E1,4.4E1,1.2E1,4.04E2,3.9E1,3.2E1,2.8E1,8E0,3.2E1,6.5E1,3E1,2E1,2.4E1,9E0,3E0,1.23E2,2.81E2,5E0,3.4E1,1.6E1,1.6E1,1E1,1.8E1,7E0,2.5E1,4.5E1,2E1,1.2E1,1.8E1,9E0,1.1E1,1.3E1,1.1E1,4E0,5E0,1.4E1,1.09E2,2.76E2,5E0,1E0,4E0,1E1,2.4E1,9E0,7E0,5E0,1.1E1,3E0,1.5E1,2E0,5E0,6E0,1.9E1,1.8E1,2.7E1,5E0,1.5E1,1.2E1,6E0,6E0,3E0,7E0,6E0,5E0,6E0,6E0,8E0,5.6E1,5.3E1,1.14E2,1.62E2,6E0,4E0,1.4E1,1E1,5E0,4E0,3E0,4E0,4E0,7E0,1.2E1,3E0],"tree_param":{"num_deleted":"0","num_feature":"3","num_nodes":"91","size_leaf_vector":"1"}},{"base_weights":[-5.260808E-2,-5.728712E0,9.1402835E-1,-5.93373E-1,-4.2558846E-1,2.8048167E0,-1.665211E0,1.5915984E0,7.093992E0,-3.2197378E0,4.312738E-2,2.480614E0,-1.576117E0,5.1032896E0,2.1346638E1,-1.808808E0,-4.1612744E0,1.9792035E0,-1.5757291E0,4.1337223E0,8.8057834E-1,-5.9300017E0,-7.922501E-1,2.1039125E1,2.9296832E0,2.8718383E0,4.9523563E0,-5.197172E-1,-1.1214869E0,-3.6962004E0,-7.367827E-1,-1.3372048E0,5.113004E0,-3.273262E-1,-1.2558833E0,2.663104E-1,2.7709978E0,-3.8261598E-1,1.9812629E-1,-3.258606E-1,-7.415397E-1,4.5205575E-1,-1.7191437E-1,-3.800064E-1,2.99522E0,-5.3713554E-1,7.7500474E-1,8.629388E-1,-3.0393696E-1,-2.073498E-1,5.27503E-2,-4.3874907E-1,1.5535204E-1,1.3122486E-1,-3.128748E-1,1.3510929E0,3.624362E-1,4.424839E-1,-1.5377812E-1],"categories":[],"categories_nodes":[],"categories_segments":[],"categories_sizes":[],"default_left":[0,0,0,0,0,0,0,0,0,0,0,0,0,0,0,0,0,0,0,0,0,0,0,0,0,0,0,0,0,0,0,0,0,0,0,0,0,0,0,0,0,0,0,0,0,0,0,0,0,0,0,0,0,0,0,0,0,0,0],"id":17,"left_children":[1,3,5,-1,-1,7,9,11,13,15,17,19,21,23,25,27,29,31,33,35,37,39,41,43,45,-1,47,-1,49,51,-1,53,55,-1,57,-1,-1,-1,-1,-1,-1,-1,-1,-1,-1,-1,-1,-1,-1,-1,-1,-1,-1,-1,-1,-1,-1,-1,-1],"loss_changes":[3.8459468E3,5.5461426E0,2.925871E3,0E0,0E0,1.7891914E3,6.7467596E2,7.67086E2,2.0473931E3,1.6915588E2,3.8549466E2,5.5710706E2,2.0007393E2,2.293762E3,9.454668E2,1.2226062E2,9.057837E1,5.8884314E2,3.226674E1,3.5320593E3,5.722697E2,1.1548859E1,2.638406E2,1.8849685E3,2.482484E3,0E0,1.4377124E2,0E0,7.4877045E1,2.644809E2,0E0,1.3701077E2,3.1357513E2,0E0,9.968469E1,0E0,0E0,0E0,0E0,0E0,0E0,0E0,0E0,0E0,0E0,0E0,0E0,0E0,0E0,0E0,0E0,0E0,0E0,0E0,0E0,0E0,0E0,0E0,0E0],"parents":[2147483647,0,0,1,1,2,2,5,5,6,6,7,7,8,8,9,9,10,10,11,11,12,12,13,13,14,14,15,15,16,16,17,17,18,18,19,19,20,20,21,21,22,22,23,23,24,24,26,26,28,28,29,29,31,31,32,32,34,34],"right_children":[2,4,6,-1,-1,8,10,12,14,16,18,20,22,24,26,28,30,32,34,36,38,40,42,44,46,-1,48,-1,50,52,-1,54,56,-1,58,-1,-1,-1,-1,-1,-1,-1,-1,-1,-1,-1,-1,-1,-1,-1,-1,-1,-1,-1,-1,-1,-1,-1,-1],"split_conditions":[1E0,4.6E1,6E0,-5.93373E-1,-4.2558846E-1,4E0,8E0,3E0,4.5E1,2.3E1,2.6E1,2.5E1,1.2E1,1E1,5E1,5E0,4.9E1,1.2E1,2.9E1,2.4E1,3E1,9E0,1.7E1,4E0,2.8E1,2.8718383E0,5.2E1,-5.197172E-1,7E0,4.6E1,-7.367827E-1,6E0,1.5E1,-3.273262E-1,3E1,2.663104E-1,2.7709978E0,-3.8261598E-1,1.9812629E-1,-3.258606E-1,-7.415397E-1,4.5205575E-1,-1.7191437E-1,-3.800064E-1,2.99522E0,-5.3713554E-1,7.7500474E-1,8.629388E-1,-3.0393696E-1,-2.073498E-1,5.27503E-2,-4.3874907E-1,1.5535204E-1,1.3122486E-1,-3.128748E-1,1.3510929E0,3.624362E-1,4.424839E-1,-1.5377812E-1],"split_indices":[0,2,0,0,0,0,0,0,2,2,2,2,2,2,2,2,2,2,2,2,2,2,2,2,2,0,2,0,0,2,0,2,2,0,2,0,0,0,0,0,0,0,0,0,0,0,0,0,0,0,0,0,0,0,0,0,0,0,0],"split_type":[0,0,0,0,0,0,0,0,0,0,0,0,0,0,0,0,0,0,0,0,0,0,0,0,0,0,0,0,0,0,0,0,0,0,0,0,0,0,0,0,0,0,0,0,0,0,0,0,0,0,0,0,0,0,0,0,0,0,0],"sum_hessian":[6.99E2,1.01E2,5.98E2,8.6E1,1.5E1,3.45E2,2.53E2,2.7E2,7.5E1,1.32E2,1.21E2,2.11E2,5.9E1,6.7E1,8E0,5.4E1,7.8E1,5.5E1,6.6E1,1.03E2,1.08E2,8E0,5.1E1,7E0,6E1,5E0,3E0,8E0,4.6E1,7E1,8E0,2.7E1,2.8E1,9E0,5.7E1,9.8E1,5E0,2E1,8.8E1,4E0,4E0,7E0,4.4E1,2E0,5E0,2.2E1,3.8E1,2E0,1E0,2.9E1,1.7E1,6.2E1,8E0,1.1E1,1.6E1,3E0,2.5E1,2E0,5.5E1],"tree_param":{"num_deleted":"0","num_feature":"3","num_nodes":"59","size_leaf_vector":"1"}},{"base_weights":[-1.5548824E-1,-4.972279E0,6.4364696E-1,-4.312043E-1,-6.485562E-1,2.2654114E0,-1.6702206E0,1.2420921E0,6.3698626E0,-2.582105E0,7.164965E-1,4.9853854E0,3.3875372E-2,5.492664E0,9.611637E-1,-2.917303E0,-2.0996604E0,-3.289773E0,5.701943E-1,-6.4995646E-1,5.6119066E-1,9.8777086E-1,-2.7943482E0,7.9043585E-1,3.3530152E-1,-1.406806E0,-3.848435E0,-4.27037E-1,-1.8301148E-2,-4.5078254E-1,-4.13216E-2,-9.6859473E-1,2.0246063E-1,5.1570125E-2,2.0421295E-1,1.4357509E-1,-3.237216E-1,-2.5394917E-3,-3.8916528E-1,-4.4859067E-1,-2.9551876E-1],"categories":[],"categories_nodes":[],"categories_segments":[],"categories_sizes":[],"default_left":[0,0,0,0,0,0,0,0,0,0,0,0,0,0,0,0,0,0,0,0,0,0,0,0,0,0,0,0,0,0,0,0,0,0,0,0,0,0,0,0,0],"id":18,"left_children":[1,3,5,-1,-1,7,9,11,13,15,17,19,21,23,-1,25,27,29,-1,31,-1,33,35,-1,-1,37,39,-1,-1,-1,-1,-1,-1,-1,-1,-1,-1,-1,-1,-1,-1],"loss_changes":[2.7592751E3,7.3944824E1,2.311601E3,0E0,0E0,1.5125471E3,5.5465814E2,1.3159397E3,1.5195117E2,2.3630127E1,1.4368441E3,2.5432434E2,5.989805E2,2.7794714E2,0E0,1.43672E2,3.2789703E2,1.3828918E2,0E0,2.1294882E2,0E0,8.1570175E1,1.0955679E2,0E0,0E0,1.4407013E2,2.3755615E1,0E0,0E0,0E0,0E0,0E0,0E0,0E0,0E0,0E0,0E0,0E0,0E0,0E0,0E0],"parents":[2147483647,0,0,1,1,2,2,5,5,6,6,7,7,8,8,9,9,10,10,11,11,12,12,13,13,15,15,16,16,17,17,19,19,21,21,22,22,25,25,26,26],"right_children":[2,4,6,-1,-1,8,10,12,14,16,18,20,22,24,-1,26,28,30,-1,32,-1,34,36,-1,-1,38,40,-1,-1,-1,-1,-1,-1,-1,-1,-1,-1,-1,-1,-1,-1],"split_conditions":[1E0,2.025E3,6E0,-4.312043E-1,-6.485562E-1,4E0,2.025E3,2.023E3,5E0,2.024E3,8E0,2.022E3,3E0,2.025E3,9.611637E-1,7E0,8E0,7E0,5.701943E-1,2E0,5.6119066E-1,2.025E3,2.024E3,7.9043585E-1,3.3530152E-1,2.023E3,2.023E3,-4.27037E-1,-1.8301148E-2,-4.5078254E-1,-4.13216E-2,-9.6859473E-1,2.0246063E-1,5.1570125E-2,2.0421295E-1,1.4357509E-1,-3.237216E-1,-2.5394917E-3,-3.8916528E-1,-4.4859067E-1,-2.9551876E-1],"split_indices":[0,1,0,0,0,0,1,1,0,1,0,1,0,1,0,0,0,0,0,0,0,1,1,0,0,1,1,0,0,0,0,0,0,0,0,0,0,0,0,0,0],"split_type":[0,0,0,0,0,0,0,0,0,0,0,0,0,0,0,0,0,0,0,0,0,0,0,0,0,0,0,0,0,0,0,0,0,0,0,0,0,0,0,0,0],"sum_hessian":[7.15E2,1.01E2,6.14E2,7.3E1,2.8E1,3.61E2,2.53E2,2.9E2,7.1E1,1.83E2,7E1,7E1,2.2E2,5.8E1,1.3E1,1.05E2,7.8E1,3.9E1,3.1E1,7E0,6.3E1,1.65E2,5.5E1,2.6E1,3.2E1,4.1E1,6.4E1,3.6E1,4.2E1,2.7E1,1.2E1,1E0,6E0,1.15E2,5E1,5E0,5E1,2.7E1,1.4E1,3.5E1,2.9E1],"tree_param":{"num_deleted":"0","num_feature":"3","num_nodes":"41","size_leaf_vector":"1"}},{"base_weights":[-2.3306091E-1,-4.842611E0,5.458649E-1,-4.208619E0,-5.276915E-1,2.0611053E0,-1.6457309E0,-4.8855376E-1,-3.319286E-1,1.353428E0,4.6319056E0,-3.1538036E0,-8.5360837E-1,2.0612328E0,-1.6339301E0,8.7308294E-1,2.3258488E0,-1.9516114E0,-4.152334E0,-2.8203328E0,5.9913194E-1,1.6126846E0,3.6910018E-1,2.5479218E-1,-2.0194366E0,1.0215338E-1,4.587879E-1,-1.5947323E-2,-2.146308E0,-4.910452E-1,-3.465054E-1,-3.5824518E0,-1.7705594E-1,-1.0830432E0,1.0978816E0,3.2121548E-1,6.725293E-2,-1.3488851E-1,-2.811553E-1,-1.8134929E-1,-2.539768E-1,-2.2466989E-1,-3.8044384E-1,1.2101991E-3,-1.4944792E-1,-2.268353E-4,2.168359E-1],"categories":[],"categories_nodes":[],"categories_segments":[],"categories_sizes":[],"default_left":[0,0,0,0,0,0,0,0,0,0,0,0,0,0,0,0,0,0,0,0,0,0,0,0,0,0,0,0,0,0,0,0,0,0,0,0,0,0,0,0,0,0,0,0,0,0,0],"id":19,"left_children":[1,3,5,7,-1,9,11,-1,-1,13,15,17,19,21,23,-1,25,27,29,31,33,35,-1,-1,37,-1,-1,-1,39,-1,-1,41,-1,43,45,-1,-1,-1,-1,-1,-1,-1,-1,-1,-1,-1,-1],"loss_changes":[2.5088105E3,5.601074E0,1.9892269E3,1.1475769E1,0E0,6.377621E2,2.8997955E2,0E0,0E0,5.933041E2,6.98072E2,9.2731995E1,4.645464E2,1.5926031E2,9.220044E1,0E0,1.4283328E2,1.3614655E1,6.4317627E0,4.8860657E1,8.005357E1,2.6701108E2,0E0,0E0,2.2765274E1,0E0,0E0,0E0,1.083374E-1,0E0,0E0,3.0168152E0,0E0,9.930891E0,8.5975975E1,0E0,0E0,0E0,0E0,0E0,0E0,0E0,0E0,0E0,0E0,0E0,0E0],"parents":[2147483647,0,0,1,1,2,2,3,3,5,5,6,6,9,9,10,10,11,11,12,12,13,13,14,14,16,16,17,17,18,18,19,19,20,20,21,21,24,24,28,28,31,31,33,33,34,34],"right_children":[2,4,6,8,-1,10,12,-1,-1,14,16,18,20,22,24,-1,26,28,30,32,34,36,-1,-1,38,-1,-1,-1,40,-1,-1,42,-1,44,46,-1,-1,-1,-1,-1,-1,-1,-1,-1,-1,-1,-1],"split_conditions":[1E0,2.024E3,6E0,2.023E3,-5.276915E-1,4E0,7E0,-4.8855376E-1,-3.319286E-1,3E0,2.025E3,2.024E3,2.024E3,2.025E3,2.024E3,8.7308294E-1,5E0,2.022E3,2.025E3,2.023E3,8E0,2.023E3,3.6910018E-1,2.5479218E-1,2.025E3,1.0215338E-1,4.587879E-1,-1.5947323E-2,2.023E3,-4.910452E-1,-3.465054E-1,8E0,-1.7705594E-1,2.025E3,2.025E3,3.2121548E-1,6.725293E-2,-1.3488851E-1,-2.811553E-1,-1.8134929E-1,-2.539768E-1,-2.2466989E-1,-3.8044384E-1,1.2101991E-3,-1.4944792E-1,-2.268353E-4,2.168359E-1],"split_indices":[0,1,0,1,0,0,0,0,0,0,1,1,1,1,1,0,0,1,1,1,0,1,0,0,1,0,0,0,1,0,0,0,0,1,1,0,0,0,0,0,0,0,0,0,0,0,0],"split_type":[0,0,0,0,0,0,0,0,0,0,0,0,0,0,0,0,0,0,0,0,0,0,0,0,0,0,0,0,0,0,0,0,0,0,0,0,0,0,0,0,0,0,0,0,0,0,0],"sum_hessian":[6.97E2,1E2,5.97E2,4.5E1,5.5E1,3.53E2,2.44E2,2.3E1,2.2E1,2.78E2,7.5E1,8.3E1,1.61E2,2.25E2,5.3E1,2.6E1,4.9E1,3.9E1,4.4E1,6.8E1,9.3E1,1.78E2,4.7E1,4E0,4.9E1,3.2E1,1.7E1,4E0,3.5E1,1.8E1,2.6E1,3.8E1,3E1,2.1E1,7.2E1,6.5E1,1.13E2,2.8E1,2.1E1,2.2E1,1.3E1,7E0,3.1E1,6E0,1.5E1,3.6E1,3.6E1],"tree_param":{"num_deleted":"0","num_feature":"3","num_nodes":"47","size_leaf_vector":"1"}},{"base_weights":[1.9729242E-1,-4.09669E0,9.160958E-1,-4.1263977E-1,-1.7210661E-1,2.7227702E0,-1.5698543E0,1.9558583E0,5.660351E0,-2.5574872E0,-5.926953E-1,2.5732403E0,-8.1849265E-1,1.8153179E0,1.1239222E1,-1.8380976E0,-4.1889324E0,-3.4825766E0,1.7626098E-1,5.7464595E0,2.2994275E0,1.2838058E0,-1.846906E0,1.28799095E1,-1.3086052E0,1.5862422E1,-1.3107363E0,-3.9973638E0,-1.3655475E0,-5.416028E0,-2.6121988E0,-2.58104E0,-8.246536E-1,2.5376616E0,-1.0235515E0,2.4340065E-1,7.633111E-1,-5.0279587E-3,3.0544865E-1,-4.1791868E-1,5.140182E-1,-6.6481686E-1,-2.3768215E-2,-2.861205E-1,2.0034845E0,-5.5686134E-1,8.879468E-1,2.214133E0,1.069295E0,2.7378342E-1,-7.0559084E-1,2.6909667E-1,-4.62265E-1,5.7872083E-2,-1.926069E-1,-4.1998515E-1,-6.570946E-1,1.3197702E-1,-4.5284748E-1,-3.91142E-1,-5.3224474E-2,1.5487145E-1,1.2899842E0,-1.0547435E0,-5.946355E-2],"categories":[],"categories_nodes":[],"categories_segments":[],"categories_sizes":[],"default_left":[0,0,0,0,0,0,0,0,0,0,0,0,0,0,0,0,0,0,0,0,0,0,0,0,0,0,0,0,0,0,0,0,0,0,0,0,0,0,0,0,0,0,0,0,0,0,0,0,0,0,0,0,0,0,0,0,0,0,0,0,0,0,0,0,0],"id":20,"left_children":[1,3,5,-1,-1,7,9,11,13,15,17,19,21,23,25,27,29,31,33,35,37,39,41,43,45,47,49,51,53,55,57,59,-1,61,63,-1,-1,-1,-1,-1,-1,-1,-1,-1,-1,-1,-1,-1,-1,-1,-1,-1,-1,-1,-1,-1,-1,-1,-1,-1,-1,-1,-1,-1,-1],"loss_changes":[2.2384E3,2.3779297E-1,2.793373E3,0E0,0E0,7.999607E2,2.5133368E2,4.936897E2,1.5669668E3,1.448742E2,2.9616547E2,1.9097034E2,1.16958755E2,1.5722766E3,1.7614209E3,8.841467E1,6.130951E1,9.897214E1,3.029206E2,9.391095E1,3.86922E2,4.0069412E2,2.7656686E2,1.1835907E3,1.6118922E3,4.7733398E2,2.2865552E2,7.935335E1,8.502956E1,1.899292E0,1.4913657E2,6.606009E1,0E0,3.489372E2,2.8375922E2,0E0,0E0,0E0,0E0,0E0,0E0,0E0,0E0,0E0,0E0,0E0,0E0,0E0,0E0,0E0,0E0,0E0,0E0,0E0,0E0,0E0,0E0,0E0,0E0,0E0,0E0,0E0,0E0,0E0,0E0],"parents":[2147483647,0,0,1,1,2,2,5,5,6,6,7,7,8,8,9,9,10,10,11,11,12,12,13,13,14,14,15,15,16,16,17,17,18,18,19,19,20,20,21,21,22,22,23,23,24,24,25,25,26,26,27,27,28,28,29,29,30,30,31,31,33,33,34,34],"right_children":[2,4,6,-1,-1,8,10,12,14,16,18,20,22,24,26,28,30,32,34,36,38,40,42,44,46,48,50,52,54,56,58,60,-1,62,64,-1,-1,-1,-1,-1,-1,-1,-1,-1,-1,-1,-1,-1,-1,-1,-1,-1,-1,-1,-1,-1,-1,-1,-1,-1,-1,-1,-1,-1,-1],"split_conditions":[1E0,5.2E1,6E0,-4.1263977E-1,-1.7210661E-1,4E0,8E0,3E0,3.4E1,3.7E1,1E1,4E0,2E1,1E1,5E0,7E0,4.6E1,9E0,2.4E1,2E0,1.7E1,1.2E1,2.5E1,4E0,5E0,3.8E1,4.1E1,2E0,1.5E1,4.1E1,4.8E1,6E0,-8.246536E-1,2.3E1,2.5E1,2.4340065E-1,7.633111E-1,-5.0279587E-3,3.0544865E-1,-4.1791868E-1,5.140182E-1,-6.6481686E-1,-2.3768215E-2,-2.861205E-1,2.0034845E0,-5.5686134E-1,8.879468E-1,2.214133E0,1.069295E0,2.7378342E-1,-7.0559084E-1,2.6909667E-1,-4.62265E-1,5.7872083E-2,-1.926069E-1,-4.1998515E-1,-6.570946E-1,1.3197702E-1,-4.5284748E-1,-3.91142E-1,-5.3224474E-2,1.5487145E-1,1.2899842E0,-1.0547435E0,-5.946355E-2],"split_indices":[0,2,0,0,0,0,0,0,2,2,2,2,2,2,0,2,2,2,2,2,2,2,2,2,0,2,2,2,2,2,2,2,0,2,2,0,0,0,0,0,0,0,0,0,0,0,0,0,0,0,0,0,0,0,0,0,0,0,0,0,0,0,0,0,0],"split_type":[0,0,0,0,0,0,0,0,0,0,0,0,0,0,0,0,0,0,0,0,0,0,0,0,0,0,0,0,0,0,0,0,0,0,0,0,0,0,0,0,0,0,0,0,0,0,0,0,0,0,0,0,0,0,0,0,0,0,0,0,0,0,0,0,0],"sum_hessian":[7.23E2,1.03E2,6.2E2,1.01E2,2E0,3.59E2,2.61E2,2.86E2,7.3E1,1.29E2,1.32E2,2.34E2,5.2E1,4.4E1,2.9E1,9.1E1,3.8E1,2.7E1,1.05E2,1.7E1,2.17E2,1.7E1,3.5E1,9E0,3.5E1,2.1E1,8E0,1.5E1,7.6E1,2E1,1.8E1,2.4E1,3E0,3.5E1,7E1,7E0,1E1,5.3E1,1.64E2,7E0,1E1,8E0,2.7E1,3E0,6E0,2.5E1,1E1,8E0,1.3E1,5E0,3E0,1E0,1.4E1,1.7E1,5.9E1,1.2E1,8E0,6E0,1.2E1,1.4E1,1E1,3.3E1,2E0,2E0,6.8E1],"tree_param":{"num_deleted":"0","num_feature":"3","num_nodes":"65","size_leaf_vector":"1"}},{"base_weights":[1.8777548E-1,-3.6158615E-1,7.948275E-1,2.1044166E0,-1.138809E0,1.216767E0,5.358711E0,-2.228721E0,-4.5546023E-3,1.8746672E0,-1.2044048E0,3.3815017E0,1.4297075E1,-9.8325133E-1,-2.5836236E0,7.163853E-1,-1.4291608E0,-1.20511584E-1,2.766354E0,-4.101574E0,-7.690163E-1,1.5771773E1,1.4005717E0,1.7685858E1,-4.023748E-1,-4.015873E0,1.1432357E-1,-2.8453643E0,-1.3318013E0,5.988046E-2,6.107661E0,-2.300527E0,2.9266688E-1,4.1323158E-1,-1.5101549E-1,8.662583E-1,1.09327905E-1,-6.251035E-2,-6.0624355E-1,5.3174573E-1,-1.7470321E-1,-2.646614E-1,2.542207E0,-7.476533E-1,5.2636766E-1,2.2449026E0,2.5472632E-1,-2.377448E-1,-5.0599355E-1,-1.6959558E-1,2.2433518E-1,-2.4652286E-1,-4.038883E-1,2.0199518E-1,-3.9530718E-1,3.8420822E-2,-5.792989E-1,1.1408911E0,2.9631737E-1,-1.3305143E-1,-5.6354886E-1,5.5351126E-1,-9.396411E-2],"categories":[],"categories_nodes":[],"categories_segments":[],"categories_sizes":[],"default_left":[0,0,0,0,0,0,0,0,0,0,0,0,0,0,0,0,0,0,0,0,0,0,0,0,0,0,0,0,0,0,0,0,0,0,0,0,0,0,0,0,0,0,0,0,0,0,0,0,0,0,0,0,0,0,0,0,0,0,0,0,0,0,0],"id":21,"left_children":[1,-1,3,5,7,9,11,13,15,17,19,21,23,25,27,29,31,33,35,37,39,41,43,45,-1,47,49,51,53,55,57,59,61,-1,-1,-1,-1,-1,-1,-1,-1,-1,-1,-1,-1,-1,-1,-1,-1,-1,-1,-1,-1,-1,-1,-1,-1,-1,-1,-1,-1,-1,-1],"loss_changes":[1.66074E3,0E0,1.5724033E3,1.062289E3,3.102854E2,4.6738153E2,1.3478228E3,5.403827E1,1.2837871E2,4.0952045E2,7.631364E1,1.5978315E3,9.403574E2,1.0031499E2,2.8648193E1,2.9340436E2,6.3687668E1,4.3175415E2,1.5590381E3,5.074536E1,3.4263916E2,1.6669685E3,2.028359E3,8.0810864E2,0E0,1.6552124E0,9.2449745E1,2.6792847E1,1.749162E2,1.445943E2,1.16220856E2,8.308064E1,1.0210563E2,0E0,0E0,0E0,0E0,0E0,0E0,0E0,0E0,0E0,0E0,0E0,0E0,0E0,0E0,0E0,0E0,0E0,0E0,0E0,0E0,0E0,0E0,0E0,0E0,0E0,0E0,0E0,0E0,0E0,0E0],"parents":[2147483647,0,0,2,2,3,3,4,4,5,5,6,6,7,7,8,8,9,9,10,10,11,11,12,12,13,13,14,14,15,15,16,16,17,17,18,18,19,19,20,20,21,21,22,22,23,23,25,25,26,26,27,27,28,28,29,29,30,30,31,31,32,32],"right_children":[2,-1,4,6,8,10,12,14,16,18,20,22,24,26,28,30,32,34,36,38,40,42,44,46,-1,48,50,52,54,56,58,60,62,-1,-1,-1,-1,-1,-1,-1,-1,-1,-1,-1,-1,-1,-1,-1,-1,-1,-1,-1,-1,-1,-1,-1,-1,-1,-1,-1,-1,-1,-1],"split_conditions":[1E0,-3.6158615E-1,6E0,4E0,8E0,3E0,4.1E1,1.5E1,3.5E1,1.7E1,1.2E1,1E1,5E0,5E0,4.6E1,3.1E1,4.6E1,4E0,2.5E1,9E0,1.7E1,4E0,2.5E1,4.9E1,-4.023748E-1,7E0,7E0,3.8E1,4.9E1,3E1,3.2E1,4.3E1,4.7E1,4.1323158E-1,-1.5101549E-1,8.662583E-1,1.09327905E-1,-6.251035E-2,-6.0624355E-1,5.3174573E-1,-1.7470321E-1,-2.646614E-1,2.542207E0,-7.476533E-1,5.2636766E-1,2.2449026E0,2.5472632E-1,-2.377448E-1,-5.0599355E-1,-1.6959558E-1,2.2433518E-1,-2.4652286E-1,-4.038883E-1,2.0199518E-1,-3.9530718E-1,3.8420822E-2,-5.792989E-1,1.1408911E0,2.9631737E-1,-1.3305143E-1,-5.6354886E-1,5.5351126E-1,-9.396411E-2],"split_indices":[0,0,0,0,0,0,2,2,2,2,2,2,0,2,2,2,2,2,2,2,2,2,2,2,0,0,0,2,2,2,2,2,2,0,0,0,0,0,0,0,0,0,0,0,0,0,0,0,0,0,0,0,0,0,0,0,0,0,0,0,0,0,0],"split_type":[0,0,0,0,0,0,0,0,0,0,0,0,0,0,0,0,0,0,0,0,0,0,0,0,0,0,0,0,0,0,0,0,0,0,0,0,0,0,0,0,0,0,0,0,0,0,0,0,0,0,0,0,0,0,0,0,0,0,0,0,0,0,0],"sum_hessian":[7.17E2,9.8E1,6.19E2,3.69E2,2.5E2,2.91E2,7.8E1,1.27E2,1.23E2,2.29E2,6.2E1,6.5E1,1.3E1,2.9E1,9.8E1,8.2E1,4.1E1,7.1E1,1.58E2,7E0,5.5E1,8E0,5.7E1,1.1E1,2E0,7E0,2.2E1,8E1,1.8E1,7.4E1,8E0,2.7E1,1.4E1,1.7E1,5.4E1,3.4E1,1.24E2,3E0,4E0,7E0,4.8E1,3E0,5E0,1.7E1,4E1,8E0,3E0,4E0,3E0,1.2E1,1E1,6.3E1,1.7E1,8E0,1E1,7.1E1,3E0,2E0,6E0,2.2E1,5E0,2E0,1.2E1],"tree_param":{"num_deleted":"0","num_feature":"3","num_nodes":"63","size_leaf_vector":"1"}},{"base_weights":[1.7727135E-1,-3.037511E-1,7.4524254E-1,2.2327094E0,-1.3534769E0,1.488218E0,5.3329163E0,4.619813E-2,-2.3549542E0,2.934181E0,5.738607E-1,3.623867E0,1.4712109E1,-2.6281073E0,1.4408183E0,-6.3645756E-1,-2.1345026E0,3.817758E0,-6.1950083E0,-1.4363908E0,2.2221522E0,6.803521E0,8.27788E-1,5.755806E-2,2.0984407E1,-3.338836E0,1.4820085E0,5.711687E-1,8.000501E0,-1.1844347E0,-2.5378196E0,2.8767693E-1,1.1169689E0,-8.4689915E-1,-6.667872E-2,1.6517526E-2,-4.90238E-1,4.1988683E-1,-1.1143373E-2,1.2799948E0,-1.7586738E-1,-1.5617512E-1,5.531613E-1,3.4844846E-1,-5.11161E-1,2.4213352E0,8.608033E-1,-1.4400746E-1,-3.9366627E-1,2.939268E-1,-2.902145E-1,1.267411E-1,-2.7720827E-1,3.008585E-2,1.0516905E0,-2.528107E-1,4.871939E-2,-4.29205E-1,-2.0492168E-1],"categories":[],"categories_nodes":[],"categories_segments":[],"categories_sizes":[],"default_left":[0,0,0,0,0,0,0,0,0,0,0,0,0,0,0,0,0,0,0,0,0,0,0,0,0,0,0,0,0,0,0,0,0,0,0,0,0,0,0,0,0,0,0,0,0,0,0,0,0,0,0,0,0,0,0,0,0,0,0],"id":22,"left_children":[1,-1,3,5,7,9,11,13,15,17,19,21,23,25,27,-1,29,31,33,35,37,39,41,43,45,47,49,51,53,55,57,-1,-1,-1,-1,-1,-1,-1,-1,-1,-1,-1,-1,-1,-1,-1,-1,-1,-1,-1,-1,-1,-1,-1,-1,-1,-1,-1,-1],"loss_changes":[1.2767446E3,0E0,1.8573566E3,7.952743E2,3.463392E2,3.7115594E2,1.02066174E3,3.9166922E2,1.1370032E2,9.0288257E2,5.797375E2,5.10021E2,9.179695E2,1.10110565E2,3.890495E2,0E0,4.9872803E1,6.596759E2,1.2006375E2,4.3933954E2,4.433002E2,1.4087603E3,3.6831818E2,8.866876E1,7.130908E1,2.9519928E1,4.686328E1,1.4783156E2,1.5183923E2,9.7814896E1,7.348834E1,0E0,0E0,0E0,0E0,0E0,0E0,0E0,0E0,0E0,0E0,0E0,0E0,0E0,0E0,0E0,0E0,0E0,0E0,0E0,0E0,0E0,0E0,0E0,0E0,0E0,0E0,0E0,0E0],"parents":[2147483647,0,0,2,2,3,3,4,4,5,5,6,6,7,7,8,8,9,9,10,10,11,11,12,12,13,13,14,14,16,16,17,17,18,18,19,19,20,20,21,21,22,22,23,23,24,24,25,25,26,26,27,27,28,28,29,29,30,30],"right_children":[2,-1,4,6,8,10,12,14,16,18,20,22,24,26,28,-1,30,32,34,36,38,40,42,44,46,48,50,52,54,56,58,-1,-1,-1,-1,-1,-1,-1,-1,-1,-1,-1,-1,-1,-1,-1,-1,-1,-1,-1,-1,-1,-1,-1,-1,-1,-1,-1,-1],"split_conditions":[1E0,-3.037511E-1,6E0,4.3E1,2.4E1,2E0,4E0,7E0,2.5E1,3.9E1,2.5E1,2E0,4.5E1,2.2E1,2.1E1,-6.3645756E-1,3.4E1,3.3E1,4.2E1,1.9E1,3.5E1,4.8E1,4.9E1,4.4E1,4.9E1,6E0,2.3E1,1.7E1,8E0,8E0,3.7E1,2.8767693E-1,1.1169689E0,-8.4689915E-1,-6.667872E-2,1.6517526E-2,-4.90238E-1,4.1988683E-1,-1.1143373E-2,1.2799948E0,-1.7586738E-1,-1.5617512E-1,5.531613E-1,3.4844846E-1,-5.11161E-1,2.4213352E0,8.608033E-1,-1.4400746E-1,-3.9366627E-1,2.939268E-1,-2.902145E-1,1.267411E-1,-2.7720827E-1,3.008585E-2,1.0516905E0,-2.528107E-1,4.871939E-2,-4.29205E-1,-2.0492168E-1],"split_indices":[0,0,0,2,2,0,0,0,2,2,2,0,2,2,2,0,2,2,2,2,2,2,2,2,2,2,2,2,0,0,2,0,0,0,0,0,0,0,0,0,0,0,0,0,0,0,0,0,0,0,0,0,0,0,0,0,0,0,0],"split_type":[0,0,0,0,0,0,0,0,0,0,0,0,0,0,0,0,0,0,0,0,0,0,0,0,0,0,0,0,0,0,0,0,0,0,0,0,0,0,0,0,0,0,0,0,0,0,0,0,0,0,0,0,0,0,0,0,0,0,0],"sum_hessian":[6.97E2,1.04E2,5.93E2,3.47E2,2.46E2,2.81E2,6.6E1,1.03E2,1.43E2,1.08E2,1.73E2,5.7E1,9E0,3.5E1,6.8E1,6E0,1.37E2,9.9E1,9E0,7.8E1,9.5E1,2.6E1,3.1E1,3E0,6E0,3E1,5E0,6.1E1,7E0,4.2E1,9.5E1,8.9E1,1E1,6E0,3E0,5.4E1,2.4E1,5.1E1,4.4E1,1.5E1,1.1E1,2.1E1,1E1,2E0,1E0,4E0,2E0,8E0,2.2E1,4E0,1E0,5.1E1,1E1,2E0,5E0,2.3E1,1.9E1,1.9E1,7.6E1],"tree_param":{"num_deleted":"0","num_feature":"3","num_nodes":"59","size_leaf_vector":"1"}},{"base_weights":[2.1592225E-1,-2.9834242E0,7.6255906E-1,-2.4436674E0,-3.439496E-1,2.2126775E0,-1.3079715E0,-3.0795377E-1,-1.7886522E-1,1.8990316E0,8.1535715E-1,-1.9318362E0,-7.9351777E-1,3.6933713E0,1.3925524E0,1.5135847E-1,-3.0028355E0,-2.7841167E0,1.1261458E0,-2.1963358E0,4.418577E0,7.6177406E-1,3.6675484E0,3.1446233E-2,-1.41445445E-2,-1.9368336E-1,-3.2123065E0,-3.155384E-1,-1.8882492E0,1.4964402E-1,6.813566E-2,-9.4817114E-1,-1.004498E-2,5.351947E-1,3.327797E-1,1.768332E-1,-2.059357E-1,8.28685E-1,2.7272506E-3,-3.715768E-1,-2.4220505E-1,-2.6829144E-1,-1.07059024E-1],"categories":[],"categories_nodes":[],"categories_segments":[],"categories_sizes":[],"default_left":[0,0,0,0,0,0,0,0,0,0,0,0,0,0,0,0,0,0,0,0,0,0,0,0,0,0,0,0,0,0,0,0,0,0,0,0,0,0,0,0,0,0,0],"id":23,"left_children":[1,3,5,7,-1,9,11,-1,-1,13,-1,15,17,19,21,23,25,27,29,31,33,35,37,-1,-1,-1,39,-1,41,-1,-1,-1,-1,-1,-1,-1,-1,-1,-1,-1,-1,-1,-1],"loss_changes":[1.2702134E3,1.7688843E1,1.8644532E3,1.6150024E1,0E0,6.6463403E2,8.063013E1,0E0,0E0,3.1111768E2,0E0,2.5703104E2,5.4575714E2,3.343197E2,3.889662E2,1.9547771E0,1.074884E1,1.732428E1,1.1003708E1,1.364714E2,5.1420654E1,6.141623E2,9.918903E2,0E0,0E0,0E0,1.5667725E1,0E0,1.20722885E1,0E0,0E0,0E0,0E0,0E0,0E0,0E0,0E0,0E0,0E0,0E0,0E0,0E0,0E0],"parents":[2147483647,0,0,1,1,2,2,3,3,5,5,6,6,9,9,11,11,12,12,13,13,14,14,15,15,16,16,17,17,18,18,19,19,20,20,21,21,22,22,26,26,28,28],"right_children":[2,4,6,8,-1,10,12,-1,-1,14,-1,16,18,20,22,24,26,28,30,32,34,36,38,-1,-1,-1,40,-1,42,-1,-1,-1,-1,-1,-1,-1,-1,-1,-1,-1,-1,-1,-1],"split_conditions":[1E0,2.024E3,6E0,2.023E3,-3.439496E-1,5E0,2.024E3,-3.0795377E-1,-1.7886522E-1,2.023E3,8.1535715E-1,7E0,8E0,2.022E3,4E0,2.023E3,8E0,7E0,2.025E3,2E0,2E0,3E0,2.025E3,3.1446233E-2,-1.41445445E-2,-1.9368336E-1,2.023E3,-3.155384E-1,2.025E3,1.4964402E-1,6.813566E-2,-9.4817114E-1,-1.004498E-2,5.351947E-1,3.327797E-1,1.768332E-1,-2.059357E-1,8.28685E-1,2.7272506E-3,-3.715768E-1,-2.4220505E-1,-2.6829144E-1,-1.07059024E-1],"split_indices":[0,1,0,1,0,0,1,0,0,1,0,0,0,1,0,1,0,0,1,0,0,0,1,0,0,0,1,0,1,0,0,0,0,0,0,0,0,0,0,0,0,0,0],"split_type":[0,0,0,0,0,0,0,0,0,0,0,0,0,0,0,0,0,0,0,0,0,0,0,0,0,0,0,0,0,0,0,0,0,0,0,0,0,0,0,0,0,0,0],"sum_hessian":[7.24E2,1.05E2,6.19E2,5.1E1,5.4E1,3.64E2,2.55E2,2.4E1,2.7E1,3.47E2,1.7E1,1.14E2,1.41E2,7.5E1,2.72E2,3.9E1,7.5E1,6.9E1,7.2E1,8E0,6.7E1,2.14E2,5.8E1,2.5E1,1.4E1,1.4E1,6.1E1,4.7E1,2.2E1,3.8E1,3.4E1,1E0,7E0,3.4E1,3.3E1,1.58E2,5.6E1,2.5E1,3.3E1,3.5E1,2.6E1,1E1,1.2E1],"tree_param":{"num_deleted":"0","num_feature":"3","num_nodes":"43","size_leaf_vector":"1"}},{"base_weights":[1.3334942E-1,3.394972E-1,-1.5935367E0,1.52997E-2,3.6969838E0,-2.6204208E-1,-4.299304E0,2.898262E-1,-1.8126702E0,9.044082E0,1.5201414E0,-1.5125006E0,1.1489532E0,-8.458333E-1,-1.8445648E0,1.7814721E-1,3.1429589E0,-2.7510624E0,9.5238113E-1,1.4065503E0,5.786108E-1,-8.4378046E-1,3.0668025E0,-6.9728875E-1,-3.8585238E0,5.9772277E0,-5.534801E-2,-1.9449224E-1,-5.7658404E-1,6.40213E-1,-7.556408E-1,-6.365223E-1,8.020983E0,-4.5133877E0,-3.147507E-1,2.6240127E0,-2.5269368E-1,-3.7014645E-1,3.0309337E-1,-3.5442448E0,4.6977782E-1,4.538506E0,-2.3500092E-1,-2.9206882E0,1.3989347E0,-5.700504E-1,-2.601443E-1,8.9664376E-1,9.95609E-2,1.7816274E0,-1.5815485E0,-8.6690974E-1,7.344799E-2,4.021223E-2,2.5536093E-1,-1.9496396E-1,6.4560855E-3,4.109389E-1,9.952056E-1,-5.594678E-1,-1.4669514E-1,3.8800606E-1,-5.182468E-1,1.3940132E-2,4.4700462E-1,-5.500214E-1,-1.8787332E-1,1.1167725E0,1.5842514E-1,-3.696613E-1,-1.2502556E-1,2.6521832E-1,-8.860496E-2,3.758757E-1,-2.1237567E-1,-4.6887323E-1,2.3070903E-1,3.38504E-2,-2.1569495E-1],"categories":[],"categories_nodes":[],"categories_segments":[],"categories_sizes":[],"default_left":[0,0,0,0,0,0,0,0,0,0,0,0,0,0,0,0,0,0,0,0,0,0,0,0,0,0,0,0,0,0,0,0,0,0,0,0,0,0,0,0,0,0,0,0,0,0,0,0,0,0,0,0,0,0,0,0,0,0,0,0,0,0,0,0,0,0,0,0,0,0,0,0,0,0,0,0,0,0,0],"id":24,"left_children":[1,3,5,7,9,11,13,15,17,19,21,23,25,-1,27,29,31,33,35,-1,37,39,41,43,45,47,49,51,-1,53,55,-1,57,59,61,63,-1,-1,-1,65,-1,67,-1,69,71,-1,-1,-1,-1,73,75,77,-1,-1,-1,-1,-1,-1,-1,-1,-1,-1,-1,-1,-1,-1,-1,-1,-1,-1,-1,-1,-1,-1,-1,-1,-1,-1,-1],"loss_changes":[2.5365257E2,6.922223E2,2.7267975E2,2.920864E2,6.3807996E2,9.348613E1,2.3963135E2,1.606694E2,1.9981744E2,6.720005E2,1.5249132E2,5.0859673E1,1.4569826E2,0E0,1.0887521E2,2.1104185E2,9.3229706E2,2.4331305E2,1.22953476E2,0E0,8.469177E1,2.7105133E2,2.0996408E2,1.0662217E2,1.3790817E0,6.552844E1,6.169318E1,8.75727E0,0E0,1.4794188E2,1.587757E2,0E0,5.729956E1,1.0049768E2,5.3058716E2,6.359034E1,0E0,0E0,0E0,2.875885E1,0E0,3.7399554E2,0E0,9.635735E0,3.67138E1,0E0,0E0,0E0,0E0,8.519719E1,1.5580989E2,1.3170389E1,0E0,0E0,0E0,0E0,0E0,0E0,0E0,0E0,0E0,0E0,0E0,0E0,0E0,0E0,0E0,0E0,0E0,0E0,0E0,0E0,0E0,0E0,0E0,0E0,0E0,0E0,0E0],"parents":[2147483647,0,0,1,1,2,2,3,3,4,4,5,5,6,6,7,7,8,8,9,9,10,10,11,11,12,12,14,14,15,15,16,16,17,17,18,18,20,20,21,21,22,22,23,23,24,24,25,25,26,26,27,27,29,29,30,30,32,32,33,33,34,34,35,35,39,39,41,41,43,43,44,44,49,49,50,50,51,51],"right_children":[2,4,6,8,10,12,14,16,18,20,22,24,26,-1,28,30,32,34,36,-1,38,40,42,44,46,48,50,52,-1,54,56,-1,58,60,62,64,-1,-1,-1,66,-1,68,-1,70,72,-1,-1,-1,-1,74,76,78,-1,-1,-1,-1,-1,-1,-1,-1,-1,-1,-1,-1,-1,-1,-1,-1,-1,-1,-1,-1,-1,-1,-1,-1,-1,-1,-1],"split_conditions":[4.7E1,4.3E1,2.024E3,3.8E1,2.023E3,5E1,4.9E1,3.7E1,4.2E1,4.6E1,2.024E3,2.023E3,2.022E3,-8.458333E-1,5.2E1,2.6E1,2.024E3,2.025E3,2.025E3,1.4065503E0,2.022E3,4.6E1,2.025E3,2.022E3,4.8E1,5.2E1,5.1E1,5.1E1,-5.7658404E-1,2.4E1,3.1E1,-6.365223E-1,2.025E3,4.1E1,4E1,2.024E3,-2.5269368E-1,-3.7014645E-1,3.0309337E-1,4.4E1,4.6977782E-1,4.4E1,-2.3500092E-1,4.9E1,4.9E1,-5.700504E-1,-2.601443E-1,8.9664376E-1,9.95609E-2,2.023E3,5.2E1,5E1,7.344799E-2,4.021223E-2,2.5536093E-1,-1.9496396E-1,6.4560855E-3,4.109389E-1,9.952056E-1,-5.594678E-1,-1.4669514E-1,3.8800606E-1,-5.182468E-1,1.3940132E-2,4.4700462E-1,-5.500214E-1,-1.8787332E-1,1.1167725E0,1.5842514E-1,-3.696613E-1,-1.2502556E-1,2.6521832E-1,-8.860496E-2,3.758757E-1,-2.1237567E-1,-4.6887323E-1,2.3070903E-1,3.38504E-2,-2.1569495E-1],"split_indices":[2,2,1,2,1,2,2,2,2,2,1,1,1,0,2,2,1,1,1,0,1,2,1,1,2,2,2,2,0,2,2,0,1,2,2,1,0,0,0,2,0,2,0,2,2,0,0,0,0,1,2,2,0,0,0,0,0,0,0,0,0,0,0,0,0,0,0,0,0,0,0,0,0,0,0,0,0,0,0],"split_type":[0,0,0,0,0,0,0,0,0,0,0,0,0,0,0,0,0,0,0,0,0,0,0,0,0,0,0,0,0,0,0,0,0,0,0,0,0,0,0,0,0,0,0,0,0,0,0,0,0,0,0,0,0,0,0,0,0,0,0,0,0,0,0,0,0,0,0,0,0,0,0,0,0,0,0,0,0,0,0],"sum_hessian":[7.1E2,6.35E2,7.5E1,5.8E2,5.5E1,5.1E1,2.4E1,5.05E2,7.5E1,1.5E1,4E1,2.7E1,2.4E1,8E0,1.6E1,4.87E2,1.8E1,5.6E1,1.9E1,9E0,6E0,1.6E1,2.4E1,2.1E1,6E0,4E0,2E1,1.2E1,4E0,3.26E2,1.61E2,6E0,1.2E1,3.2E1,2.4E1,1.3E1,6E0,2E0,4E0,1.1E1,5E0,1.9E1,5E0,1E1,1.1E1,1E0,5E0,2E0,2E0,9E0,1.1E1,7E0,5E0,2.91E2,3.5E1,6.5E1,9.6E1,5E0,7E0,2.3E1,9E0,1.3E1,1.1E1,6E0,7E0,4E0,7E0,5E0,1.4E1,6E0,4E0,7E0,4E0,6E0,3E0,6E0,5E0,4E0,3E0],"tree_param":{"num_deleted":"0","num_feature":"3","num_nodes":"79","size_leaf_vector":"1"}},{"base_weights":[1.8238299E-2,-2.5415695E0,4.3663916E-1,-2.2666206E0,-3.438355E0,1.4077324E0,-9.929392E-1,-2.4187796E0,-1.4973003E0,-5.2474993E-1,-2.5975773E0,7.617152E-1,3.9989676E0,-3.1005698E-1,-1.668003E0,-2.0190387E0,-2.7151492E-1,-8.186176E-1,-2.0736559E-1,-9.7263217E-1,-3.6377757E0,2.3595126E0,-6.2248075E-1,2.377149E0,1.7081827E1,-1.2801323E0,2.3810353E0,-2.2779288E0,-1.0122381E0,-2.3540366E-1,-1.627705E0,-1.4676813E0,9.687371E-2,-1.5031324E-1,4.1257914E-2,-4.114356E-1,-1.1543031E-1,3.1170983E0,-2.9063203E0,-9.586661E-1,5.9268975E0,1.2007566E1,1.2330496E0,2.18883E1,6.80328E-1,-4.6409202E-1,-5.9100704E0,4.46772E0,3.1543422E-2,-1.8481518E0,-4.022098E0,-2.5362625E0,-1.3260886E-1,-3.7697278E-2,-1.7604856E-1,-7.268118E-2,-1.8416306E-1,2.0577553E-1,1.1840994E0,-3.6814448E-1,7.2697595E-2,3.3957258E-2,-3.2366475E-1,1.1118504E0,2.3432782E-1,-2.4927111E-1,2.3505952E0,-7.381374E-1,3.4933448E-1,9.5125693E-1,3.569561E0,-9.730732E-2,6.060351E-1,-3.8887313E-1,-7.3758763E-1,3.2174874E-2,8.577942E-1,-4.7169653E-1,1.8554665E-1,-2.6786077E-1,1.6416852E-1,-5.2640915E-1,-1.23048864E-1,-1.2082928E-1,-4.141794E-1,1.6791467E-1,-1.3592984E-1],"categories":[],"categories_nodes":[],"categories_segments":[],"categories_sizes":[],"default_left":[0,0,0,0,0,0,0,0,0,0,0,0,0,0,0,0,0,0,0,0,0,0,0,0,0,0,0,0,0,0,0,0,0,0,0,0,0,0,0,0,0,0,0,0,0,0,0,0,0,0,0,0,0,0,0,0,0,0,0,0,0,0,0,0,0,0,0,0,0,0,0,0,0,0,0,0,0,0,0,0,0,0,0,0,0,0,0],"id":25,"left_children":[1,3,5,7,9,11,13,15,17,-1,19,21,23,25,27,29,-1,31,-1,33,35,37,39,41,43,45,47,49,51,-1,53,55,-1,-1,-1,-1,-1,57,59,61,63,65,67,69,-1,71,73,75,77,79,81,83,85,-1,-1,-1,-1,-1,-1,-1,-1,-1,-1,-1,-1,-1,-1,-1,-1,-1,-1,-1,-1,-1,-1,-1,-1,-1,-1,-1,-1,-1,-1,-1,-1,-1,-1],"loss_changes":[7.776034E2,1.7356812E1,8.676682E2,5.860138E0,1.983316E1,6.1967535E2,1.1611305E2,2.3370972E0,4.5610657E0,0E0,2.519629E1,6.6275653E2,1.5295278E3,3.3458945E2,4.8490112E1,3.6340332E-1,0E0,1.18627615E1,0E0,6.499001E0,7.0865326E0,5.6357477E2,3.6017252E2,7.2341046E2,2.4631616E2,3.524095E2,1.6654913E2,4.1290802E1,8.411998E1,0E0,2.3256607E0,6.0081387E-1,0E0,0E0,0E0,0E0,0E0,1.1031091E3,5.3368927E1,4.565331E2,1.2278418E2,1.2257021E3,1.2135253E3,5.148208E2,0E0,2.7488345E2,1.2797668E1,3.0397552E2,1.559877E2,1.608978E2,3.5128525E1,4.4033752E1,9.340338E1,0E0,0E0,0E0,0E0,0E0,0E0,0E0,0E0,0E0,0E0,0E0,0E0,0E0,0E0,0E0,0E0,0E0,0E0,0E0,0E0,0E0,0E0,0E0,0E0,0E0,0E0,0E0,0E0,0E0,0E0,0E0,0E0,0E0,0E0],"parents":[2147483647,0,0,1,1,2,2,3,3,4,4,5,5,6,6,7,7,8,8,10,10,11,11,12,12,13,13,14,14,15,15,17,17,19,19,20,20,21,21,22,22,23,23,24,24,25,25,26,26,27,27,28,28,30,30,31,31,37,37,38,38,39,39,40,40,41,41,42,42,43,43,45,45,46,46,47,47,48,48,49,49,50,50,51,51,52,52],"right_children":[2,4,6,8,10,12,14,16,18,-1,20,22,24,26,28,30,-1,32,-1,34,36,38,40,42,44,46,48,50,52,-1,54,56,-1,-1,-1,-1,-1,58,60,62,64,66,68,70,-1,72,74,76,78,80,82,84,86,-1,-1,-1,-1,-1,-1,-1,-1,-1,-1,-1,-1,-1,-1,-1,-1,-1,-1,-1,-1,-1,-1,-1,-1,-1,-1,-1,-1,-1,-1,-1,-1,-1,-1],"split_conditions":[1E0,4.3E1,6E0,3.7E1,4.6E1,4E0,2.8E1,1.9E1,4E1,-5.2474993E-1,4.9E1,2E0,4.5E1,2E1,8E0,1.1E1,-2.7151492E-1,3.9E1,-2.0736559E-1,4.8E1,5.2E1,4.7E1,5E1,9E0,4.9E1,1.7E1,2.4E1,4.9E1,3.7E1,-2.3540366E-1,1.2E1,3.8E1,9.687371E-2,-1.5031324E-1,4.1257914E-2,-4.114356E-1,-1.1543031E-1,4.3E1,5.2E1,3.5E1,5.1E1,4E0,2.4E1,4.8E1,6.80328E-1,1.6E1,8E0,8E0,2.5E1,4.6E1,5.2E1,3.4E1,4.3E1,-3.7697278E-2,-1.7604856E-1,-7.268118E-2,-1.8416306E-1,2.0577553E-1,1.1840994E0,-3.6814448E-1,7.2697595E-2,3.3957258E-2,-3.2366475E-1,1.1118504E0,2.3432782E-1,-2.4927111E-1,2.3505952E0,-7.381374E-1,3.4933448E-1,9.5125693E-1,3.569561E0,-9.730732E-2,6.060351E-1,-3.8887313E-1,-7.3758763E-1,3.2174874E-2,8.577942E-1,-4.7169653E-1,1.8554665E-1,-2.6786077E-1,1.6416852E-1,-5.2640915E-1,-1.23048864E-1,-1.2082928E-1,-4.141794E-1,1.6791467E-1,-1.3592984E-1],"split_indices":[0,2,0,2,2,0,2,2,2,0,2,0,2,2,0,2,0,2,0,2,2,2,2,2,2,2,2,2,2,0,2,2,0,0,0,0,0,2,2,2,2,2,2,2,0,2,0,0,2,2,2,2,2,0,0,0,0,0,0,0,0,0,0,0,0,0,0,0,0,0,0,0,0,0,0,0,0,0,0,0,0,0,0,0,0,0,0],"split_type":[0,0,0,0,0,0,0,0,0,0,0,0,0,0,0,0,0,0,0,0,0,0,0,0,0,0,0,0,0,0,0,0,0,0,0,0,0,0,0,0,0,0,0,0,0,0,0,0,0,0,0,0,0,0,0,0,0,0,0,0,0,0,0,0,0,0,0,0,0,0,0,0,0,0,0,0,0,0,0,0,0,0,0,0,0,0,0],"sum_hessian":[7.24E2,1.01E2,6.23E2,8E1,2.1E1,3.71E2,2.52E2,6.5E1,1.5E1,5E0,1.6E1,2.98E2,7.3E1,1.26E2,1.26E2,3.1E1,3.4E1,8E0,7E0,7E0,9E0,1.38E2,1.6E2,6.6E1,7E0,9.3E1,3.3E1,6.4E1,6.2E1,1.4E1,1.7E1,6E0,2E0,5E0,2E0,7E0,2E0,1.21E2,1.7E1,1.53E2,7E0,6E0,6E1,4E0,3E0,8E1,1.3E1,1.7E1,1.6E1,5.3E1,1.1E1,2.2E1,4E1,2E0,1.5E1,3E0,3E0,1.09E2,1.2E1,1.4E1,3E0,9.8E1,5.5E1,2E0,5E0,3E0,3E0,1.2E1,4.8E1,3E0,1E0,7.5E1,5E0,7E0,6E0,9E0,8E0,4E0,1.2E1,4.3E1,1E1,7E0,4E0,1.3E1,9E0,1.6E1,2.4E1],"tree_param":{"num_deleted":"0","num_feature":"3","num_nodes":"87","size_leaf_vector":"1"}},{"base_weights":[-1.707875E-2,-2.7171028E0,4.2623708E-1,-2.8208692E0,-1.8856003E0,1.4729521E0,-1.0677792E0,-2.5901067E0,-4.0280625E-1,-6.729085E-1,-2.4845502E0,9.228541E-1,4.057724E0,2.2938332E-1,-1.5662992E0,-2.6704407E-1,-1.5835056E-1,-1.2981682E-1,3.8507387E-2,-2.6342797E-1,-6.433578E-2,6.655928E0,5.90768E-1,9.77222E0,1.305453E0,-1.322143E0,2.4685116E0,-5.501271E-1,-1.4456109E0,1.3368858E1,-1.7281095E0,-5.466303E0,8.129159E-1,2.5495193E0,1.2127181E0,-1.6247567E0,9.977405E0,-2.852503E0,-1.6739798E-1,-5.668461E-1,4.3549438E0,-2.0067997E0,-8.0708504E-1,6.67112E-1,1.5605874E0,-5.748401E-1,1.3206967E0,2.381845E-1,-1.7833985E0,1.2542538E-1,-2.1861897E-1,4.9468794E-1,-2.2062628E-1,-3.58873E-1,4.9612522E-1,-1.12910844E-1,1.4283485E0,-1.266395E-1,-3.2152203E-1,9.930593E-2,-4.007689E-1,-4.9106708E-1,7.929861E-2,2.569956E-1,1.2423233E0,-2.5320102E-2,-2.3678954E-1,-2.7725968E-1,-5.0400782E-2],"categories":[],"categories_nodes":[],"categories_segments":[],"categories_sizes":[],"default_left":[0,0,0,0,0,0,0,0,0,0,0,0,0,0,0,0,0,0,0,0,0,0,0,0,0,0,0,0,0,0,0,0,0,0,0,0,0,0,0,0,0,0,0,0,0,0,0,0,0,0,0,0,0,0,0,0,0,0,0,0,0,0,0,0,0,0,0,0,0],"id":26,"left_children":[1,3,5,7,9,11,13,15,-1,17,19,21,23,25,27,-1,-1,-1,-1,-1,-1,29,31,33,35,37,39,-1,41,43,45,47,49,-1,51,53,55,57,59,61,63,65,67,-1,-1,-1,-1,-1,-1,-1,-1,-1,-1,-1,-1,-1,-1,-1,-1,-1,-1,-1,-1,-1,-1,-1,-1,-1,-1],"loss_changes":[8.4022943E2,3.2229614E0,9.445498E2,1.3524353E1,8.496914E0,5.010219E2,1.6137799E2,1.8360901E0,0E0,4.4689727E0,7.863426E-1,5.55807E2,9.6236884E2,2.4644838E2,7.753024E1,0E0,0E0,0E0,0E0,0E0,0E0,9.2360614E2,3.7985645E2,2.6606975E3,1.1088682E3,7.374388E1,1.685225E2,0E0,6.1447052E1,3.0737915E1,5.5626587E2,1.01311176E3,3.6011923E2,0E0,1.8965248E2,4.446512E2,5.422085E2,6.2838135E0,1.1539222E2,7.477656E1,2.2730527E2,5.828961E1,4.8641544E1,0E0,0E0,0E0,0E0,0E0,0E0,0E0,0E0,0E0,0E0,0E0,0E0,0E0,0E0,0E0,0E0,0E0,0E0,0E0,0E0,0E0,0E0,0E0,0E0,0E0,0E0],"parents":[2147483647,0,0,1,1,2,2,3,3,4,4,5,5,6,6,7,7,9,9,10,10,11,11,12,12,13,13,14,14,21,21,22,22,23,23,24,24,25,25,26,26,28,28,29,29,30,30,31,31,32,32,34,34,35,35,36,36,37,37,38,38,39,39,40,40,41,41,42,42],"right_children":[2,4,6,8,10,12,14,16,-1,18,20,22,24,26,28,-1,-1,-1,-1,-1,-1,30,32,34,36,38,40,-1,42,44,46,48,50,-1,52,54,56,58,60,62,64,66,68,-1,-1,-1,-1,-1,-1,-1,-1,-1,-1,-1,-1,-1,-1,-1,-1,-1,-1,-1,-1,-1,-1,-1,-1,-1,-1],"split_conditions":[1E0,4.7E1,6E0,4.2E1,4.9E1,4.3E1,1.7E1,3.9E1,-4.0280625E-1,4.8E1,5.2E1,4E0,2E0,1E1,1.8E1,-2.6704407E-1,-1.5835056E-1,-1.2981682E-1,3.8507387E-2,-2.6342797E-1,-6.433578E-2,2E0,6E0,4.6E1,4E0,5E0,8E0,-5.501271E-1,8E0,2E0,3E0,5E0,3.8E1,2.5495193E0,4.8E1,4.9E1,4.5E1,2E0,9E0,1.1E1,1.6E1,2.3E1,2.3E1,6.67112E-1,1.5605874E0,-5.748401E-1,1.3206967E0,2.381845E-1,-1.7833985E0,1.2542538E-1,-2.1861897E-1,4.9468794E-1,-2.2062628E-1,-3.58873E-1,4.9612522E-1,-1.12910844E-1,1.4283485E0,-1.266395E-1,-3.2152203E-1,9.930593E-2,-4.007689E-1,-4.9106708E-1,7.929861E-2,2.569956E-1,1.2423233E0,-2.5320102E-2,-2.3678954E-1,-2.7725968E-1,-5.0400782E-2],"split_indices":[0,2,0,2,2,2,2,2,0,2,2,2,0,2,2,0,0,0,0,0,0,0,2,2,0,2,0,0,0,2,2,2,2,0,2,2,2,2,2,2,2,2,2,0,0,0,0,0,0,0,0,0,0,0,0,0,0,0,0,0,0,0,0,0,0,0,0,0,0],"split_type":[0,0,0,0,0,0,0,0,0,0,0,0,0,0,0,0,0,0,0,0,0,0,0,0,0,0,0,0,0,0,0,0,0,0,0,0,0,0,0,0,0,0,0,0,0,0,0,0,0,0,0,0,0,0,0,0,0,0,0,0,0,0,0,0,0,0,0,0,0],"sum_hessian":[7E2,9.8E1,6.02E2,8.5E1,1.3E1,3.54E2,2.48E2,7.4E1,1.1E1,5E0,8E0,2.93E2,6.1E1,6.9E1,1.79E2,6.7E1,7E0,3E0,2E0,7E0,1E0,1.5E1,2.78E2,1.9E1,4.2E1,4.1E1,2.8E1,4E0,1.75E2,8E0,7E0,9E0,2.69E2,6E0,1.3E1,3.2E1,1E1,1.7E1,2.4E1,1.1E1,1.7E1,9.2E1,8.3E1,3E0,5E0,6E0,1E0,6E0,3E0,2.35E2,3.4E1,6E0,7E0,2.5E1,7E0,3E0,7E0,4E0,1.3E1,1.9E1,5E0,2E0,9E0,1.5E1,2E0,1.6E1,7.6E1,1E1,7.3E1],"tree_param":{"num_deleted":"0","num_feature":"3","num_nodes":"69","size_leaf_vector":"1"}},{"base_weights":[-8.069587E-2,-1.1891199E0,2.8824797E-1,-4.861921E-1,-2.530446E0,7.307337E-1,-4.189947E-1,-1.2782428E0,4.7310868E-1,-9.121806E-1,-3.0734909E0,2.7588132E-1,2.0042865E0,-2.9965055E0,3.4259737E-1,-7.5475246E-1,-2.0545838E0,2.0552795E0,-2.3984544E0,-3.057185E0,1.8830974E0,-3.6703272E0,-5.578474E-1,-4.6349454E-1,1.4921299E0,1.1129368E-1,3.0840094E0,-2.3029468E0,-4.516366E0,1.4527748E0,-4.6734828E-1,-2.3417711E0,3.5461038E-1,1.260689E0,-3.8838863E-1,-7.492455E-2,2.9955664E0,-4.295788E0,-7.1541905E-2,-6.0617127E-2,-4.0210238E-1,3.1642073E-1,-1.8906403E-2,-6.5045404E-1,-3.129679E0,4.712167E-2,-1.0661916E-1,9.5720315E-1,-1.0533909E0,2.1467671E0,-1.5992721E0,5.3342395E0,-2.391476E0,1.6726452E0,5.0362864E0,-3.2863438E0,-5.9311265E-1,4.0351272E-1,-6.2778753E-1,2.3476627E0,-2.5827165E0,-1.651663E0,-1.8805325E-1,-4.1453704E-1,-6.647147E-2,1.8202268E-1,-1.13828376E-1,-2.3652084E-1,2.4628143E-1,2.2350943E-1,-3.7559697E-1,8.336963E-1,1.5811592E-1,-5.211753E-1,-2.6638588E-1,3.336955E-1,-2.0090342E-1,-1.4082943E-1,-4.323947E-1,3.380317E-1,-1.2134252E-1,-1.463749E-1,1.6431268E-1,1.4378677E-1,1.4901942E0,-2.551345E-1,5.7141878E-2,2.5452533E-1,7.2341865E-1,1.1703197E-1,-4.764796E-1,4.4932815E-1,-7.906611E-2,2.968994E-1,5.9409094E-1,-5.092463E-1,-1.3568722E-1,1.5831937E-1,-2.9955897E-1,-3.847793E-1,3.589473E-1,6.023148E-1,-5.7667905E-1,-4.1635472E-1,4.0660295E-1,5.8758028E-2,-2.0683761E-1],"categories":[],"categories_nodes":[],"categories_segments":[],"categories_sizes":[],"default_left":[0,0,0,0,0,0,0,0,0,0,0,0,0,0,0,0,0,0,0,0,0,0,0,0,0,0,0,0,0,0,0,0,0,0,0,0,0,0,0,0,0,0,0,0,0,0,0,0,0,0,0,0,0,0,0,0,0,0,0,0,0,0,0,0,0,0,0,0,0,0,0,0,0,0,0,0,0,0,0,0,0,0,0,0,0,0,0,0,0,0,0,0,0,0,0,0,0,0,0,0,0,0,0,0,0,0,0],"id":27,"left_children":[1,3,5,7,9,11,13,15,17,19,21,23,25,27,29,31,33,35,37,39,41,43,45,47,49,51,53,55,57,59,61,63,65,67,-1,69,71,73,75,-1,-1,-1,-1,-1,77,-1,-1,79,81,83,85,87,89,91,93,95,97,-1,-1,99,101,103,105,-1,-1,-1,-1,-1,-1,-1,-1,-1,-1,-1,-1,-1,-1,-1,-1,-1,-1,-1,-1,-1,-1,-1,-1,-1,-1,-1,-1,-1,-1,-1,-1,-1,-1,-1,-1,-1,-1,-1,-1,-1,-1,-1,-1],"loss_changes":[2.964198E2,1.6942656E2,1.7054814E2,9.178255E1,5.1681458E1,1.9350537E2,4.1325906E2,2.5272156E1,2.5481117E2,1.07687E2,6.701819E1,2.2370929E2,1.7952063E2,4.0196472E1,1.4724585E2,7.3014175E1,1.6257693E2,7.2332565E1,8.7991264E1,2.1186386E1,2.183557E1,3.633844E1,5.733594E0,1.309083E2,1.9366547E2,4.4412708E2,1.4587701E2,5.6901413E1,2.3622156E2,2.5524387E2,3.1112854E1,4.8665054E1,5.6772186E1,4.9412907E1,0E0,1.1043435E2,1.7569061E2,2.559311E0,7.2743416E1,0E0,0E0,0E0,0E0,0E0,6.17518E1,0E0,0E0,2.4604703E2,1.24124275E2,6.838596E2,3.6591034E1,3.9875366E1,2.0000179E2,2.3978772E2,2.5374268E1,6.9757034E1,7.7941956E1,0E0,0E0,4.523457E2,3.909564E2,2.7544836E2,1.14973755E2,0E0,0E0,0E0,0E0,0E0,0E0,0E0,0E0,0E0,0E0,0E0,0E0,0E0,0E0,0E0,0E0,0E0,0E0,0E0,0E0,0E0,0E0,0E0,0E0,0E0,0E0,0E0,0E0,0E0,0E0,0E0,0E0,0E0,0E0,0E0,0E0,0E0,0E0,0E0,0E0,0E0,0E0,0E0,0E0],"parents":[2147483647,0,0,1,1,2,2,3,3,4,4,5,5,6,6,7,7,8,8,9,9,10,10,11,11,12,12,13,13,14,14,15,15,16,16,17,17,18,18,19,19,20,20,21,21,22,22,23,23,24,24,25,25,26,26,27,27,28,28,29,29,30,30,31,31,32,32,33,33,35,35,36,36,37,37,38,38,44,44,47,47,48,48,49,49,50,50,51,51,52,52,53,53,54,54,55,55,56,56,59,59,60,60,61,61,62,62],"right_children":[2,4,6,8,10,12,14,16,18,20,22,24,26,28,30,32,34,36,38,40,42,44,46,48,50,52,54,56,58,60,62,64,66,68,-1,70,72,74,76,-1,-1,-1,-1,-1,78,-1,-1,80,82,84,86,88,90,92,94,96,98,-1,-1,100,102,104,106,-1,-1,-1,-1,-1,-1,-1,-1,-1,-1,-1,-1,-1,-1,-1,-1,-1,-1,-1,-1,-1,-1,-1,-1,-1,-1,-1,-1,-1,-1,-1,-1,-1,-1,-1,-1,-1,-1,-1,-1,-1,-1,-1,-1],"split_conditions":[1.5E1,2.025E3,3.8E1,8E0,5E0,3.3E1,4.1E1,5E0,1.3E1,3E0,1.3E1,2.025E3,2.024E3,4E1,4.6E1,2.023E3,2.023E3,9E0,1.4E1,2E0,4E0,6E0,1.4E1,2E1,3E1,3.5E1,3.6E1,2.025E3,2.024E3,2.025E3,2.022E3,3E0,3E0,6E0,-3.8838863E-1,2.024E3,1E1,2.023E3,2.023E3,-6.0617127E-2,-4.0210238E-1,3.1642073E-1,-1.8906403E-2,-6.5045404E-1,9E0,4.712167E-2,-1.0661916E-1,2.024E3,3.1E1,2.9E1,3.2E1,2.023E3,2.023E3,2.025E3,2.025E3,3.9E1,3.9E1,4.0351272E-1,-6.2778753E-1,4.2E1,4.2E1,5E1,5.1E1,-4.1453704E-1,-6.647147E-2,1.8202268E-1,-1.13828376E-1,-2.3652084E-1,2.4628143E-1,2.2350943E-1,-3.7559697E-1,8.336963E-1,1.5811592E-1,-5.211753E-1,-2.6638588E-1,3.336955E-1,-2.0090342E-1,-1.4082943E-1,-4.323947E-1,3.380317E-1,-1.2134252E-1,-1.463749E-1,1.6431268E-1,1.4378677E-1,1.4901942E0,-2.551345E-1,5.7141878E-2,2.5452533E-1,7.2341865E-1,1.1703197E-1,-4.764796E-1,4.4932815E-1,-7.906611E-2,2.968994E-1,5.9409094E-1,-5.092463E-1,-1.3568722E-1,1.5831937E-1,-2.9955897E-1,-3.847793E-1,3.589473E-1,6.023148E-1,-5.7667905E-1,-4.1635472E-1,4.0660295E-1,5.8758028E-2,-2.0683761E-1],"split_indices":[2,1,2,2,2,2,2,2,2,2,2,1,1,2,2,1,1,2,2,2,2,2,2,2,2,2,2,1,1,1,1,2,2,2,0,1,2,1,1,0,0,0,0,0,2,0,0,1,2,2,2,1,1,1,1,2,2,0,0,2,2,2,2,0,0,0,0,0,0,0,0,0,0,0,0,0,0,0,0,0,0,0,0,0,0,0,0,0,0,0,0,0,0,0,0,0,0,0,0,0,0,0,0,0,0,0,0],"split_type":[0,0,0,0,0,0,0,0,0,0,0,0,0,0,0,0,0,0,0,0,0,0,0,0,0,0,0,0,0,0,0,0,0,0,0,0,0,0,0,0,0,0,0,0,0,0,0,0,0,0,0,0,0,0,0,0,0,0,0,0,0,0,0,0,0,0,0,0,0,0,0,0,0,0,0,0,0,0,0,0,0,0,0,0,0,0,0,0,0,0,0,0,0,0,0,0,0,0,0,0,0,0,0,0,0,0,0],"sum_hessian":[7.23E2,1.8E2,5.43E2,1.19E2,6.1E1,3.34E2,2.09E2,6.5E1,5.4E1,1.6E1,4.5E1,2.47E2,8.7E1,4.7E1,1.62E2,4E1,2.5E1,3.5E1,1.9E1,9E0,7E0,3.6E1,9E0,1.54E2,9.3E1,3.2E1,5.5E1,3.4E1,1.3E1,6.8E1,9.4E1,1.6E1,2.4E1,9E0,1.6E1,1.1E1,2.4E1,1E1,9E0,3E0,6E0,4E0,3E0,4E0,3.2E1,3E0,6E0,4.5E1,1.09E2,7.7E1,1.6E1,1E1,2.2E1,3.3E1,2.2E1,2.1E1,1.3E1,2E0,1.1E1,5.6E1,1.2E1,1.7E1,7.7E1,7E0,9E0,1.2E1,1.2E1,2E0,7E0,7E0,4E0,4E0,2E1,5E0,5E0,3E0,6E0,1.4E1,1.8E1,2.1E1,2.4E1,9.5E1,1.4E1,7.4E1,3E0,1.1E1,5E0,5E0,5E0,9E0,1.3E1,1.5E1,1.8E1,8E0,1.4E1,1E1,1.1E1,7E0,6E0,9E0,4.7E1,3E0,9E0,1.2E1,5E0,5.5E1,2.2E1],"tree_param":{"num_deleted":"0","num_feature":"3","num_nodes":"107","size_leaf_vector":"1"}},{"base_weights":[1.7756717E-2,-2.433284E0,4.3560997E-1,-2.175726E0,-3.2457395E0,2.069878E0,-5.0479573E-1,-2.2788825E0,-4.8926437E-1,-4.7973558E-1,-2.2670727E0,2.8249997E-1,2.8034039E0,-1.6037856E0,4.539638E-1,-1.9973251E0,-2.85309E0,1.1001798E-1,-1.5590315E-1,-1.1644413E0,-3.2241488E0,4.672778E0,-3.5058644E0,8.086765E0,2.1090498E0,-3.2769415E0,1.4651626E-2,2.5354846E0,-6.9038063E-1,-2.1582913E0,1.5121862E-1,-3.5582614E-1,-2.036938E0,-1.7022537E-1,4.7860123E-2,-3.445576E-1,-8.370798E-2,8.508698E0,1.3883082E-2,-7.484759E0,-2.1017246E0,1.3180277E1,2.6939292E0,6.5594274E-1,2.7833612E0,-2.1159282E0,-6.3331895E0,-3.3258754E-1,8.607231E-1,3.1277084E-1,3.5961316E0,1.3764148E0,-7.9718053E-1,-1.8708657E-1,-2.5741655E-1,-4.783688E-2,-2.4566717E-1,2.4309159E-4,1.0331296E0,-3.9546683E-1,3.0989918E-1,-8.5019463E-1,3.263712E-2,1.899817E-2,-2.8746733E-1,6.674544E-1,2.3966894E0,9.466635E-1,-9.8317873E-1,2.7714753E-1,-2.2328234E-1,5.2917916E-1,1.966101E-1,-2.4875526E-1,2.9153994E-1,-6.9033575E-1,-3.9623007E-1,2.5031725E-1,-4.197782E-2,3.4425712E-1,-1.3625805E-1,2.5719148E-1,1.0678403E0,4.970735E-1,-2.562009E-1,-3.2496548E-1,-6.298283E-2],"categories":[],"categories_nodes":[],"categories_segments":[],"categories_sizes":[],"default_left":[0,0,0,0,0,0,0,0,0,0,0,0,0,0,0,0,0,0,0,0,0,0,0,0,0,0,0,0,0,0,0,0,0,0,0,0,0,0,0,0,0,0,0,0,0,0,0,0,0,0,0,0,0,0,0,0,0,0,0,0,0,0,0,0,0,0,0,0,0,0,0,0,0,0,0,0,0,0,0,0,0,0,0,0,0,0,0],"id":28,"left_children":[1,3,5,7,9,11,13,15,17,-1,19,21,23,25,27,29,31,-1,-1,33,35,37,39,41,43,45,47,49,51,53,-1,-1,55,-1,-1,-1,-1,57,59,61,63,65,67,69,71,73,75,-1,77,79,81,83,85,-1,-1,-1,-1,-1,-1,-1,-1,-1,-1,-1,-1,-1,-1,-1,-1,-1,-1,-1,-1,-1,-1,-1,-1,-1,-1,-1,-1,-1,-1,-1,-1,-1,-1],"loss_changes":[7.3129706E2,1.4700562E1,9.385386E2,1.3150513E1,2.4049911E1,2.915807E2,4.0955087E2,6.7502136E0,1.1917226E1,0E0,1.3130508E1,1.1140924E3,5.625713E2,4.901776E2,4.972016E2,3.433394E1,5.9891663E0,0E0,0E0,8.767539E0,1.3442688E0,5.5388745E2,1.8539838E2,4.5892578E2,1.3633258E2,3.0240198E2,2.6571085E2,1.7333133E2,3.0896286E1,