{"learner":{"attributes":{"scikit_learn":"{\"_estimator_type\": \"regressor\"}"},"feature_names":[],"feature_types":[],"gradient_booster":{"model":{"cats":{"enc":[],"feature_segments":[],"sorted_idx":[]},"gbtree_model_param":{"num_parallel_tree":"1","num_trees":"600"},"iteration_indptr":[0,1,2,3,4,5,6,7,8,9,10,11,12,13,14,15,16,17,18,19,20,21,22,23,24,25,26,27,28,29,30,31,32,33,34,35,36,37,38,39,40,41,42,43,44,45,46,47,48,49,50,51,52,53,54,55,56,57,58,59,60,61,62,63,64,65,66,67,68,69,70,71,72,73,74,75,76,77,78,79,80,81,82,83,84,85,86,87,88,89,90,91,92,93,94,95,96,97,98,99,100,101,102,103,104,105,106,107,108,109,110,111,112,113,114,115,116,117,118,119,120,121,122,123,124,125,126,127,128,129,130,131,132,133,134,135,136,137,138,139,140,141,142,143,144,145,146,147,148,149,150,151,152,153,154,155,156,157,158,159,160,161,162,163,164,165,166,167,168,169,170,171,172,173,174,175,176,177,178,179,180,181,182,183,184,185,186,187,188,189,190,191,192,193,194,195,196,197,198,199,200,201,202,203,204,205,206,207,208,209,210,211,212,213,214,215,216,217,218,219,220,221,222,223,224,225,226,227,228,229,230,231,232,233,234,235,236,237,238,239,240,241,242,243,244,245,246,247,248,249,250,251,252,253,254,255,256,257,258,259,260,261,262,263,264,265,266,267,268,269,270,271,272,273,274,275,276,277,278,279,280,281,282,283,284,285,286,287,288,289,290,291,292,293,294,295,296,297,298,299,300,301,302,303,304,305,306,307,308,309,310,311,312,313,314,315,316,317,318,319,320,321,322,323,324,325,326,327,328,329,330,331,332,333,334,335,336,337,338,339,340,341,342,343,344,345,346,347,348,349,350,351,352,353,354,355,356,357,358,359,360,361,362,363,364,365,366,367,368,369,370,371,372,373,374,375,376,377,378,379,380,381,382,383,384,385,386,387,388,389,390,391,392,393,394,395,396,397,398,399,400,401,402,403,404,405,406,407,408,409,410,411,412,413,414,415,416,417,418,419,420,421,422,423,424,425,426,427,428,429,430,431,432,433,434,435,436,437,438,439,440,441,442,443,444,445,446,447,448,449,450,451,452,453,454,455,456,457,458,459,460,461,462,463,464,465,466,467,468,469,470,471,472,473,474,475,476,477,478,479,480,481,482,483,484,485,486,487,488,489,490,491,492,493,494,495,496,497,498,499,500,501,502,503,504,505,506,507,508,509,510,511,512,513,514,515,516,517,518,519,520,521,522,523,524,525,526,527,528,529,530,531,532,533,534,535,536,537,538,539,540,541,542,543,544,545,546,547,548,549,550,551,552,553,554,555,556,557,558,559,560,561,562,563,564,565,566,567,568,569,570,571,572,573,574,575,576,577,578,579,580,581,582,583,584,585,586,587,588,589,590,591,592,593,594,595,596,597,598,599,600],"tree_info":[0,0,0,0,0,0,0,0,0,0,0,0,0,0,0,0,0,0,0,0,0,0,0,0,0,0,0,0,0,0,0,0,0,0,0,0,0,0,0,0,0,0,0,0,0,0,0,0,0,0,0,0,0,0,0,0,0,0,0,0,0,0,0,0,0,0,0,0,0,0,0,0,0,0,0,0,0,0,0,0,0,0,0,0,0,0,0,0,0,0,0,0,0,0,0,0,0,0,0,0,0,0,0,0,0,0,0,0,0,0,0,0,0,0,0,0,0,0,0,0,0,0,0,0,0,0,0,0,0,0,0,0,0,0,0,0,0,0,0,0,0,0,0,0,0,0,0,0,0,0,0,0,0,0,0,0,0,0,0,0,0,0,0,0,0,0,0,0,0,0,0,0,0,0,0,0,0,0,0,0,0,0,0,0,0,0,0,0,0,0,0,0,0,0,0,0,0,0,0,0,0,0,0,0,0,0,0,0,0,0,0,0,0,0,0,0,0,0,0,0,0,0,0,0,0,0,0,0,0,0,0,0,0,0,0,0,0,0,0,0,0,0,0,0,0,0,0,0,0,0,0,0,0,0,0,0,0,0,0,0,0,0,0,0,0,0,0,0,0,0,0,0,0,0,0,0,0,0,0,0,0,0,0,0,0,0,0,0,0,0,0,0,0,0,0,0,0,0,0,0,0,0,0,0,0,0,0,0,0,0,0,0,0,0,0,0,0,0,0,0,0,0,0,0,0,0,0,0,0,0,0,0,0,0,0,0,0,0,0,0,0,0,0,0,0,0,0,0,0,0,0,0,0,0,0,0,0,0,0,0,0,0,0,0,0,0,0,0,0,0,0,0,0,0,0,0,0,0,0,0,0,0,0,0,0,0,0,0,0,0,0,0,0,0,0,0,0,0,0,0,0,0,0,0,0,0,0,0,0,0,0,0,0,0,0,0,0,0,0,0,0,0,0,0,0,0,0,0,0,0,0,0,0,0,0,0,0,0,0,0,0,0,0,0,0,0,0,0,0,0,0,0,0,0,0,0,0,0,0,0,0,0,0,0,0,0,0,0,0,0,0,0,0,0,0,0,0,0,0,0,0,0,0,0,0,0,0,0,0,0,0,0,0,0,0,0,0,0,0,0,0,0,0,0,0,0,0,0,0,0,0,0,0,0,0,0,0,0,0,0,0,0,0,0,0,0,0,0,0,0,0,0,0,0,0,0,0,0,0,0,0,0,0,0,0,0,0,0,0,0,0,0,0,0,0,0,0,0,0,0,0,0,0,0,0,0,0,0,0,0,0,0,0,0,0,0,0,0,0,0,0,0,0,0,0,0,0,0,0,0,0,0,0,0,0,0,0,0,0,0],"trees":[{"base_weights":[-1.7714286E-1,-4.1473684E-1,-2.2222223E-2,-6.0727274E-1,-1.255814E-1,8.173913E-2,-3.2682925E-1,-1.7894737E-1,-3.769231E-2,-2.4102564E-1,2.4285715E-2,3.5272726E-1,-1.4920636E-1,-6.16E-1,7.368421E-2,-3.3636365E-2,3.090909E-1,-4.516129E-2,-3.3636365E-2,6.903226E-1,-5.185185E-2,-4.9714285E-1,2.3870967E-1,-0E0,-3.666667E-2,2.4545455E-2,-3.090909E-1,2.4285715E-2,-0E0,1.6190477E-1,-2.0769231E-2,4.3333333E-2,-1.0000001E-2,3.1764707E-1,-2.846154E-2,-6.2580645E-1,1.0000001E-2,4.9565217E-1,-3.090909E-1,-0E0,-2.4285715E-2,-5.3846156E-3,2.4545455E-2,-0E0,2.4545455E-2,-3.7826087E-2,-6.3636363E-3,3.8E-2,-0E0,-2.4285715E-2,-0E0],"categories":[],"categories_nodes":[],"categories_segments":[],"categories_sizes":[],"default_left":[0,0,0,0,0,0,0,0,0,0,0,0,0,0,0,0,0,0,0,0,0,0,0,0,0,0,0,0,0,0,0,0,0,0,0,0,0,0,0,0,0,0,0,0,0,0,0,0,0,0,0],"id":0,"left_children":[1,3,5,7,9,11,13,15,-1,17,-1,19,21,23,25,-1,27,29,-1,31,33,35,37,-1,-1,-1,39,-1,-1,41,-1,-1,-1,43,-1,45,-1,47,49,-1,-1,-1,-1,-1,-1,-1,-1,-1,-1,-1,-1],"loss_changes":[4.364094E0,2.3102083E0,2.5361524E0,1.2442942E0,1.619465E0,3.7385507E0,2.6050231E0,2.710335E0,0E0,1.3878833E0,0E0,4.001293E0,4.507099E0,9.034662E-1,1.7993301E0,0E0,3.002597E-1,1.3651636E0,0E0,2.8935494E0,2.9275045E0,1.8851795E0,2.4674463E0,0E0,0E0,0E0,3.002597E-1,0E0,0E0,1.125601E0,0E0,0E0,0E0,4.6780753E-1,0E0,6.0050774E-1,0E0,1.5067828E0,3.002597E-1,0E0,0E0,0E0,0E0,0E0,0E0,0E0,0E0,0E0,0E0,0E0,0E0],"parents":[2147483647,0,0,1,1,2,2,3,3,4,4,5,5,6,6,7,7,9,9,11,11,12,12,13,13,14,14,16,16,17,17,19,19,20,20,21,21,22,22,26,26,29,29,33,33,35,35,37,37,38,38],"right_children":[2,4,6,8,10,12,14,16,-1,18,-1,20,22,24,26,-1,28,30,-1,32,34,36,38,-1,-1,-1,40,-1,-1,42,-1,-1,-1,44,-1,46,-1,48,50,-1,-1,-1,-1,-1,-1,-1,-1,-1,-1,-1,-1],"split_conditions":[-6.951881E-1,-1.4543144E-1,7.316877E-1,-4.8248056E-1,5.3226674E-1,-7.3964566E-2,8.3340354E-2,-1.9778697E-1,-7.5E-1,8.3340354E-2,2.25E0,9.966352E-2,-6.12447E-1,-1.5708636E-1,-8.214647E-1,-7.5E-1,2.6679265E-1,1.10128716E-1,-7.5E-1,7.2391324E-2,-6.12447E-1,1.2465156E0,1.2796464E0,5.75E-1,-7.5E-1,5.2500004E-1,-1.3260517E0,7.5E-1,0E0,-5.675696E-1,-7.5E-1,7.5E-1,-3E-1,-6.734411E-1,-7.5E-1,1.0289156E0,8.25E-1,1.0289156E0,-5.253911E-1,0E0,-7.5E-1,-5E-1,6.25E-1,0E0,1.375E0,-6.25E-1,-3.75E-1,8.75E-1,0E0,-7.5E-1,0E0],"split_indices":[16,25,6,7,1,18,18,1,0,18,0,16,6,0,22,0,1,14,0,19,6,23,25,0,0,0,1,0,0,12,0,0,0,8,0,0,0,0,14,0,0,0,0,0,0,0,0,0,0,0,0],"split_type":[0,0,0,0,0,0,0,0,0,0,0,0,0,0,0,0,0,0,0,0,0,0,0,0,0,0,0,0,0,0,0,0,0,0,0,0,0,0,0,0,0,0,0,0,0,0,0,0,0,0,0],"sum_hessian":[1.21E2,4.6E1,7.5E1,2.6E1,2E1,5.6E1,1.9E1,8E0,1.8E1,1.8E1,2E0,2.6E1,3E1,1.1E1,8E0,4E0,4E0,1.4E1,4E0,1.4E1,1.2E1,1.6E1,1.4E1,2E0,9E0,4E0,4E0,2E0,2E0,9E0,5E0,1.2E1,2E0,7E0,5E0,1.4E1,2E0,1E1,4E0,2E0,2E0,5E0,4E0,3E0,4E0,1E1,4E0,6E0,4E0,2E0,2E0],"tree_param":{"num_deleted":"0","num_feature":"26","num_nodes":"51","size_leaf_vector":"1"}},{"base_weights":[-1.0627615E-1,2.4363637E-1,-2.1069519E-1,-3.5999998E-1,4.511628E-1,-5.1011235E-1,5.3465348E-2,-3.0000001E-2,-0E0,6E-1,-2.4285715E-2,-6.053333E-1,-0E0,2.169014E-1,-2.8484848E-1,-0E0,4.3333333E-2,-3.0810812E-1,-8.1463414E-1,-2.6153845E-1,2.4285715E-2,-1.030303E-1,4.7317073E-1,-3.9411765E-2,1.7894737E-1,3.0000001E-2,-3.0000001E-2,1.0769231E-1,-4.962963E-1,-4.5135137E-2,-0E0,1.0000001E-2,-3.0000001E-2,3.8947368E-1,-3.3529412E-2,7.37931E-1,-9.3333334E-2,3.3636365E-2,-3.090909E-1,-7.7777775E-3,2.4285715E-2,-0E0,-3.9411765E-2,3.615385E-2,-7.7777775E-3,4.28E-2,-0E0,6.3636363E-3,-2.4285715E-2,-0E0,-2.4285715E-2],"categories":[],"categories_nodes":[],"categories_segments":[],"categories_sizes":[],"default_left":[0,0,0,0,0,0,0,0,0,0,0,0,0,0,0,0,0,0,0,0,0,0,0,0,0,0,0,0,0,0,0,0,0,0,0,0,0,0,0,0,0,0,0,0,0,0,0,0,0,0,0],"id":1,"left_children":[1,3,5,7,9,11,13,-1,-1,15,-1,17,19,21,23,25,-1,27,29,31,-1,33,35,-1,37,-1,-1,39,41,-1,-1,-1,-1,43,-1,45,47,-1,49,-1,-1,-1,-1,-1,-1,-1,-1,-1,-1,-1,-1],"loss_changes":[4.433352E0,3.7159154E0,7.573211E0,6.48E-1,3.4694352E0,2.1615162E0,2.8645723E0,0E0,0E0,3.1200004E0,0E0,1.6195412E0,1.2703296E0,3.0947666E0,4.246599E0,3.24E0,0E0,1.6443534E0,1.4707451E0,1.3153846E0,0E0,5.0882545E0,3.3714395E0,0E0,2.710335E0,0E0,0E0,8.592185E-1,1.9559915E0,0E0,0E0,0E0,0E0,2.066298E0,0E0,1.2633376E0,8.494718E-1,0E0,3.002597E-1,0E0,0E0,0E0,0E0,0E0,0E0,0E0,0E0,0E0,0E0,0E0,0E0],"parents":[2147483647,0,0,1,1,2,2,3,3,4,4,5,5,6,6,9,9,11,11,12,12,13,13,14,14,15,15,17,17,18,18,19,19,21,21,22,22,24,24,27,27,28,28,33,33,35,35,36,36,38,38],"right_children":[2,4,6,8,10,12,14,-1,-1,16,-1,18,20,22,24,26,-1,28,30,32,-1,34,36,-1,38,-1,-1,40,42,-1,-1,-1,-1,44,-1,46,48,-1,50,-1,-1,-1,-1,-1,-1,-1,-1,-1,-1,-1,-1],"split_conditions":[-1.0286733E0,-7.527029E-1,-5.930681E-2,-5.4587936E-1,1.5210828E0,1.0104485E0,1.20595396E-1,-7.1250004E-1,0E0,-1.9778697E-1,-7.1250004E-1,-4.8751246E-2,-7.6189625E-1,-5.717582E-1,1.0471076E0,-5.1463383E-1,7.5E-1,-7.0318425E-1,8.1743E-1,-6.77432E-1,1.803125E0,7.355448E-1,4.5038518E-1,-4.6875E-1,1.20595396E-1,1.4625E0,-7.1250004E-1,-4.6326104E-1,-6.6236657E-1,-7.1250004E-1,-3.375E-1,6.9375E-1,-7.3125E-1,7.743464E-2,-7.1250004E-1,1.7086685E0,1.4118102E0,7.3562497E-1,1.594163E0,-7.1250004E-1,3.75E-1,0E0,-7.1250004E-1,3.125E-2,-7.1250004E-1,7.1250004E-1,8.325001E-1,4.78125E-1,-7.1250004E-1,-3.0625E-1,-7.1250004E-1],"split_indices":[7,20,16,18,20,15,9,0,0,1,0,15,6,13,7,12,0,18,18,13,0,16,18,0,10,0,0,1,1,0,0,0,0,17,0,10,6,0,1,0,0,0,0,0,0,0,0,0,0,0,0],"split_type":[0,0,0,0,0,0,0,0,0,0,0,0,0,0,0,0,0,0,0,0,0,0,0,0,0,0,0,0,0,0,0,0,0,0,0,0,0,0,0,0,0,0,0,0,0,0,0,0,0,0,0],"sum_hessian":[1.18E2,2.6E1,9.2E1,6E0,2E1,4.3E1,4.9E1,3E0,3E0,1.8E1,2E0,3.6E1,7E0,3.4E1,1.5E1,6E0,1.2E1,1.7E1,1.9E1,5E0,2E0,1.5E1,1.9E1,7E0,8E0,3E0,3E0,5E0,1.2E1,1.7E1,2E0,2E0,3E0,8E0,7E0,1.3E1,6E0,4E0,4E0,3E0,2E0,5E0,7E0,5E0,3E0,1.1E1,2E0,4E0,2E0,2E0,2E0],"tree_param":{"num_deleted":"0","num_feature":"26","num_nodes":"51","size_leaf_vector":"1"}},{"base_weights":[-1.84E-1,-2.555024E-1,6E-1,-9.7810216E-2,-5.2533334E-1,-0E0,3.8E-2,-5.243243E-1,5.2427184E-2,-1.2592593E-1,-6.9411767E-1,-7.185185E-1,-0E0,1.1752577E-1,-3.0000001E-2,3.1764707E-1,-3.615385E-2,-3.7659574E-2,-0E0,-4.2173915E-2,-0E0,1.8888889E-2,-2.4285715E-2,3.4117648E-1,-1.1020408E-1,3.0000001E-2,-0E0,3.48E-2,-0E0,-3.1904764E-2,1.1935484E-2,-2.4285715E-2,2.4285715E-2],"categories":[],"categories_nodes":[],"categories_segments":[],"categories_sizes":[],"default_left":[0,0,0,0,0,0,0,0,0,0,0,0,0,0,0,0,0,0,0,0,0,0,0,0,0,0,0,0,0,0,0,0,0],"id":2,"left_children":[1,3,5,7,9,-1,-1,11,13,15,17,19,21,23,-1,25,-1,-1,-1,-1,-1,-1,-1,27,29,-1,31,-1,-1,-1,-1,-1,-1],"loss_changes":[6.433115E0,4.1824813E0,9.120002E-1,4.5721707E0,2.1508904E0,0E0,0E0,1.8836837E0,2.1483436E0,4.0420346E0,1.0456066E0,1.2121096E0,1.4679364E0,2.5958896E0,0E0,7.6235294E-1,0E0,0E0,0E0,0E0,0E0,0E0,0E0,3.0869646E0,4.860913E0,0E0,1.6514285E0,0E0,0E0,0E0,0E0,0E0,0E0],"parents":[2147483647,0,0,1,1,2,2,3,3,4,4,7,7,8,8,9,9,10,10,11,11,12,12,13,13,15,15,23,23,24,24,26,26],"right_children":[2,4,6,8,10,-1,-1,12,14,16,18,20,22,24,-1,26,-1,-1,-1,-1,-1,-1,-1,28,30,-1,32,-1,-1,-1,-1,-1,-1],"split_conditions":[1.6563896E0,7.2391324E-2,-1.2208971E0,-7.287351E-1,-1.5708636E-1,6.3484377E-1,7.6875E-1,-1.4543144E-1,1.594163E0,1.4276395E0,3.1955597E0,1.20595396E-1,-1.0605776E0,-3.0289075E-1,-6.7687505E-1,1.20595396E-1,-6.83125E-1,-6.7687505E-1,-3.2062504E-1,-6.7687505E-1,-3.375E-1,6.2859374E-1,-7.1250004E-1,-6.12447E-1,-7.6189625E-1,1.395625E0,8.616961E-1,6.9375E-1,0E0,-6.9468755E-1,3.396875E-1,-5.671875E-1,1.0734844E0],"split_indices":[18,19,6,1,0,0,0,25,1,20,19,11,1,9,0,9,0,0,0,0,0,0,0,6,6,0,9,0,0,0,0,0,0],"split_type":[0,0,0,0,0,0,0,0,0,0,0,0,0,0,0,0,0,0,0,0,0,0,0,0,0,0,0,0,0,0,0,0,0],"sum_hessian":[1.11E2,1.03E2,8E0,6.7E1,3.6E1,2E0,6E0,1.7E1,5E1,1.2E1,2.4E1,1.2E1,5E0,4.7E1,3E0,7E0,5E0,2.2E1,2E0,1E1,2E0,3E0,2E0,2.4E1,2.3E1,3E0,4E0,1.1E1,1.3E1,9E0,1.4E1,2E0,2E0],"tree_param":{"num_deleted":"0","num_feature":"26","num_nodes":"33","size_leaf_vector":"1"}},{"base_weights":[-1.3522267E-1,2.8571429E-2,-2.8549618E-1,3.2830188E-1,-1.942029E-1,-4.72E-1,-2.3728814E-2,4.367347E-1,-2.4285715E-2,-4.0377358E-1,3.8947368E-1,-6.677966E-1,1.7894737E-1,-4.9565217E-1,2.4102564E-1,6.685714E-1,-8.2352936E-2,-5.1836735E-1,2.4285715E-2,3.615385E-2,-7.7777775E-3,-7.632653E-1,-1.0769231E-1,3.3636365E-2,-3.090909E-1,7.7777775E-3,-3.9411765E-2,6.4444447E-1,-4.9333334E-1,7.548387E-1,-0E0,-3.3636365E-2,3.0000001E-2,2.4285715E-2,-6.533333E-1,-1.0769231E-1,-4.5384616E-2,7.7777775E-3,-2.4285715E-2,-2.4285715E-2,-0E0,-0E0,4.1428573E-2,-3.3636365E-2,-0E0,7.7777775E-3,4.28E-2,-3.5853658E-2,-0E0,2.4285715E-2,-3.0000001E-2],"categories":[],"categories_nodes":[],"categories_segments":[],"categories_sizes":[],"default_left":[0,0,0,0,0,0,0,0,0,0,0,0,0,0,0,0,0,0,0,0,0,0,0,0,0,0,0,0,0,0,0,0,0,0,0,0,0,0,0,0,0,0,0,0,0,0,0,0,0,0,0],"id":3,"left_children":[1,3,5,7,9,11,13,15,-1,17,19,21,23,25,27,29,31,33,-1,-1,-1,35,37,-1,39,-1,-1,41,43,45,-1,-1,-1,-1,47,49,-1,-1,-1,-1,-1,-1,-1,-1,-1,-1,-1,-1,-1,-1,-1],"loss_changes":[3.1291313E0,4.1088142E0,3.0322323E0,2.642549E0,4.4602704E0,5.105403E0,3.9414277E0,3.2068715E0,0E0,3.0886016E0,2.066298E0,1.192853E0,2.710335E0,2.5648482E0,6.2991796E0,1.0093269E0,4.0514436E0,3.8464494E0,0E0,0E0,0E0,1.8684769E0,8.592185E-1,0E0,3.002597E-1,0E0,0E0,1.6019044E0,6.637577E-1,4.3647575E-1,0E0,0E0,0E0,0E0,9.369755E-1,2.3703296E0,0E0,0E0,0E0,0E0,0E0,0E0,0E0,0E0,0E0,0E0,0E0,0E0,0E0,0E0,0E0],"parents":[2147483647,0,0,1,1,2,2,3,3,4,4,5,5,6,6,7,7,9,9,10,10,11,11,12,12,13,13,14,14,15,15,16,16,17,17,21,21,22,22,24,24,27,27,28,28,29,29,34,34,35,35],"right_children":[2,4,6,8,10,12,14,16,-1,18,20,22,24,26,28,30,32,34,-1,-1,-1,36,38,-1,40,-1,-1,42,44,46,-1,-1,-1,-1,48,50,-1,-1,-1,-1,-1,-1,-1,-1,-1,-1,-1,-1,-1,-1,-1],"split_conditions":[-4.8751246E-2,-6.734411E-1,-3.525635E-2,1.3057173E0,6.845494E-1,9.968463E-1,-3.5582653E-1,1.10128716E-1,-3.3723047E-1,-6.842711E-1,-6.734411E-1,1.4637645E0,1.20595396E-1,2.1604869E-1,1.4747493E0,1.4952433E0,-6.734411E-1,-1.0437973E0,4.3533593E-1,6.745445E-1,-6.7687505E-1,-1.1319382E0,-6.734411E-1,3.469219E-1,1.2623204E0,1.6921902E-2,-6.8053126E-1,-9.084416E-1,2.6085765E0,-1.2872832E0,-1.2343741E-2,-6.684453E-1,8.903125E-1,1.5383829E0,8.616961E-1,-6.734411E-1,-6.430313E-1,1.5937472E-2,-6.509766E-1,-5.2412504E-1,1.068664E0,0E0,7.308437E-1,-6.42875E-1,-2.7532035E-1,0E0,7.5259376E-1,-6.4839065E-1,3.4289073E-2,7.0307034E-1,-6.938594E-1],"split_indices":[15,11,25,7,24,1,11,14,0,15,8,6,8,15,21,6,8,25,0,0,0,7,9,0,1,0,0,20,8,7,0,0,0,0,10,11,0,0,0,0,0,0,0,0,0,0,0,0,0,0,0],"split_type":[0,0,0,0,0,0,0,0,0,0,0,0,0,0,0,0,0,0,0,0,0,0,0,0,0,0,0,0,0,0,0,0,0,0,0,0,0,0,0,0,0,0,0,0,0,0,0,0,0,0,0],"sum_hessian":[1.22E2,5.8E1,6.4E1,2.5E1,3.3E1,3.6E1,2.8E1,2.3E1,2E0,2.5E1,8E0,2.8E1,8E0,1E1,1.8E1,1.6E1,7E0,2.3E1,2E0,5E0,3E0,2.3E1,5E0,4E0,4E0,3E0,7E0,1.2E1,6E0,1.4E1,2E0,4E0,3E0,2E0,2.1E1,5E0,1.8E1,3E0,2E0,2E0,2E0,3E0,9E0,4E0,2E0,3E0,1.1E1,1.9E1,2E0,2E0,3E0],"tree_param":{"num_deleted":"0","num_feature":"26","num_nodes":"51","size_leaf_vector":"1"}},{"base_weights":[5.577689E-3,2.2285715E-1,-1.4362416E-1,3.8064516E-1,-3.8E-2,1.10447764E-1,-3.4588236E-1,1.887324E-1,4.28E-2,3.5813954E-1,-2.7407408E-1,5.5999998E-2,-4.984127E-1,-1.030303E-1,4.2439026E-1,5.272727E-1,-1.0769231E-1,-6.3809526E-1,3.0000001E-2,2.5714284E-1,-2.4285715E-2,-4.3333333E-2,-1.897436E-1,-2.551724E-1,2.4285715E-2,5.542857E-1,-7.7777775E-3,-0E0,4.1428573E-2,-3.0000001E-2,2.4285715E-2,-0E0,-3.9411765E-2,-1.0769231E-1,3.3636365E-2,2.2666666E-1,-4.2222223E-1,5.3846156E-3,-2.4736842E-2,4.1176467E-3,4.1428573E-2,2.4285715E-2,-1.5454546E-2,2.4285715E-2,-3.0000001E-2,-7.7777775E-3,3.0000001E-2,-3.615385E-2,-4.1176467E-3],"categories":[],"categories_nodes":[],"categories_segments":[],"categories_sizes":[],"default_left":[0,0,0,0,0,0,0,0,0,0,0,0,0,0,0,0,0,0,0,0,0,0,0,0,0,0,0,0,0,0,0,0,0,0,0,0,0,0,0,0,0,0,0,0,0,0,0,0,0],"id":4,"left_children":[1,3,5,7,-1,9,11,13,-1,15,17,19,21,23,25,27,29,31,-1,33,-1,-1,35,37,-1,39,-1,41,-1,-1,-1,-1,-1,43,-1,45,47,-1,-1,-1,-1,-1,-1,-1,-1,-1,-1,-1,-1],"loss_changes":[4.1403027E0,8.461991E0,3.9563484E0,3.6862874E0,0E0,3.363092E0,2.779809E0,2.6028397E0,0E0,1.9049828E0,4.8811636E0,1.4808E0,3.016972E0,1.5947007E0,1.7932651E0,2.6212988E0,2.3703296E0,1.0059385E0,0E0,1.8701899E0,0E0,0E0,2.0899487E0,1.45651E0,0E0,1.8896475E0,0E0,1.3511688E0,0E0,0E0,0E0,0E0,0E0,2.3703296E0,0E0,1.3435556E0,1.0494418E0,0E0,0E0,0E0,0E0,0E0,0E0,0E0,0E0,0E0,0E0,0E0,0E0],"parents":[2147483647,0,0,1,1,2,2,3,3,5,5,6,6,7,7,9,9,10,10,11,11,12,12,13,13,14,14,15,15,16,16,17,17,19,19,22,22,23,23,25,25,27,27,33,33,35,35,36,36],"right_children":[2,4,6,8,-1,10,12,14,-1,16,18,20,22,24,26,28,30,32,-1,34,-1,-1,36,38,-1,40,-1,42,-1,-1,-1,-1,-1,44,-1,46,48,-1,-1,-1,-1,-1,-1,-1,-1,-1,-1,-1,-1],"split_conditions":[-4.8248056E-1,1.5210828E0,-8.37671E-2,-9.1027355E-1,-6.621938E-1,4.8497975E-1,-1.5708636E-1,-6.734411E-1,7.729953E-1,1.4630395E0,1.0133487E0,1.4276395E0,-1.9701922E-1,1.3636833E0,-1.0286733E0,-4.0676165E-1,1.3958243E0,-3.226197E-1,5.8580154E-1,1.7635417E-1,-6.166688E-1,-6.4432544E-1,-5.4587936E-1,-7.05554E-1,1.0618932E0,1.1535134E-2,-3.2673436E-1,-3.7724745E-1,1.0362029E-1,-6.964645E-1,4.3508592E-1,-3.0523786E-1,-6.159711E-1,1.10128716E-1,1.2869148E0,1.0289156E0,3.4105396E-1,6.991954E-2,-5.121559E-1,7.342946E-1,6.2286216E-1,3.355049E-1,-3.2032382E-1,3.170508E-1,-1.4810477E-1,-5.8169175E-2,7.149641E-1,-6.286922E-1,-3.7732124E-4],"split_indices":[7,20,19,7,0,13,0,9,0,2,13,20,12,21,7,25,7,7,0,7,0,0,18,17,0,2,0,16,0,0,0,0,0,15,0,0,7,0,0,0,0,0,0,0,0,0,0,0,0],"split_type":[0,0,0,0,0,0,0,0,0,0,0,0,0,0,0,0,0,0,0,0,0,0,0,0,0,0,0,0,0,0,0,0,0,0,0,0,0,0,0,0,0,0,0,0,0,0,0,0,0],"sum_hessian":[1.24E2,5.1E1,7.3E1,4.5E1,6E0,3.2E1,4.1E1,3.4E1,1.1E1,2E1,1.2E1,1.1E1,3E1,1.5E1,1.9E1,1.5E1,5E0,9E0,3E0,9E0,2E0,1.2E1,1.8E1,1.3E1,2E0,1.6E1,3E0,6E0,9E0,3E0,2E0,2E0,7E0,5E0,4E0,6E0,1.2E1,5E0,8E0,7E0,9E0,2E0,4E0,2E0,3E0,3E0,3E0,5E0,7E0],"tree_param":{"num_deleted":"0","num_feature":"26","num_nodes":"49","size_leaf_vector":"1"}},{"base_weights":[-8.897338E-2,-3.5284552E-1,1.3566433E-1,-4.3238094E-1,6.666666E-2,2.2105263E-1,-3.615385E-2,-6.680851E-1,-2.1967213E-1,4.9333334E-1,-3.0000001E-2,-2.153846E-2,4.4225353E-1,-8.051282E-1,-0E0,4.2222223E-1,-6.864865E-1,3.3636365E-2,-0E0,4.4E-1,-5.272727E-1,5.283582E-1,-2.4285715E-2,-4.485714E-2,-0E0,-2.4285715E-2,2.4285715E-2,4.1428573E-2,-3.0000001E-2,-0E0,-7.6969695E-1,7.185185E-1,-3.090909E-1,-8.2352936E-2,-4.0526316E-2,6.2539685E-1,-2.4285715E-2,-4.3793105E-2,-0E0,4.2173915E-2,-0E0,-0E0,-2.4285715E-2,1.5454546E-2,-3.0000001E-2,3.631579E-2,-7.7777775E-3],"categories":[],"categories_nodes":[],"categories_segments":[],"categories_sizes":[],"default_left":[0,0,0,0,0,0,0,0,0,0,0,0,0,0,0,0,0,0,0,0,0,0,0,0,0,0,0,0,0,0,0,0,0,0,0,0,0,0,0,0,0,0,0,0,0,0,0],"id":5,"left_children":[1,3,5,7,9,11,-1,13,15,17,-1,19,21,23,25,27,29,-1,-1,31,33,35,-1,-1,-1,-1,-1,-1,-1,-1,37,39,41,43,-1,45,-1,-1,-1,-1,-1,-1,-1,-1,-1,-1,-1],"loss_changes":[7.931704E0,2.204966E0,5.331991E0,2.1456928E0,3.3986666E0,3.708984E0,0E0,2.151577E0,9.653241E0,6.637577E-1,0E0,7.9601955E0,3.234274E0,1.4446297E0,1.6514285E0,6.4219046E0,1.0567732E0,0E0,0E0,4.107084E0,1.7114272E0,3.7940912E0,0E0,0E0,0E0,0E0,0E0,0E0,0E0,0E0,1.3482962E0,1.2121096E0,3.002597E-1,2.0878074E0,0E0,2.823308E0,0E0,0E0,0E0,0E0,0E0,0E0,0E0,0E0,0E0,0E0,0E0],"parents":[2147483647,0,0,1,1,2,2,3,3,4,4,5,5,7,7,8,8,9,9,11,11,12,12,13,13,14,14,15,15,16,16,19,19,20,20,21,21,30,30,31,31,32,32,33,33,35,35],"right_children":[2,4,6,8,10,12,-1,14,16,18,-1,20,22,24,26,28,30,-1,-1,32,34,36,-1,-1,-1,-1,-1,-1,-1,-1,38,40,42,44,-1,46,-1,-1,-1,-1,-1,-1,-1,-1,-1,-1,-1],"split_conditions":[-2.1827714E-1,8.616961E-1,2.1433873E0,-1.9778697E-1,8.0113065E-1,-1.1928824E-1,-5.2653843E-1,9.146319E-1,3.3316118E-1,1.0289156E0,-6.108608E-1,-6.734411E-1,1.594163E0,2.2149177E0,-1.5708636E-1,1.2851822E0,-1.3445238E0,1.0266643E0,-9.469367E-3,1.4637645E0,-4.565197E-1,2.6085765E0,-5.7991534E-1,-6.0142136E-1,-2.808623E-1,-6.229233E-1,3.7907445E-1,5.917191E-1,-6.083431E-1,2.3991051E-1,1.5498611E0,1.1959518E0,-1.5708636E-1,1.0004953E0,-6.3623834E-1,1.7086685E0,-1.6708422E-1,-6.1059284E-1,2.8727254E-1,7.2974956E-1,7.998862E-2,-8.820295E-3,-5.941861E-1,3.5861686E-1,-5.9459555E-1,5.868953E-1,-7.5310424E-2],"split_indices":[16,12,23,1,19,24,0,8,1,0,0,11,1,0,0,8,6,0,0,6,23,11,0,0,0,0,0,0,0,0,9,1,0,16,0,12,0,0,0,0,0,0,0,0,0,0,0],"split_type":[0,0,0,0,0,0,0,0,0,0,0,0,0,0,0,0,0,0,0,0,0,0,0,0,0,0,0,0,0,0,0,0,0,0,0,0,0,0,0,0,0,0,0,0,0,0,0],"sum_hessian":[1.3E2,6E1,7E1,5.1E1,9E0,6.5E1,5E0,2.2E1,2.9E1,6E0,3E0,3.1E1,3.4E1,1.8E1,4E0,1.2E1,1.7E1,4E0,2E0,1.6E1,1.5E1,3.2E1,2E0,1.6E1,2E0,2E0,2E0,9E0,3E0,2E0,1.5E1,1.2E1,4E0,7E0,8E0,3E1,2E0,1.3E1,2E0,1E1,2E0,2E0,2E0,4E0,3E0,2.7E1,3E0],"tree_param":{"num_deleted":"0","num_feature":"26","num_nodes":"47","size_leaf_vector":"1"}},{"base_weights":[-7.854251E-2,-2.3175966E-2,-3.9411765E-2,3.0526316E-1,-1.3072626E-1,5.219512E-1,-1.7894737E-1,-2.0242424E-1,5.529412E-1,4.2173915E-2,6.666666E-2,-3.615385E-2,3.0000001E-2,9.4736844E-2,-3.5495496E-1,3.615385E-2,-0E0,-3.0000001E-2,4.9333334E-1,-3.2413793E-1,4.967742E-1,-1.10447764E-1,-6.680851E-1,-0E0,3.3636365E-2,3.0000001E-2,-3.347826E-2,4.0526316E-2,-0E0,1.2280702E-3,-3.615385E-2,-4.485714E-2,-0E0],"categories":[],"categories_nodes":[],"categories_segments":[],"categories_sizes":[],"default_left":[0,0,0,0,0,0,0,0,0,0,0,0,0,0,0,0,0,0,0,0,0,0,0,0,0,0,0,0,0,0,0,0,0],"id":6,"left_children":[1,3,-1,5,7,9,11,13,15,-1,17,-1,-1,19,21,-1,-1,-1,23,25,27,29,31,-1,-1,-1,-1,-1,-1,-1,-1,-1,-1],"loss_changes":[4.5818896E0,4.122711E0,0E0,3.233299E0,4.4498115E0,2.643528E0,4.714251E0,3.8679166E0,7.9963803E-1,0E0,3.3986666E0,0E0,0E0,5.0928206E0,3.9049811E0,0E0,0E0,0E0,6.637577E-1,5.252204E0,2.4158912E0,3.006998E0,3.5962067E0,0E0,0E0,0E0,0E0,0E0,0E0,0E0,0E0,0E0,0E0],"parents":[2147483647,0,0,1,1,3,3,4,4,5,5,6,6,7,7,8,8,10,10,13,13,14,14,18,18,19,19,20,20,21,21,22,22],"right_children":[2,4,-1,6,8,10,12,14,16,-1,18,-1,-1,20,22,-1,-1,-1,24,26,28,30,32,-1,-1,-1,-1,-1,-1,-1,-1,-1,-1],"split_conditions":[1.7086685E0,-1.5708636E-1,-6.0039616E-1,8.616961E-1,8.616961E-1,4.5038518E-1,1.7086685E0,-4.531976E-1,1.7086685E0,1.267539E0,1.6563896E0,-5.6139946E-1,6.26307E-1,1.0289156E0,-5.675696E-1,6.533143E-1,7.8587717E-1,-5.510933E-1,-1.2208971E0,-1.0051502E0,5.3105686E-2,1.4952433E0,-3.525635E-2,5.6713694E-1,9.524174E-1,6.1951827E-2,-5.809964E-1,3.6663732E-1,-2.92489E-1,1.0453224E-3,-5.8127016E-1,-5.821336E-1,-2.030921E-3],"split_indices":[9,0,0,8,10,18,8,6,10,0,18,0,0,0,8,0,0,0,6,24,21,6,25,0,0,0,0,0,0,0,0,0,0],"split_type":[0,0,0,0,0,0,0,0,0,0,0,0,0,0,0,0,0,0,0,0,0,0,0,0,0,0,0,0,0,0,0,0,0],"sum_hessian":[1.22E2,1.15E2,7E0,2.7E1,8.8E1,1.9E1,8E0,8.1E1,7E0,1E1,9E0,5E0,3E0,2.7E1,5.4E1,5E0,2E0,3E0,6E0,1.3E1,1.4E1,3.2E1,2.2E1,2E0,4E0,3E0,1E1,8E0,6E0,2.7E1,5E0,1.6E1,6E0],"tree_param":{"num_deleted":"0","num_feature":"26","num_nodes":"33","size_leaf_vector":"1"}},{"base_weights":[-1.4811715E-1,-3.90991E-1,5.648855E-2,-5.3118277E-1,2.5714284E-1,-6.915888E-2,5.703704E-1,-7.263158E-1,-1.897436E-1,-3.0000001E-2,3.8E-2,-4.511628E-1,1.7014925E-1,4.2173915E-2,-2.4285715E-2,-2.5714284E-1,-4.5384616E-2,-4.9565217E-1,1.7894737E-1,-6.864865E-1,3.0000001E-2,4.367347E-1,-4.4761905E-1,-3.615385E-2,3.090909E-1,2.4285715E-2,-4.0526316E-2,3.615385E-2,-3.0000001E-2,-4.3333333E-2,-1.0769231E-1,-4.1538462E-1,7.025641E-1,-3.8E-2,7.7777775E-3,2.4285715E-2,-0E0,2.4285715E-2,-3.0000001E-2,-3.0000001E-2,-0E0,-0E0,3.914286E-2],"categories":[],"categories_nodes":[],"categories_segments":[],"categories_sizes":[],"default_left":[0,0,0,0,0,0,0,0,0,0,0,0,0,0,0,0,0,0,0,0,0,0,0,0,0,0,0,0,0,0,0,0,0,0,0,0,0,0,0,0,0,0,0],"id":7,"left_children":[1,3,5,7,9,11,13,15,17,-1,-1,19,21,-1,-1,23,-1,25,27,29,-1,31,33,-1,35,-1,-1,-1,-1,-1,37,39,41,-1,-1,-1,-1,-1,-1,-1,-1,-1,-1],"loss_changes":[6.0718384E0,5.329996E0,4.438732E0,2.6165724E0,5.2577143E0,5.0902414E0,4.615601E0,1.7257042E0,2.4273767E0,0E0,0E0,5.962099E0,5.80702E0,0E0,0E0,3.2296305E0,0E0,4.2415495E0,4.714251E0,1.4970064E0,0E0,6.0736055E0,2.3370798E0,0E0,3.002597E-1,0E0,0E0,0E0,0E0,0E0,2.3703296E0,4.984616E-1,1.1000147E0,0E0,0E0,0E0,0E0,0E0,0E0,0E0,0E0,0E0,0E0],"parents":[2147483647,0,0,1,1,2,2,3,3,4,4,5,5,6,6,7,7,8,8,11,11,12,12,15,15,17,17,18,18,19,19,21,21,22,22,24,24,30,30,31,31,32,32],"right_children":[2,4,6,8,10,12,14,16,18,-1,-1,20,22,-1,-1,24,-1,26,28,30,-1,32,34,-1,36,-1,-1,-1,-1,-1,38,40,42,-1,-1,-1,-1,-1,-1,-1,-1,-1,-1],"split_conditions":[-3.2425734E-1,8.69865E-1,8.616961E-1,7.316877E-1,-4.7237313E-1,-5.717582E-1,1.6196258E0,-5.382469E-1,-4.355843E-1,-1.8261766E-2,6.1336833E-1,1.0104485E0,1.0291824E0,3.0908433E-1,-5.491152E-1,-3.0230522E-1,-5.564336E-1,8.8113695E-1,1.20595396E-1,8.3340354E-2,5.949917E-1,-6.135766E-1,2.5984557E0,-5.6467265E-1,1.0289156E0,2.2983884E-2,-5.692567E-1,7.154934E-1,-5.466582E-1,-6.1282074E-1,3.0375078E-1,1.0289156E0,-1.3445238E0,-5.0782186E-1,9.6896094E-1,5.254119E-1,1.9051505E-2,3.827437E-1,-9.990173E-2,-6.173684E-1,-2.8502944E-1,2.4874917E-1,5.924825E-1],"split_indices":[16,18,9,6,20,13,24,23,21,0,0,14,23,0,0,21,0,6,9,18,0,3,13,0,0,0,0,0,0,0,3,0,6,0,0,0,0,0,0,0,0,0,0],"split_type":[0,0,0,0,0,0,0,0,0,0,0,0,0,0,0,0,0,0,0,0,0,0,0,0,0,0,0,0,0,0,0,0,0,0,0,0,0,0,0,0,0,0,0],"sum_hessian":[1.18E2,5.4E1,6.4E1,4.5E1,9E0,5.2E1,1.2E1,2.7E1,1.8E1,3E0,6E0,2E1,3.2E1,1E1,2E0,9E0,1.8E1,1E1,8E0,1.7E1,3E0,2.3E1,9E0,5E0,4E0,2E0,8E0,5E0,3E0,1.2E1,5E0,5E0,1.8E1,6E0,3E0,2E0,2E0,2E0,3E0,3E0,2E0,2E0,1.6E1],"tree_param":{"num_deleted":"0","num_feature":"26","num_nodes":"43","size_leaf_vector":"1"}},{"base_weights":[-1.3413654E-1,1.9550562E-1,-3.1533742E-1,3.4683543E-1,-3.615385E-2,1.9178081E-2,-5.7419354E-1,1.5409836E-1,4.1428573E-2,1.9322033E-1,-5.529412E-1,-2.1142857E-1,-7.442623E-1,3.948718E-1,-2.16E-1,-3.111111E-2,3.9411765E-2,-0E0,-3.615385E-2,-4.0526316E-2,3.8947368E-1,-8.618182E-1,7.7777775E-3,3.9411765E-2,5.5999998E-2,-4.4761905E-1,2.4285715E-2,3.76E-1,-4.9565217E-1,3.8E-2,-2.4285715E-2,-4.632653E-2,-7.7777775E-3,-3.0000001E-2,1.9473685E-2,-0E0,-3.615385E-2,-1.5454546E-2,3.9411765E-2,-3.9411765E-2,7.7777775E-3],"categories":[],"categories_nodes":[],"categories_segments":[],"categories_sizes":[],"default_left":[0,0,0,0,0,0,0,0,0,0,0,0,0,0,0,0,0,0,0,0,0,0,0,0,0,0,0,0,0,0,0,0,0,0,0,0,0,0,0,0,0],"id":8,"left_children":[1,3,5,7,-1,9,11,13,-1,15,17,19,21,23,25,27,-1,-1,-1,-1,29,31,-1,-1,33,35,-1,37,39,-1,-1,-1,-1,-1,-1,-1,-1,-1,-1,-1,-1],"loss_changes":[7.5649905E0,6.4492083E0,7.240221E0,3.181188E0,0E0,3.686755E0,2.3460703E0,2.8994505E0,0E0,4.201598E0,7.9963803E-1,6.8998194E0,3.639227E0,2.2798636E0,2.346324E0,4.57064E0,0E0,0E0,0E0,0E0,3.716662E0,7.1604156E-1,0E0,0E0,3.0218525E0,1.294652E0,0E0,4.039431E0,2.5648482E0,0E0,0E0,0E0,0E0,0E0,0E0,0E0,0E0,0E0,0E0,0E0,0E0],"parents":[2147483647,0,0,1,1,2,2,3,3,5,5,6,6,7,7,9,9,10,10,11,11,12,12,13,13,14,14,15,15,20,20,21,21,24,24,25,25,27,27,28,28],"right_children":[2,4,6,8,-1,10,12,14,-1,16,18,20,22,24,26,28,-1,-1,-1,-1,30,32,-1,-1,34,36,-1,38,40,-1,-1,-1,-1,-1,-1,-1,-1,-1,-1,-1,-1],"split_conditions":[-4.8248056E-1,1.3397386E0,-6.734411E-1,2.0042413E-1,-5.5501044E-1,7.4564856E-1,-7.3964566E-2,-7.05554E-1,5.910245E-1,-2.3566568E-1,-1.5251573E0,-6.77432E-1,9.146319E-1,-5.156912E-3,1.2081912E0,-9.2312586E-1,6.293978E-1,1.3704987E-1,-5.1932526E-1,-5.8698785E-1,8.616961E-1,1.265446E0,1.1896467E-1,8.4124434E-1,-5.675696E-1,-6.231892E-1,3.6992885E-2,-1.3756578E0,1.20595396E-1,5.1170313E-1,-2.868577E-1,-5.2338946E-1,-1.2301445E-3,-5.8583057E-1,5.278741E-1,-2.259461E-1,-2.9542682E-1,-2.2390218E-1,5.1054853E-1,-5.559894E-1,5.8543026E-1],"split_indices":[7,22,11,1,0,14,18,17,0,21,1,13,9,20,21,24,0,0,0,0,11,16,0,0,10,22,0,20,12,0,0,0,0,0,0,0,0,0,0,0,0],"split_type":[0,0,0,0,0,0,0,0,0,0,0,0,0,0,0,0,0,0,0,0,0,0,0,0,0,0,0,0,0,0,0,0,0,0,0,0,0,0,0,0,0],"sum_hessian":[1.23E2,4.3E1,8E1,3.8E1,5E0,3.5E1,4.5E1,2.9E1,9E0,2.8E1,7E0,1.6E1,2.9E1,1.8E1,1.1E1,2.1E1,7E0,2E0,5E0,8E0,8E0,2.6E1,3E0,7E0,1.1E1,9E0,2E0,1.1E1,1E1,6E0,2E0,2.3E1,3E0,3E0,8E0,4E0,5E0,4E0,7E0,7E0,3E0],"tree_param":{"num_deleted":"0","num_feature":"26","num_nodes":"41","size_leaf_vector":"1"}},{"base_weights":[-1.3667953E-1,1.505618E-1,-2.8554913E-1,-2.5405404E-1,4.2545456E-1,-3.656051E-1,3.8947368E-1,2.4285715E-2,-4.060606E-1,5.372549E-1,-2.4285715E-2,-1.1604938E-1,-6E-1,3.8E-2,-2.4285715E-2,-5.703704E-1,7.7777775E-3,6.533333E-1,-7.7777775E-3,6E-1,-3.2923076E-1,-7.6E-1,8.2352936E-2,-1.0769231E-1,-3.9411765E-2,1.7894737E-1,4.3793105E-2,-0E0,3.8E-2,9.714285E-2,-7.6969695E-1,-8.098361E-1,-0E0,3.3636365E-2,-3.0000001E-2,-3.0000001E-2,2.4285715E-2,3.3636365E-2,-1.5454546E-2,-3.3636365E-2,2.1111112E-2,-4.3333333E-2,-7.7777775E-3,-4.3333333E-2,-0E0],"categories":[],"categories_nodes":[],"categories_segments":[],"categories_sizes":[],"default_left":[0,0,0,0,0,0,0,0,0,0,0,0,0,0,0,0,0,0,0,0,0,0,0,0,0,0,0,0,0,0,0,0,0,0,0,0,0,0,0,0,0,0,0,0,0],"id":9,"left_children":[1,3,5,7,9,11,13,-1,15,17,-1,19,21,-1,-1,23,-1,25,-1,27,29,31,33,35,-1,37,-1,-1,-1,39,41,43,-1,-1,-1,-1,-1,-1,-1,-1,-1,-1,-1,-1,-1],"loss_changes":[5.6426E0,5.163108E0,4.880855E0,2.3522663E0,3.2082887E0,4.272566E0,3.716662E0,0E0,1.7801349E0,2.3524966E0,0E0,6.397337E0,4.6096487E0,0E0,0E0,9.647093E-1,0E0,1.823658E0,0E0,9.120002E-1,6.4175253E0,1.2309513E0,4.0514436E0,2.3703296E0,0E0,2.710335E0,0E0,0E0,0E0,4.7306147E0,4.7373772E-1,1.4037151E0,0E0,0E0,0E0,0E0,0E0,0E0,0E0,0E0,0E0,0E0,0E0,0E0,0E0],"parents":[2147483647,0,0,1,1,2,2,3,3,4,4,5,5,6,6,8,8,9,9,11,11,12,12,15,15,17,17,19,19,20,20,21,21,22,22,23,23,25,25,29,29,30,30,31,31],"right_children":[2,4,6,8,10,12,14,-1,16,18,-1,20,22,-1,-1,24,-1,26,-1,28,30,32,34,36,-1,38,-1,-1,-1,40,42,44,-1,-1,-1,-1,-1,-1,-1,-1,-1,-1,-1,-1,-1],"split_conditions":[-6.12447E-1,-5.930681E-2,1.5498611E0,2.6679265E-1,2.5901988E0,-6.842711E-1,4.9320707E-1,1.3924767E0,8.616961E-1,1.3992213E0,-2.2968292E-1,-1.2185626E0,1.0104485E0,6.0817873E-1,-6.127009E-1,7.3137224E-1,1.1408452E0,-6.0444564E-1,-2.8021714E-1,-2.6415548E-1,-6.734411E-1,1.3958243E0,3.0558512E-1,-4.3389242E-2,-4.9661025E-1,-6.9729644E-1,4.97645E-1,2.8466216E-1,2.6178965E-1,5.724383E-1,8.41525E-1,1.265446E0,1.4924721E-1,5.3729457E-1,-4.71978E-1,-5.1452297E-1,3.2099426E-1,5.537972E-1,-5.419629E-1,-2.9138898E-2,4.7473165E-1,-5.3057E-1,-4.7576866E-1,-5.5430025E-1,7.117114E-2],"split_indices":[6,16,11,1,16,15,20,0,9,22,0,7,15,0,0,1,0,25,0,1,11,7,23,13,0,23,0,0,0,6,16,16,0,0,0,0,0,0,0,0,0,0,0,0,0],"split_type":[0,0,0,0,0,0,0,0,0,0,0,0,0,0,0,0,0,0,0,0,0,0,0,0,0,0,0,0,0,0,0,0,0,0,0,0,0,0,0,0,0,0,0,0,0],"sum_hessian":[1.28E2,4.3E1,8.5E1,1.7E1,2.6E1,7.7E1,8E0,2E0,1.5E1,2.4E1,2E0,3.9E1,3.8E1,6E0,2E0,1.2E1,3E0,2.1E1,3E0,8E0,3.1E1,3.1E1,7E0,5E0,7E0,8E0,1.3E1,2E0,6E0,1.6E1,1.5E1,2.9E1,2E0,4E0,3E0,3E0,2E0,4E0,4E0,4E0,1.2E1,1.2E1,3E0,2.7E1,2E0],"tree_param":{"num_deleted":"0","num_feature":"26","num_nodes":"45","size_leaf_vector":"1"}},{"base_weights":[-1.7132075E-1,-2.3428571E-1,4.9565217E-1,-3.0704224E-1,2.1142857E-1,4.0526316E-2,-2.4285715E-2,-3.6719576E-1,1.2592593E-1,4.9565217E-1,-2.2666666E-1,-2.2276422E-1,-6E-1,3.615385E-2,-3.1764707E-1,4.0526316E-2,-2.4285715E-2,2.4285715E-2,-3.3636365E-2,-4.0689656E-1,1.897436E-1,-2.8484848E-1,-8.051282E-1,-0E0,-3.0000001E-2,-3.6511626E-2,-3.617021E-3,4.0526316E-2,-1.6086956E-2,5.3846156E-3,-2.478261E-2,-4.485714E-2,-0E0,-2.4285715E-2,2.4285715E-2],"categories":[],"categories_nodes":[],"categories_segments":[],"categories_sizes":[],"default_left":[0,0,0,0,0,0,0,0,0,0,0,0,0,0,0,0,0,0,0,0,0,0,0,0,0,0,0,0,0,0,0,0,0,0,0],"id":10,"left_children":[1,3,5,7,9,-1,-1,11,13,15,17,19,21,-1,23,-1,-1,-1,-1,25,27,29,31,33,-1,-1,-1,-1,-1,-1,-1,-1,-1,-1,-1],"loss_changes":[5.6602364E0,4.098568E0,4.2415495E0,2.9154844E0,2.428265E0,0E0,0E0,2.7301779E0,4.0420346E0,4.2415495E0,2.9294717E0,4.8522506E0,1.5593014E0,0E0,7.6235294E-1,0E0,0E0,0E0,0E0,4.385561E0,6.729436E0,1.5618142E0,1.4446297E0,1.6514285E0,0E0,0E0,0E0,0E0,0E0,0E0,0E0,0E0,0E0,0E0,0E0],"parents":[2147483647,0,0,1,1,2,2,3,3,4,4,7,7,8,8,9,9,10,10,11,11,12,12,14,14,19,19,20,20,21,21,22,22,23,23],"right_children":[2,4,6,8,10,-1,-1,12,14,16,18,20,22,-1,24,-1,-1,-1,-1,26,28,30,32,34,-1,-1,-1,-1,-1,-1,-1,-1,-1,-1,-1],"split_conditions":[1.6563896E0,1.5303965E0,1.9637282E0,1.5868162E0,-1.5708636E-1,5.4727787E-1,-3.1271935E-1,-5.156912E-3,-6.734411E-1,1.9856524E0,-4.050861E-1,-4.7237313E-1,-7.0318425E-1,3.8171577E-1,-6.734411E-1,8.394521E-1,-3.6879477E-1,3.5355127E-1,-2.902614E-1,-5.717582E-1,-4.8751246E-2,-2.0859146E-2,1.2752484E0,-7.0318425E-1,-5.2303404E-1,-4.772396E-1,-2.600391E-2,6.217001E-1,-2.4117458E-1,5.6623363E-1,-5.306069E-1,-5.00811E-1,-2.3405467E-1,-5.661392E-1,1.3035017E0],"split_indices":[18,16,15,24,0,0,0,20,9,21,22,20,18,0,11,0,0,0,0,13,15,24,15,18,0,0,0,0,0,0,0,0,0,0,0],"split_type":[0,0,0,0,0,0,0,0,0,0,0,0,0,0,0,0,0,0,0,0,0,0,0,0,0,0,0,0,0,0,0,0,0,0,0],"sum_hessian":[1.31E2,1.21E2,1E1,1.05E2,1.6E1,8E0,2E0,9.3E1,1.2E1,1E1,6E0,6E1,3.3E1,5E0,7E0,8E0,2E0,2E0,4E0,4.2E1,1.8E1,1.5E1,1.8E1,4E0,3E0,2E1,2.2E1,8E0,1E1,5E0,1E1,1.6E1,2E0,2E0,2E0],"tree_param":{"num_deleted":"0","num_feature":"26","num_nodes":"35","size_leaf_vector":"1"}},{"base_weights":[-4.7698744E-2,8.535032E-2,-2.9882354E-1,-9.913044E-2,5.644444E-1,3.0000001E-2,-3.9746836E-1,1.9322033E-1,-3.9661017E-1,7.025641E-1,-7.7777775E-3,-5.859649E-1,5.5999998E-2,-8.717949E-2,6.695652E-1,-5.372549E-1,3.090909E-1,4.4193547E-2,-0E0,-6.9411767E-1,7.7777775E-3,3.3636365E-2,-3.1764707E-1,-4.4761905E-1,2.5714284E-1,4.0526316E-2,-0E0,-6.533333E-1,7.7777775E-3,-0E0,2.4285715E-2,-2.4285715E-2,2.4285715E-2,-8.1463414E-1,-1.0769231E-1,7.7777775E-3,-3.3636365E-2,-3.8E-2,7.7777775E-3,3.615385E-2,-1.5454546E-2,-0E0,-3.972973E-2,-4.5135137E-2,-0E0,2.4285715E-2,-3.0000001E-2],"categories":[],"categories_nodes":[],"categories_segments":[],"categories_sizes":[],"default_left":[0,0,0,0,0,0,0,0,0,0,0,0,0,0,0,0,0,0,0,0,0,0,0,0,0,0,0,0,0,0,0,0,0,0,0,0,0,0,0,0,0,0,0,0,0,0,0],"id":11,"left_children":[1,3,5,7,9,-1,11,13,15,17,-1,19,21,23,25,27,29,-1,31,33,-1,-1,35,37,39,-1,-1,41,-1,-1,-1,-1,-1,43,45,-1,-1,-1,-1,-1,-1,-1,-1,-1,-1,-1,-1],"loss_changes":[4.0950227E0,7.1616406E0,4.0651946E0,5.1766515E0,2.5655732E0,0E0,3.5845613E0,4.2025013E0,3.2455077E0,2.483904E0,0E0,2.6091566E0,3.3075378E0,2.6498902E0,1.0854006E0,2.3524966E0,3.002597E-1,0E0,1.6514285E0,1.3938923E0,0E0,0E0,1.7403327E0,2.3370798E0,3.2296305E0,0E0,0E0,2.07654E0,0E0,0E0,0E0,0E0,0E0,1.4707451E0,2.3703296E0,0E0,0E0,0E0,0E0,0E0,0E0,0E0,0E0,0E0,0E0,0E0,0E0],"parents":[2147483647,0,0,1,1,2,2,3,3,4,4,6,6,7,7,8,8,9,9,11,11,12,12,13,13,14,14,15,15,16,16,18,18,19,19,22,22,23,23,24,24,27,27,33,33,34,34],"right_children":[2,4,6,8,10,-1,12,14,16,18,-1,20,22,24,26,28,30,-1,32,34,-1,-1,36,38,40,-1,-1,42,-1,-1,-1,-1,-1,44,46,-1,-1,-1,-1,-1,-1,-1,-1,-1,-1,-1,-1],"split_conditions":[1.15121454E-1,2.2646692E-1,-1.010302E0,-6.734411E-1,1.1959518E0,1.0674206E0,7.558246E-1,-6.7705315E-1,8.616961E-1,8.040714E-1,-1.3915109E-2,1.4637645E0,-6.734411E-1,-5.892079E-1,1.2851822E0,1.5498611E0,3.9952967E-1,5.672658E-1,-6.504994E-2,9.304778E-1,4.625848E-1,4.7768638E-1,-6.12447E-1,-5.24437E-1,-6.734411E-1,6.447053E-2,3.7248778E-1,-1.1691986E0,4.9172288E-1,-2.2534044E-1,5.3618073E-1,-3.082525E-1,1.278849E0,1.9637282E0,1.3950574E0,1.32832E0,-4.5955488E-1,-5.1119226E-1,3.4713364E-1,7.562532E-1,-2.2102122E-1,-7.5962546E-4,-4.9692306E-1,-5.196693E-1,2.821029E-1,5.47839E-1,-4.759389E-1],"split_indices":[13,10,25,12,1,0,11,24,9,25,0,6,10,16,9,11,1,0,1,1,0,0,6,21,8,0,0,24,0,0,0,0,0,14,1,0,0,0,0,0,0,0,0,0,0,0,0],"split_type":[0,0,0,0,0,0,0,0,0,0,0,0,0,0,0,0,0,0,0,0,0,0,0,0,0,0,0,0,0,0,0,0,0,0,0,0,0,0,0,0,0,0,0,0,0,0,0],"sum_hessian":[1.18E2,7.7E1,4.1E1,5.6E1,2.1E1,3E0,3.8E1,2.8E1,2.8E1,1.8E1,3E0,2.7E1,1.1E1,1.8E1,1E1,2.4E1,4E0,1.4E1,4E0,2.4E1,3E0,4E0,7E0,9E0,9E0,8E0,2E0,2.1E1,3E0,2E0,2E0,2E0,2E0,1.9E1,5E0,3E0,4E0,6E0,3E0,5E0,4E0,4E0,1.7E1,1.7E1,2E0,2E0,3E0],"tree_param":{"num_deleted":"0","num_feature":"26","num_nodes":"47","size_leaf_vector":"1"}},{"base_weights":[-1.4103585E-1,-1.7860082E-1,3.3636365E-2,1.0422535E-1,-2.9371428E-1,-3.3636365E-2,2.4444444E-1,-1.9731544E-1,-7.37931E-1,5.219512E-1,-2.16E-1,-2.729927E-1,4.9333334E-1,-4.28E-2,-0E0,6.666666E-2,4.2173915E-2,-3.615385E-2,2.2666666E-1,-0E0,-5.1232874E-1,3.3636365E-2,-0E0,2.4666667E-2,-3.0000001E-2,3.3636365E-2,-2.4285715E-2,-1.1176471E-2,3.0000001E-2,-3.0000001E-2,2.4285715E-2],"categories":[],"categories_nodes":[],"categories_segments":[],"categories_sizes":[],"default_left":[0,0,0,0,0,0,0,0,0,0,0,0,0,0,0,0,0,0,0,0,0,0,0,0,0,0,0,0,0,0,0],"id":12,"left_children":[1,3,-1,5,7,-1,9,11,13,15,17,19,21,-1,-1,23,-1,-1,25,27,29,-1,-1,-1,-1,-1,-1,-1,-1,-1,-1],"loss_changes":[3.8683941E0,4.058453E0,0E0,3.9856794E0,3.247942E0,0E0,4.285856E0,4.0297594E0,1.2633376E0,2.643528E0,3.200595E0,4.475585E0,6.637577E-1,0E0,0E0,3.3986666E0,0E0,0E0,2.9294717E0,4.6941175E0,3.665166E0,0E0,0E0,0E0,0E0,0E0,0E0,0E0,0E0,0E0,0E0],"parents":[2147483647,0,0,1,1,3,3,4,4,6,6,7,7,8,8,9,9,10,10,11,11,12,12,15,15,18,18,19,19,20,20],"right_children":[2,4,-1,6,8,-1,10,12,14,16,18,20,22,-1,-1,24,-1,-1,26,28,30,-1,-1,-1,-1,-1,-1,-1,-1,-1,-1],"split_conditions":[2.3438976E0,-1.5708636E-1,1.8189454E-2,-1.2925694E0,1.4118102E0,-2.2922742E-1,1.4525361E0,1.2497926E0,1.20595396E-1,-1.9778697E-1,-1.0171123E-1,-3.3906597E-1,-5.675696E-1,-4.661568E-1,-2.0474672E-2,-5.296295E-1,1.0401024E0,-4.4679293E-1,8.08224E-1,-4.4634375E-1,1.0104485E0,6.209194E-1,5.488768E-2,2.2569184E-1,-5.822611E-1,4.6804E-1,-4.911298E-1,-1.06488705E-1,1.8098974E-1,-4.6638975E-1,7.075415E-2],"split_indices":[11,0,0,6,6,0,21,6,10,1,14,25,8,0,0,1,0,0,17,25,15,0,0,0,0,0,0,0,0,0,0],"split_type":[0,0,0,0,0,0,0,0,0,0,0,0,0,0,0,0,0,0,0,0,0,0,0,0,0,0,0,0,0,0,0],"sum_hessian":[1.24E2,1.2E2,4E0,3.4E1,8.6E1,4E0,3E1,7.3E1,1.3E1,1.9E1,1.1E1,6.7E1,6E0,1.1E1,2E0,9E0,1E1,5E0,6E0,3.2E1,3.5E1,4E0,2E0,6E0,3E0,4E0,2E0,2.4E1,8E0,3.3E1,2E0],"tree_param":{"num_deleted":"0","num_feature":"26","num_nodes":"31","size_leaf_vector":"1"}},{"base_weights":[1.3991769E-2,-2.0421052E-1,1.5496689E-1,7.234042E-2,-4.5882353E-1,4.523077E-1,-6.0674157E-2,-3.8947368E-1,3.6774194E-1,-7.37931E-1,-5.5999998E-2,7.945946E-1,-0E0,-3.0526316E-1,3.257143E-1,7.7777775E-3,-3.615385E-2,-1.0769231E-1,6.3809526E-1,-0E0,-4.28E-2,3.1764707E-1,-3.3636365E-2,4.4545453E-2,-0E0,-3.3636365E-2,3.2173914E-1,5.5999998E-2,-5.542857E-1,-3.1764707E-1,4.1428573E-2,2.4285715E-2,-3.0000001E-2,3.9411765E-2,-0E0,-7.7777775E-3,3.3636365E-2,3.8E-2,-3.090909E-1,5.529412E-1,-3.3636365E-2,-7.185185E-1,-0E0,7.7777775E-3,-3.3636365E-2,-0E0,-2.4285715E-2,3.615385E-2,-0E0,-0E0,-4.2173915E-2,-2.4285715E-2,2.4285715E-2],"categories":[],"categories_nodes":[],"categories_segments":[],"categories_sizes":[],"default_left":[0,0,0,0,0,0,0,0,0,0,0,0,0,0,0,0,0,0,0,0,0,0,0,0,0,0,0,0,0,0,0,0,0,0,0,0,0,0,0,0,0,0,0,0,0,0,0,0,0,0,0,0,0],"id":13,"left_children":[1,3,5,7,9,11,13,15,17,19,21,23,25,27,29,-1,-1,31,33,-1,-1,35,-1,-1,-1,-1,37,39,41,43,-1,-1,-1,-1,-1,-1,-1,-1,45,47,-1,49,51,-1,-1,-1,-1,-1,-1,-1,-1,-1,-1],"loss_changes":[3.7701685E0,3.5103717E0,4.9996305E0,3.4142032E0,2.5668268E0,5.031617E0,4.348541E0,2.066298E0,2.2544935E0,1.2633376E0,3.3075378E0,1.415823E0,3.6795256E0,2.7599814E0,6.2096467E0,0E0,0E0,2.3703296E0,1.0059385E0,0E0,0E0,1.7403327E0,0E0,0E0,0E0,0E0,3.66702E0,5.0487146E0,1.5930581E0,1.7403327E0,0E0,0E0,0E0,0E0,0E0,0E0,0E0,0E0,3.002597E-1,7.9963803E-1,0E0,1.2121096E0,1.6514285E0,0E0,0E0,0E0,0E0,0E0,0E0,0E0,0E0,0E0,0E0],"parents":[2147483647,0,0,1,1,2,2,3,3,4,4,5,5,6,6,7,7,8,8,9,9,10,10,11,11,12,12,13,13,14,14,17,17,18,18,21,21,26,26,27,27,28,28,29,29,38,38,39,39,41,41,42,42],"right_children":[2,4,6,8,10,12,14,16,18,20,22,24,26,28,30,-1,-1,32,34,-1,-1,36,-1,-1,-1,-1,38,40,42,44,-1,-1,-1,-1,-1,-1,-1,-1,46,48,-1,50,52,-1,-1,-1,-1,-1,-1,-1,-1,-1,-1],"split_conditions":[-6.951881E-1,-5.253911E-1,2.5863385E-1,-6.904074E-1,-1.4543144E-1,-7.3964566E-2,3.4105396E-1,-3.30524E-1,-5.1463383E-1,-4.531976E-1,8.616961E-1,1.2497926E0,-4.0676165E-1,-1.5708636E-1,-7.0318425E-1,9.740925E-3,-4.803326E-1,1.0289156E0,1.7086685E0,1.4435149E-2,-4.5309624E-1,-8.9936584E-1,-4.4358465E-1,5.1603585E-1,4.4156533E-1,-3.657395E-1,-3.0757374E-1,-9.114768E-2,1.1943408E-1,-6.12447E-1,3.864828E-1,1.6671625E-1,-4.2918655E-1,6.0181963E-1,8.9088434E-1,-5.0266266E-2,8.494749E-1,1.5273261E-2,5.9863526E-1,4.658982E-1,-2.5459352E-1,-1.5119468E0,1.3185798E-3,1.1453009E-2,-4.8600546E-1,-2.1106188E-1,-4.509308E-1,9.985696E-1,2.9585978E-1,1.0271473E-1,-5.017397E-1,-4.964326E-1,9.9956685E-1],"split_indices":[16,15,16,20,25,18,7,1,10,6,8,6,25,0,18,0,0,0,8,0,0,6,0,0,0,0,13,8,20,6,0,0,0,0,0,0,0,0,1,1,0,25,1,0,0,0,0,0,0,0,0,0,0],"split_type":[0,0,0,0,0,0,0,0,0,0,0,0,0,0,0,0,0,0,0,0,0,0,0,0,0,0,0,0,0,0,0,0,0,0,0,0,0,0,0,0,0,0,0,0,0,0,0,0,0,0,0,0,0],"sum_hessian":[1.2E2,4.6E1,7.4E1,2.2E1,2.4E1,3.1E1,4.3E1,8E0,1.4E1,1.3E1,1.1E1,1.7E1,1.4E1,2.7E1,1.6E1,3E0,5E0,5E0,9E0,2E0,1.1E1,7E0,4E0,1.5E1,2E0,4E0,1E1,1.1E1,1.6E1,7E0,9E0,2E0,3E0,7E0,2E0,3E0,4E0,6E0,4E0,7E0,4E0,1.2E1,4E0,3E0,4E0,2E0,2E0,5E0,2E0,2E0,1E1,2E0,2E0],"tree_param":{"num_deleted":"0","num_feature":"26","num_nodes":"53","size_leaf_vector":"1"}},{"base_weights":[-1.292181E-1,-1.9817352E-1,4.2222223E-1,-4.213592E-1,-0E0,6.3809526E-1,-7.7777775E-3,-5.710843E-1,1.4782609E-1,3.5272726E-1,-2.8955224E-1,3.9411765E-2,-0E0,-6.853333E-1,3.090909E-1,4.9333334E-1,-3.090909E-1,5.644444E-1,-4.1538462E-1,-6.2580645E-1,-0E0,-3.8358208E-2,-0E0,2.4285715E-2,-0E0,-0E0,3.3636365E-2,-2.4285715E-2,-0E0,-0E0,6.864865E-1,-3.0000001E-2,-0E0,-4.28E-2,7.7777775E-3,3.76E-1,-5.529412E-1,-2.4285715E-2,2.4285715E-2,2.4285715E-2,-2.4285715E-2,4.3333333E-2,5.3846156E-3,3.1904764E-2,-2.4285715E-2,-0E0,-3.615385E-2],"categories":[],"categories_nodes":[],"categories_segments":[],"categories_sizes":[],"default_left":[0,0,0,0,0,0,0,0,0,0,0,0,0,0,0,0,0,0,0,0,0,0,0,0,0,0,0,0,0,0,0,0,0,0,0,0,0,0,0,0,0,0,0,0,0,0,0],"id":14,"left_children":[1,3,5,7,9,11,-1,13,15,17,19,-1,-1,21,23,25,27,29,31,33,35,-1,37,-1,-1,-1,-1,-1,-1,39,41,-1,-1,-1,-1,43,45,-1,-1,-1,-1,-1,-1,-1,-1,-1,-1],"loss_changes":[4.6783075E0,4.84313E0,1.9774604E0,4.6425076E0,6.230111E0,1.0059385E0,0E0,4.603821E0,2.0994833E0,4.8685284E0,3.2616658E0,0E0,0E0,2.103054E0,3.002597E-1,6.637577E-1,3.002597E-1,1.5499339E0,4.984616E-1,3.1977658E0,4.3660235E0,0E0,1.6514285E0,0E0,0E0,0E0,0E0,0E0,0E0,1.6514285E0,1.4970064E0,0E0,0E0,0E0,0E0,3.3337522E0,7.9963803E-1,0E0,0E0,0E0,0E0,0E0,0E0,0E0,0E0,0E0,0E0],"parents":[2147483647,0,0,1,1,2,2,3,3,4,4,5,5,7,7,8,8,9,9,10,10,13,13,14,14,15,15,16,16,17,17,18,18,19,19,20,20,22,22,29,29,30,30,35,35,36,36],"right_children":[2,4,6,8,10,12,-1,14,16,18,20,-1,-1,22,24,26,28,30,32,34,36,-1,38,-1,-1,-1,-1,-1,-1,40,42,-1,-1,-1,-1,44,46,-1,-1,-1,-1,-1,-1,-1,-1,-1,-1],"split_conditions":[1.4708537E0,-5.362178E-1,2.92477E0,1.0104485E0,2.5863385E-1,5.3226674E-1,-4.7145993E-1,1.4990847E0,6.97025E-1,7.316877E-1,-7.916309E-2,9.546593E-1,-2.3463869E-1,8.616961E-1,-1.5708636E-1,-1.9778697E-1,3.9952967E-1,-1.2925694E0,-1.0605776E0,1.6893668E0,4.9649918E-1,-4.2662117E-1,5.724383E-1,1.9597805E-1,2.1583033E-1,2.6295042E-2,1.2190094E0,-4.6616384E-1,2.4670187E-1,-6.734411E-1,1.2623204E0,-4.279084E-1,-2.5977746E-1,-4.9866095E-1,9.486411E-1,1.3286889E0,-3.5582653E-1,-4.304498E-1,2.8652033E-1,4.9837485E-1,-1.8817295E-1,4.834682E-1,2.5743124E-1,6.532772E-1,-2.6192585E-1,-2.108151E-1,-4.0165472E-1],"split_indices":[23,16,25,15,16,1,0,18,19,6,17,0,0,12,0,1,1,6,1,16,23,0,6,0,0,0,0,0,0,9,1,0,0,0,0,1,12,0,0,0,0,0,0,0,0,0,0],"split_type":[0,0,0,0,0,0,0,0,0,0,0,0,0,0,0,0,0,0,0,0,0,0,0,0,0,0,0,0,0,0,0,0,0,0,0,0,0,0,0,0,0,0,0,0,0,0,0],"sum_hessian":[1.2E2,1.08E2,1.2E1,5E1,5.8E1,9E0,3E0,4E1,1E1,2.6E1,3.2E1,7E0,2E0,3.6E1,4E0,6E0,4E0,2.1E1,5E0,1.4E1,1.8E1,3.2E1,4E0,2E0,2E0,2E0,4E0,2E0,2E0,4E0,1.7E1,3E0,2E0,1.1E1,3E0,1.1E1,7E0,2E0,2E0,2E0,2E0,1.2E1,5E0,9E0,2E0,2E0,5E0],"tree_param":{"num_deleted":"0","num_feature":"26","num_nodes":"47","size_leaf_vector":"1"}},{"base_weights":[-1.3413654E-1,-6.666667E-2,-4.1428573E-2,1.7938145E-1,-2.4379562E-1,4.974359E-1,-2.2950819E-2,-3.4214875E-1,3.8947368E-1,6.666666E-2,4.1428573E-2,-3.3636365E-2,1.01886794E-1,-4.857143E-1,-7.234042E-2,3.615385E-2,-7.7777775E-3,3.0000001E-2,-2.2666666E-1,4.9565217E-1,-1.6363636E-1,-1.4594595E-1,-7.3023254E-1,3.2173914E-1,-4.2222223E-1,-3.0000001E-2,7.7777775E-3,4.0526316E-2,-2.4285715E-2,-3.3636365E-2,2.8E-3,-3.0000001E-2,1.2857142E-2,-4.025641E-2,-0E0,3.0000001E-2,-2.4285715E-2,-3.1904764E-2,7.7777775E-3],"categories":[],"categories_nodes":[],"categories_segments":[],"categories_sizes":[],"default_left":[0,0,0,0,0,0,0,0,0,0,0,0,0,0,0,0,0,0,0,0,0,0,0,0,0,0,0,0,0,0,0,0,0,0,0,0,0,0,0],"id":15,"left_children":[1,3,-1,5,7,9,11,13,15,17,-1,-1,19,21,23,-1,-1,-1,25,27,29,31,33,35,37,-1,-1,-1,-1,-1,-1,-1,-1,-1,-1,-1,-1,-1,-1],"loss_changes":[5.4818244E0,5.1186724E0,0E0,3.280575E0,4.4521446E0,2.43011E0,2.7481196E0,2.1233573E0,2.066298E0,1.9586668E0,0E0,0E0,2.9919415E0,2.7758484E0,3.4741228E0,0E0,0E0,0E0,1.3435556E0,4.2415495E0,2.0864727E0,3.720232E0,1.1758623E0,3.0552795E0,1.9774604E0,0E0,0E0,0E0,0E0,0E0,0E0,0E0,0E0,0E0,0E0,0E0,0E0,0E0,0E0],"parents":[2147483647,0,0,1,1,3,3,4,4,5,5,6,6,7,7,8,8,9,9,12,12,13,13,14,14,18,18,19,19,20,20,21,21,22,22,23,23,24,24],"right_children":[2,4,-1,6,8,10,12,14,16,18,-1,-1,20,22,24,-1,-1,-1,26,28,30,32,34,36,38,-1,-1,-1,-1,-1,-1,-1,-1,-1,-1,-1,-1,-1,-1],"split_conditions":[1.5210828E0,-3.226197E-1,-4.2966604E-1,-5.1463383E-1,6.7507476E-1,-7.818096E-1,-4.7237313E-1,1.8821031E-1,7.743464E-2,-1.2840326E0,1.1122376E0,-3.3725536E-1,-2.0859146E-2,-5.979107E-1,-6.77432E-1,3.9209175E-1,-2.1783495E-2,7.121261E-1,-3.9689252E-1,7.558246E-1,-1.9778697E-1,-5.717582E-1,2.5188732E0,9.968463E-1,1.3057173E0,-4.6697673E-1,1.2766552E-2,5.64276E-1,-2.9537365E-1,-5.463789E-1,1.7429924E-2,-4.3181905E-1,6.4854436E-2,-3.9709464E-1,2.8447184E-1,3.0636644E-2,-2.1347585E-1,-4.4371793E-1,9.263897E-3],"split_indices":[20,7,0,8,21,22,20,18,17,24,0,0,24,23,13,0,0,0,1,9,1,13,19,1,7,0,0,0,0,0,0,0,0,0,0,0,0,0,0],"split_type":[0,0,0,0,0,0,0,0,0,0,0,0,0,0,0,0,0,0,0,0,0,0,0,0,0,0,0,0,0,0,0,0,0,0,0,0,0,0,0],"sum_hessian":[1.23E2,1.14E2,9E0,4.7E1,6.7E1,1.8E1,2.9E1,5.9E1,8E0,9E0,9E0,4E0,2.5E1,3.7E1,2.2E1,5E0,3E0,3E0,6E0,1E1,1.5E1,1.7E1,2E1,1E1,1.2E1,3E0,3E0,8E0,2E0,4E0,1.1E1,8E0,9E0,1.8E1,2E0,8E0,2E0,9E0,3E0],"tree_param":{"num_deleted":"0","num_feature":"26","num_nodes":"39","size_leaf_vector":"1"}},{"base_weights":[-4.0343348E-2,2.6341463E-2,-4.967742E-1,4.2545456E-1,-1.1372549E-1,-6.96E-1,7.7777775E-3,6.372093E-1,-2.2666666E-1,-2.5128204E-1,2.923077E-1,-4.1428573E-2,-0E0,7.025641E-1,-0E0,-3.0000001E-2,7.7777775E-3,2.8484848E-1,-4.5287356E-1,-3.0000001E-2,5.272727E-1,7.828571E-1,-0E0,6.695652E-1,-4.1538462E-1,-0E0,-5.5492955E-1,4.2173915E-2,-1.0769231E-1,4.4193547E-2,-0E0,4.0526316E-2,-0E0,-0E0,-3.0000001E-2,3.0000001E-2,-2.0769231E-2,-3.972973E-2,-1.2702703E-2,2.4285715E-2,-3.0000001E-2],"categories":[],"categories_nodes":[],"categories_segments":[],"categories_sizes":[],"default_left":[0,0,0,0,0,0,0,0,0,0,0,0,0,0,0,0,0,0,0,0,0,0,0,0,0,0,0,0,0,0,0,0,0,0,0,0,0,0,0,0,0],"id":16,"left_children":[1,3,5,7,9,11,-1,13,15,17,19,-1,-1,21,-1,-1,-1,23,25,-1,27,29,-1,31,33,35,37,-1,39,-1,-1,-1,-1,-1,-1,-1,-1,-1,-1,-1,-1],"loss_changes":[3.7066696E0,5.8961077E0,2.3389277E0,4.137283E0,4.370588E0,1.1533713E0,0E0,8.9536095E-1,1.3435556E0,6.566551E0,4.5411186E0,0E0,0E0,1.1000147E0,0E0,0E0,0E0,4.938402E0,2.0105038E0,0E0,3.6698503E0,1.3838892E0,0E0,1.0854006E0,4.984616E-1,2.7415385E0,1.942481E0,0E0,2.3703296E0,0E0,0E0,0E0,0E0,0E0,0E0,0E0,0E0,0E0,0E0,0E0,0E0],"parents":[2147483647,0,0,1,1,2,2,3,3,4,4,5,5,7,7,8,8,9,9,10,10,13,13,17,17,18,18,20,20,21,21,23,23,24,24,25,25,26,26,28,28],"right_children":[2,4,6,8,10,12,-1,14,16,18,20,-1,-1,22,-1,-1,-1,24,26,-1,28,30,-1,32,34,36,38,-1,40,-1,-1,-1,-1,-1,-1,-1,-1,-1,-1,-1,-1],"split_conditions":[1.458704E0,-1.5708636E-1,2.718251E0,1.6434119E0,7.558246E-1,2.0601845E0,7.1255686E-3,1.9637282E0,1.15121454E-1,-1.0051502E0,-4.8439634E-1,-4.355702E-1,-2.1341518E-1,1.9543173E0,4.2002606E-1,-6.5892697E-3,3.6396703E-1,-6.734411E-1,-1.0286733E0,-4.5534354E-1,4.8497975E-1,1.8948557E0,2.728208E-1,3.8470817E-1,-1.1319382E0,1.0289156E0,-5.892079E-1,4.7331387E-1,-5.156912E-3,1.0354245E0,-1.750729E-1,6.64978E-2,-2.0279658E-1,-2.1198295E-1,-4.21532E-1,5.0727856E-1,-4.264036E-1,-3.8161507E-1,-3.6171725E-1,1.7573893E0,-4.2670566E-1],"split_indices":[22,0,5,17,10,23,0,15,13,24,22,0,0,16,0,0,0,11,7,0,13,20,0,19,7,0,16,0,20,0,0,0,0,0,0,0,0,0,0,0,0],"split_type":[0,0,0,0,0,0,0,0,0,0,0,0,0,0,0,0,0,0,0,0,0,0,0,0,0,0,0,0,0,0,0,0,0,0,0,0,0,0,0,0,0],"sum_hessian":[1.15E2,1.01E2,1.4E1,2.6E1,7.5E1,1.1E1,3E0,2E1,6E0,5.7E1,1.8E1,9E0,2E0,1.8E1,2E0,3E0,3E0,1.5E1,4.2E1,3E0,1.5E1,1.6E1,2E0,1E1,5E0,8E0,3.4E1,1E1,5E0,1.4E1,2E0,8E0,2E0,2E0,3E0,3E0,5E0,1.7E1,1.7E1,2E0,3E0],"tree_param":{"num_deleted":"0","num_feature":"26","num_nodes":"41","size_leaf_vector":"1"}},{"base_weights":[-1.1093117E-1,1.107438E-1,-3.2093024E-1,-0E0,3.9411765E-2,-4.9885058E-1,3.111111E-2,1.3103448E-1,-4.9565217E-1,-6.219178E-1,8.2352936E-2,3.257143E-1,-3.615385E-2,-5.074627E-2,6.695652E-1,-3.9411765E-2,7.7777775E-3,-2.8484848E-1,-8.2325584E-1,-3.0000001E-2,3.3636365E-2,5.5999998E-2,3.615385E-2,1.7209302E-1,-4.2222223E-1,-0E0,4.0526316E-2,-6.3809526E-1,2.2666666E-1,-0E0,-4.5384616E-2,3.8947368E-1,-3.0000001E-2,2.2E-2,-3.3636365E-2,-3.347826E-2,2.4285715E-2,-3.9411765E-2,-0E0,3.0000001E-2,-7.7777775E-3,-7.7777775E-3,3.615385E-2],"categories":[],"categories_nodes":[],"categories_segments":[],"categories_sizes":[],"default_left":[0,0,0,0,0,0,0,0,0,0,0,0,0,0,0,0,0,0,0,0,0,0,0,0,0,0,0,0,0,0,0,0,0,0,0,0,0,0,0,0,0,0,0],"id":17,"left_children":[1,3,5,7,-1,9,11,13,15,17,19,21,-1,23,25,-1,-1,27,29,-1,-1,31,-1,33,35,-1,-1,37,39,-1,-1,41,-1,-1,-1,-1,-1,-1,-1,-1,-1,-1,-1],"loss_changes":[5.865482E0,4.539193E0,4.2035804E0,3.572114E0,0E0,3.3501225E0,5.2332554E0,4.4950237E0,2.5648482E0,1.7928829E0,4.0514436E0,1.5810901E0,0E0,2.957142E0,1.0854006E0,0E0,0E0,3.3217835E0,1.4945259E0,0E0,0E0,3.0218525E0,0E0,5.240347E0,3.5746994E0,0E0,0E0,1.0059385E0,1.3435556E0,0E0,0E0,2.066298E0,0E0,0E0,0E0,0E0,0E0,0E0,0E0,0E0,0E0,0E0,0E0],"parents":[2147483647,0,0,1,1,2,2,3,3,5,5,6,6,7,7,8,8,9,9,10,10,11,11,13,13,14,14,17,17,18,18,21,21,23,23,24,24,27,27,28,28,31,31],"right_children":[2,4,6,8,-1,10,12,14,16,18,20,22,-1,24,26,-1,-1,28,30,-1,-1,32,-1,34,36,-1,-1,38,40,-1,-1,42,-1,-1,-1,-1,-1,-1,-1,-1,-1,-1,-1],"split_conditions":[-8.37671E-2,8.616961E-1,1.20595396E-1,7.735368E-1,4.842191E-2,3.061884E-1,1.7086685E0,2.7517283E-1,2.6085765E0,-6.799293E-1,-6.734411E-1,-4.3389242E-2,-3.436314E-1,-3.0289075E-1,-1.1305519E0,-3.6650214E-1,6.7692758E-3,-1.118878E0,-8.461461E-1,-3.6281577E-1,8.988083E-1,9.966352E-2,9.2454904E-1,8.1743E-1,8.1743E-1,-2.2458078E-3,5.5987406E-1,2.2149177E0,-3.5582653E-1,2.719294E-1,-3.935098E-1,-1.8045242E-1,-1.864791E-2,2.5905225E-1,-4.1695577E-1,-4.265481E-1,2.7403021E-2,-4.1180107E-1,-1.8640402E-1,3.4956607E-1,-4.578328E-2,-3.7583515E-1,4.6408454E-1],"split_indices":[19,12,12,20,0,25,12,20,8,21,12,13,0,8,6,0,0,22,20,0,0,16,0,18,18,0,0,0,8,0,0,23,0,0,0,0,0,0,0,0,0,0,0],"split_type":[0,0,0,0,0,0,0,0,0,0,0,0,0,0,0,0,0,0,0,0,0,0,0,0,0,0,0,0,0,0,0,0,0,0,0,0,0,0,0,0,0,0,0],"sum_hessian":[1.22E2,5.9E1,6.3E1,5.2E1,7E0,4.2E1,2.1E1,4.2E1,1E1,3.5E1,7E0,1.6E1,5E0,3.2E1,1E1,7E0,3E0,1.5E1,2E1,3E0,4E0,1.1E1,5E0,2E1,1.2E1,2E0,8E0,9E0,6E0,2E0,1.8E1,8E0,3E0,1.6E1,4E0,1E1,2E0,7E0,2E0,3E0,3E0,3E0,5E0],"tree_param":{"num_deleted":"0","num_feature":"26","num_nodes":"43","size_leaf_vector":"1"}},{"base_weights":[-7.102041E-2,3.0508474E-2,-3.2957748E-1,-1.0387597E-1,3.8039216E-1,1.2592593E-1,-5.829787E-1,-2.4190477E-1,4.2222223E-1,6E-1,-2.2666666E-1,-3.0000001E-2,4.4761905E-1,7.7777775E-3,-7.1707314E-1,-5.54717E-1,6.1818182E-2,4.0526316E-2,-3.090909E-1,4.3333333E-2,-0E0,2.4285715E-2,-3.3636365E-2,3.9411765E-2,-2.4285715E-2,-1.0769231E-1,-4.4193547E-2,-7.1707314E-1,-0E0,4.6206897E-1,-3.2413793E-1,-2.4285715E-2,-0E0,2.4285715E-2,-3.090909E-1,7.7777775E-3,-2.4285715E-2,-0E0,-3.972973E-2,-3.0000001E-2,3.0000001E-2,4.1428573E-2,-1.5454546E-2,-3.1904764E-2,1.5454546E-2,-0E0,-2.4285715E-2],"categories":[],"categories_nodes":[],"categories_segments":[],"categories_sizes":[],"default_left":[0,0,0,0,0,0,0,0,0,0,0,0,0,0,0,0,0,0,0,0,0,0,0,0,0,0,0,0,0,0,0,0,0,0,0,0,0,0,0,0,0,0,0,0,0,0,0],"id":18,"left_children":[1,3,5,7,9,11,13,15,17,19,21,-1,23,-1,25,27,29,-1,31,-1,33,-1,-1,-1,-1,35,-1,37,39,41,43,-1,-1,-1,45,-1,-1,-1,-1,-1,-1,-1,-1,-1,-1,-1,-1],"loss_changes":[3.3205516E0,4.3034E0,4.3448267E0,4.782888E0,3.7155297E0,3.5097356E0,2.6630554E0,5.1872406E0,4.3598404E0,3.1200004E0,2.9294717E0,0E0,4.0030813E0,0E0,1.6434412E0,2.3866358E0,4.5142193E0,0E0,3.002597E-1,0E0,1.3511688E0,0E0,0E0,0E0,0E0,8.592185E-1,0E0,1.1395645E0,3.24E0,4.638164E0,3.2772443E0,0E0,0E0,0E0,3.002597E-1,0E0,0E0,0E0,0E0,0E0,0E0,0E0,0E0,0E0,0E0,0E0,0E0],"parents":[2147483647,0,0,1,1,2,2,3,3,4,4,5,5,6,6,7,7,8,8,9,9,10,10,12,12,14,14,15,15,16,16,18,18,20,20,25,25,27,27,28,28,29,29,30,30,34,34],"right_children":[2,4,6,8,10,12,14,16,18,20,22,-1,24,-1,26,28,30,-1,32,-1,34,-1,-1,-1,-1,36,-1,38,40,42,44,-1,-1,-1,46,-1,-1,-1,-1,-1,-1,-1,-1,-1,-1,-1,-1],"split_conditions":[7.491642E-1,1.20595396E-1,-1.5708636E-1,5.3380364E-1,8.040714E-1,-7.6189625E-1,-1.0437973E0,-5.892079E-1,7.112413E-1,9.966352E-2,-6.734411E-1,-3.6672872E-1,1.1966357E0,6.937849E-1,-9.084416E-1,6.97025E-1,-6.734411E-1,3.281169E-1,-1.5708636E-1,4.7432157E-1,-1.5708636E-1,1.0358574E0,-4.3663812E-1,3.1777498E-1,-1.8752491E-1,1.355532E0,-3.8477638E-1,-9.942092E-1,-6.842711E-1,-3.0289075E-1,-1.2641054E-1,-1.8797505E-1,-1.7460907E-1,1.0467993E0,1.0289156E0,8.783216E-1,-3.4842378E-1,-1.7185462E-1,-3.7303087E-1,-3.2452735E-1,2.9982042E-1,6.45422E-2,-4.1943303E-1,-3.2644984E-1,4.728322E-2,4.9530175E-2,-2.1530819E-1],"split_indices":[13,10,0,25,25,6,25,16,20,16,8,0,25,0,20,19,11,0,0,0,0,0,0,0,0,7,0,1,14,10,25,0,0,0,0,0,0,0,0,0,0,0,0,0,0,0,0],"split_type":[0,0,0,0,0,0,0,0,0,0,0,0,0,0,0,0,0,0,0,0,0,0,0,0,0,0,0,0,0,0,0,0,0,0,0,0,0,0,0,0,0,0,0,0,0,0,0],"sum_hessian":[1.21E2,8.7E1,3.4E1,6.3E1,2.4E1,1.2E1,2.2E1,5.1E1,1.2E1,1.8E1,6E0,3E0,9E0,3E0,1.9E1,2.5E1,2.6E1,8E0,4E0,1.2E1,6E0,2E0,4E0,7E0,2E0,5E0,1.4E1,1.9E1,6E0,1.3E1,1.3E1,2E0,2E0,2E0,4E0,3E0,2E0,2E0,1.7E1,3E0,3E0,9E0,4E0,9E0,4E0,2E0,2E0],"tree_param":{"num_deleted":"0","num_feature":"26","num_nodes":"47","size_leaf_vector":"1"}},{"base_weights":[-1.8838175E-1,8.1318684E-2,-3.4901962E-1,2.4556962E-1,-3.8E-2,-4.2733812E-1,3.1764707E-1,-3.4146342E-2,5.219512E-1,-6.677966E-1,-2.3373494E-1,3.615385E-2,-2.4285715E-2,3.76E-1,-6E-1,6.864865E-1,-2.4285715E-2,-8.3111113E-1,-8.2352936E-2,4.1538462E-1,-3.479452E-1,-3.090909E-1,3.9411765E-2,-3.8E-2,-0E0,7.6969695E-1,-0E0,-4.5609757E-2,-0E0,-3.3636365E-2,3.0000001E-2,3.0000001E-2,-0E0,-6.484848E-1,-7.906976E-2,-2.4285715E-2,-0E0,-0E0,4.3793105E-2,-0E0,-3.6896553E-2,1.6086956E-2,-2.478261E-2],"categories":[],"categories_nodes":[],"categories_segments":[],"categories_sizes":[],"default_left":[0,0,0,0,0,0,0,0,0,0,0,0,0,0,0,0,0,0,0,0,0,0,0,0,0,0,0,0,0,0,0,0,0,0,0,0,0,0,0,0,0,0,0],"id":19,"left_children":[1,3,5,7,-1,9,11,13,15,17,19,-1,-1,21,23,25,-1,27,29,31,33,35,-1,-1,-1,37,-1,-1,-1,-1,-1,-1,-1,39,41,-1,-1,-1,-1,-1,-1,-1,-1],"loss_changes":[5.343438E0,6.4131465E0,4.2307663E0,3.2267551E0,0E0,2.7308788E0,3.366529E0,5.1632977E0,3.9592142E0,2.4438314E0,3.2732136E0,0E0,0E0,4.039431E0,9.120002E-1,1.0567732E0,0E0,1.5162706E0,4.0514436E0,4.984616E-1,2.6543026E0,3.002597E-1,0E0,0E0,0E0,1.3482962E0,0E0,0E0,0E0,0E0,0E0,0E0,0E0,9.5707417E-1,3.8812337E0,0E0,0E0,0E0,0E0,0E0,0E0,0E0,0E0],"parents":[2147483647,0,0,1,1,2,2,3,3,5,5,6,6,7,7,8,8,9,9,10,10,13,13,14,14,15,15,17,17,18,18,19,19,20,20,21,21,25,25,33,33,34,34],"right_children":[2,4,6,8,-1,10,12,14,16,18,20,-1,-1,22,24,26,-1,28,30,32,34,36,-1,-1,-1,38,-1,-1,-1,-1,-1,-1,-1,40,42,-1,-1,-1,-1,-1,-1,-1,-1],"split_conditions":[-4.8248056E-1,1.5210828E0,9.146319E-1,-3.525635E-2,-3.8944086E-1,-5.930681E-2,1.6196258E0,-6.5971893E-1,2.6085765E0,2.2646692E-1,-1.3463248E0,2.9942283E-1,-3.6864668E-1,-1.2185626E0,6.7687094E-2,1.6989282E0,-9.6517466E-2,2.2149177E0,1.20595396E-1,1.0289156E0,-4.8439634E-1,-1.9778697E-1,6.590957E-1,-4.70754E-1,-4.7209262E-4,-9.084416E-1,2.2903286E-1,-3.5437936E-1,-1.6844575E-1,-1.7893705E-1,4.2422065E-1,4.9766445E-1,-1.8061438E-1,-1.5708636E-1,-5.1463383E-1,-6.108216E-1,2.1848385E-1,2.7859598E-1,3.2399923E-1,3.2384858E-1,-4.1233087E-1,4.934118E-2,-2.2455527E-2],"split_indices":[7,20,9,25,0,16,24,25,11,10,21,0,0,7,1,15,0,0,12,0,22,1,0,0,0,20,0,0,0,0,0,0,0,0,10,0,0,0,0,0,0,0,0],"split_type":[0,0,0,0,0,0,0,0,0,0,0,0,0,0,0,0,0,0,0,0,0,0,0,0,0,0,0,0,0,0,0,0,0,0,0,0,0,0,0,0,0,0,0],"sum_hessian":[1.19E2,4.4E1,7.5E1,3.8E1,6E0,6.8E1,7E0,1.9E1,1.9E1,2.8E1,4E1,5E0,2E0,1.1E1,8E0,1.7E1,2E0,2.1E1,7E0,5E0,3.5E1,4E0,7E0,6E0,2E0,1.5E1,2E0,1.9E1,2E0,4E0,3E0,3E0,2E0,1.5E1,2E1,2E0,2E0,2E0,1.3E1,2E0,1.3E1,1E1,1E1],"tree_param":{"num_deleted":"0","num_feature":"26","num_nodes":"43","size_leaf_vector":"1"}},{"base_weights":[-9.4736844E-2,-2.4884792E-2,-5.272727E-1,6.0962565E-2,-5.272727E-1,-4.0526316E-2,-8.2352936E-2,-1.7938145E-1,3.1612903E-1,7.7777775E-3,-7.185185E-1,-3.0000001E-2,3.090909E-1,-0E0,-6.96E-1,1.3623188E-1,7.185185E-1,-0E0,-4.2173915E-2,2.4285715E-2,-0E0,-4.4761905E-1,1.6491228E-1,-4.1428573E-2,-0E0,2.4444444E-1,-3.0000001E-2,4.2173915E-2,-0E0,-0E0,-2.7647061E-2,2.6800001E-2,-4.857143E-3,1.4285714E-3,3.9411765E-2],"categories":[],"categories_nodes":[],"categories_segments":[],"categories_sizes":[],"default_left":[0,0,0,0,0,0,0,0,0,0,0,0,0,0,0,0,0,0,0,0,0,0,0,0,0,0,0,0,0,0,0,0,0,0,0],"id":20,"left_children":[1,3,5,7,9,-1,11,13,15,-1,17,-1,19,21,23,25,27,-1,-1,-1,-1,29,31,-1,-1,33,-1,-1,-1,-1,-1,-1,-1,-1,-1],"loss_changes":[3.5460403E0,4.8675704E0,1.7114272E0,5.8602285E0,2.4912457E0,0E0,2.0878074E0,4.494581E0,2.9628224E0,0E0,1.2121096E0,0E0,3.002597E-1,2.8788972E0,1.1533713E0,2.8619325E0,1.2121096E0,0E0,0E0,0E0,0E0,4.9501395E-1,2.981255E0,0E0,0E0,3.4189544E0,0E0,0E0,0E0,0E0,0E0,0E0,0E0,0E0,0E0],"parents":[2147483647,0,0,1,1,2,2,3,3,4,4,6,6,7,7,8,8,10,10,12,12,13,13,14,14,15,15,16,16,21,21,22,22,25,25],"right_children":[2,4,6,8,10,-1,12,14,16,-1,18,-1,20,22,24,26,28,-1,-1,-1,-1,30,32,-1,-1,34,-1,-1,-1,-1,-1,-1,-1,-1,-1],"split_conditions":[1.4118102E0,1.3992213E0,-6.77432E-1,-5.930681E-2,-6.734411E-1,-3.3514786E-1,-7.05554E-1,1.15121454E-1,7.4564856E-1,2.2893907E-3,1.0227188E0,-4.0975854E-1,-9.2784065E-1,-5.835341E-1,8.616961E-1,6.681445E-1,1.0004953E0,-1.6458778E-1,-3.4026855E-1,3.4716272E-1,4.2387304E-1,-1.5251573E0,7.7569954E-2,-3.5008022E-1,-4.569545E-2,4.9114576E-1,-3.0900455E-1,3.5533014E-1,2.6084304E-1,-1.6002348E-1,-3.3480245E-1,2.8485307E-1,-1.6859768E-1,3.0450823E-4,6.1112994E-1],"split_indices":[6,22,13,16,9,0,17,13,14,0,20,0,1,22,9,24,16,0,0,0,0,1,24,0,0,9,0,0,0,0,0,0,0,0,0],"split_type":[0,0,0,0,0,0,0,0,0,0,0,0,0,0,0,0,0,0,0,0,0,0,0,0,0,0,0,0,0,0,0,0,0,0,0],"sum_hessian":[1.22E2,1.07E2,1.5E1,9.2E1,1.5E1,8E0,7E0,4.7E1,4.5E1,3E0,1.2E1,3E0,4E0,3.6E1,1.1E1,3.3E1,1.2E1,2E0,1E1,2E0,2E0,9E0,2.7E1,9E0,2E0,3E1,3E0,1E1,2E0,2E0,7E0,1.1E1,1.6E1,2.3E1,7E0],"tree_param":{"num_deleted":"0","num_feature":"26","num_nodes":"35","size_leaf_vector":"1"}},{"base_weights":[-1.0901287E-1,8.623853E-2,-2.7874017E-1,-5.8064517E-2,4.0526316E-2,1.7209302E-1,-4.9885058E-1,3.3636365E-2,-1.5764706E-1,6.2580645E-1,-3.8E-2,-0E0,-6.4776117E-1,-2.931507E-1,4.9333334E-1,4.1428573E-2,1.0769231E-1,3.3636365E-2,-4.9333334E-1,-8.3111113E-1,-2.16E-1,2.5714284E-1,-4.9818182E-1,3.3636365E-2,-0E0,3.0000001E-2,-2.4285715E-2,-3.3636365E-2,-0E0,-4.5609757E-2,-0E0,-4.4761905E-1,2.4285715E-2,-1.5454546E-2,3.615385E-2,-3.0784314E-2,2.4285715E-2,7.7777775E-3,-3.8E-2],"categories":[],"categories_nodes":[],"categories_segments":[],"categories_sizes":[],"default_left":[0,0,0,0,0,0,0,0,0,0,0,0,0,0,0,0,0,0,0,0,0,0,0,0,0,0,0,0,0,0,0,0,0,0,0,0,0,0,0],"id":21,"left_children":[1,3,5,7,-1,9,11,-1,13,15,-1,17,19,21,23,-1,25,-1,27,29,31,33,35,-1,-1,-1,-1,-1,-1,-1,-1,37,-1,-1,-1,-1,-1,-1,-1],"loss_changes":[3.9545588E0,5.9925056E0,6.5281014E0,3.388552E0,0E0,9.765578E0,3.2313604E0,0E0,3.9058104E0,1.2136335E0,0E0,4.314424E0,2.0685587E0,4.3826647E0,6.637577E-1,0E0,2.3703296E0,0E0,6.637577E-1,1.5162706E0,2.346324E0,3.2296305E0,3.6668983E0,0E0,0E0,0E0,0E0,0E0,0E0,0E0,0E0,2.3370798E0,0E0,0E0,0E0,0E0,0E0,0E0,0E0],"parents":[2147483647,0,0,1,1,2,2,3,3,5,5,6,6,8,8,9,9,11,11,12,12,13,13,14,14,16,16,18,18,19,19,20,20,21,21,22,22,31,31],"right_children":[2,4,6,8,-1,10,12,-1,14,16,-1,18,20,22,24,-1,26,-1,28,30,32,34,36,-1,-1,-1,-1,-1,-1,-1,-1,38,-1,-1,-1,-1,-1,-1,-1],"split_conditions":[-8.37671E-2,-6.042952E-1,-1.5708636E-1,-8.0398166E-1,1.6462652E-1,1.1612906E0,-4.8248056E-1,6.0954773E-1,8.616961E-1,1.20595396E-1,-3.2952082E-1,6.97025E-1,2.0564373E-1,-1.0286733E0,1.20595396E-1,2.7395773E-1,8.0113065E-1,4.2316958E-1,1.20595396E-1,8.1743E-1,1.1943408E-1,1.20595396E-1,1.3126998E0,1.414285E-1,-9.3125604E-2,7.843227E-1,-5.125868E-1,-3.278956E-1,1.1055815E-1,-3.366335E-1,-1.8017149E-2,7.2391324E-2,5.971479E-1,-3.5371408E-1,2.8797102E-1,-3.5190132E-1,4.840649E-1,8.1417197E-1,-3.4233984E-1],"split_indices":[19,19,0,23,0,22,7,0,12,9,0,19,16,7,8,0,19,0,9,18,20,11,23,0,0,0,0,0,0,0,0,19,0,0,0,0,0,0,0],"split_type":[0,0,0,0,0,0,0,0,0,0,0,0,0,0,0,0,0,0,0,0,0,0,0,0,0,0,0,0,0,0,0,0,0,0,0,0,0,0,0],"sum_hessian":[1.15E2,5.3E1,6.2E1,4.5E1,8E0,2E1,4.2E1,4E0,4.1E1,1.4E1,6E0,1E1,3.2E1,3.5E1,6E0,9E0,5E0,4E0,6E0,2.1E1,1.1E1,9E0,2.6E1,4E0,2E0,3E0,2E0,4E0,2E0,1.9E1,2E0,9E0,2E0,4E0,5E0,2.4E1,2E0,3E0,6E0],"tree_param":{"num_deleted":"0","num_feature":"26","num_nodes":"39","size_leaf_vector":"1"}},{"base_weights":[-7.729083E-2,1.2941177E-1,-2.6222223E-1,1.3333333E-2,3.9411765E-2,-3.5495496E-1,1.2592593E-1,2.676923E-1,-3.5813954E-1,-4.2424243E-2,-4.617284E-1,-3.3636365E-2,6E-1,4.1428573E-2,-0E0,-4.0526316E-2,-0E0,3.615385E-2,-4.9565217E-1,-2.8E-1,-7.37931E-1,3.8E-2,-0E0,3.257143E-1,-3.8E-2,2.5714284E-1,-3.0000001E-2,-0E0,-3.8E-2,-3.8039216E-1,2.4285715E-2,-4.28E-2,-0E0,2.483871E-2,-2.4285715E-2,-1.5454546E-2,3.615385E-2,2.4285715E-2,-2.4285715E-2,-2.8E-3,-3.0000001E-2],"categories":[],"categories_nodes":[],"categories_segments":[],"categories_sizes":[],"default_left":[0,0,0,0,0,0,0,0,0,0,0,0,0,0,0,0,0,0,0,0,0,0,0,0,0,0,0,0,0,0,0,0,0,0,0,0,0,0,0,0,0],"id":22,"left_children":[1,3,5,7,-1,9,11,13,15,17,19,-1,21,-1,23,-1,25,-1,27,29,31,-1,-1,33,-1,35,-1,37,-1,39,-1,-1,-1,-1,-1,-1,-1,-1,-1,-1,-1],"loss_changes":[4.888083E0,4.2940392E0,2.565353E0,5.0772643E0,0E0,1.6714063E0,5.695017E0,4.879648E0,3.4833782E0,6.193982E0,1.4175415E0,0E0,9.120002E-1,0E0,6.188572E0,0E0,2.3142858E0,0E0,1.5067828E0,2.359518E0,1.2633376E0,0E0,0E0,2.794304E0,0E0,3.2296305E0,0E0,1.6514285E0,0E0,1.5693963E0,0E0,0E0,0E0,0E0,0E0,0E0,0E0,0E0,0E0,0E0,0E0],"parents":[2147483647,0,0,1,1,2,2,3,3,5,5,6,6,7,7,8,8,9,9,10,10,12,12,14,14,16,16,18,18,19,19,20,20,23,23,25,25,27,27,29,29],"right_children":[2,4,6,8,-1,10,12,14,16,18,20,-1,22,-1,24,-1,26,-1,28,30,32,-1,-1,34,-1,36,-1,38,-1,40,-1,-1,-1,-1,-1,-1,-1,-1,-1,-1,-1],"split_conditions":[-8.37671E-2,8.616961E-1,8.616961E-1,-2.3303299E-1,5.142641E-2,-1.5708636E-1,-3.5582653E-1,-6.12447E-1,7.558246E-1,-6.734411E-1,2.3403236E-1,-4.1344616E-1,9.146319E-1,3.768632E-1,-6.734411E-1,-3.5361624E-1,1.7086685E0,7.451065E-1,-1.1305519E0,7.743464E-2,8.616961E-1,5.2306694E-1,3.7991863E-1,8.1743E-1,-3.6044857E-1,4.9649918E-1,-1.4753428E-1,-7.0318425E-1,-3.277473E-1,-6.842711E-1,6.39301E-1,-3.345805E-1,-2.3940726E-1,8.774724E-2,-3.994782E-1,-1.8603438E-1,2.7357244E-1,5.912265E-1,-7.5127124E-3,-3.6035087E-2,-3.481275E-1],"split_indices":[19,12,10,23,0,0,12,6,11,8,17,0,8,0,8,0,11,0,6,17,8,0,0,18,0,23,0,18,0,14,0,0,0,0,0,0,0,0,0,0,0],"split_type":[0,0,0,0,0,0,0,0,0,0,0,0,0,0,0,0,0,0,0,0,0,0,0,0,0,0,0,0,0,0,0,0,0,0,0,0,0,0,0,0,0],"sum_hessian":[1.24E2,5.8E1,6.6E1,5.1E1,7E0,5.4E1,1.2E1,3.1E1,2E1,1.5E1,3.9E1,4E0,8E0,9E0,2.2E1,8E0,1.2E1,5E0,1E1,2.6E1,1.3E1,6E0,2E0,1.6E1,6E0,9E0,3E0,4E0,6E0,2.4E1,2E0,1.1E1,2E0,1.4E1,2E0,4E0,5E0,2E0,2E0,1.1E1,1.3E1],"tree_param":{"num_deleted":"0","num_feature":"26","num_nodes":"41","size_leaf_vector":"1"}},{"base_weights":[-3.715415E-2,-2.60177E-1,1.3566433E-1,2.3870967E-1,-4.4E-1,2.091603E-1,-4.9333334E-1,4.9565217E-1,-3.090909E-1,-6.4363635E-1,-4.2424243E-2,4.819672E-1,-1.9178081E-2,-0E0,-3.3636365E-2,3.9411765E-2,-7.7777775E-3,-0E0,-2.4285715E-2,-1.7894737E-1,-8.051282E-1,3.3636365E-2,-3.76E-1,7.3023254E-1,-6.666666E-2,-4.060606E-1,2.6511627E-1,3.090909E-1,-3.3636365E-2,-4.485714E-2,-0E0,-6E-1,7.7777775E-3,4.4193547E-2,2.2666666E-1,-3.615385E-2,3.3636365E-2,-6E-1,2.4285715E-2,6E-1,-3.1764707E-1,2.4285715E-2,-0E0,-0E0,-3.8E-2,-2.4285715E-2,3.3636365E-2,-0E0,-4.1428573E-2,-7.7777775E-3,4.2173915E-2,-3.615385E-2,2.4285715E-2],"categories":[],"categories_nodes":[],"categories_segments":[],"categories_sizes":[],"default_left":[0,0,0,0,0,0,0,0,0,0,0,0,0,0,0,0,0,0,0,0,0,0,0,0,0,0,0,0,0,0,0,0,0,0,0,0,0,0,0,0,0,0,0,0,0,0,0,0,0,0,0,0,0],"id":23,"left_children":[1,3,5,7,9,11,13,15,17,19,21,23,25,-1,-1,-1,-1,-1,-1,27,29,-1,31,33,35,37,39,41,-1,-1,-1,43,-1,-1,45,-1,-1,47,-1,49,51,-1,-1,-1,-1,-1,-1,-1,-1,-1,-1,-1,-1],"loss_changes":[4.9659214E0,5.2866235E0,3.3748853E0,2.4674463E0,3.1940613E0,4.2328467E0,6.637577E-1,2.5648482E0,3.002597E-1,1.5523605E0,4.226594E0,4.4264E0,4.218344E0,0E0,0E0,0E0,0E0,0E0,0E0,2.710335E0,1.4446297E0,0E0,1.761689E0,1.0297146E0,5.8408856E0,3.3251083E0,4.5664845E0,3.002597E-1,0E0,0E0,0E0,9.120002E-1,0E0,0E0,2.9294717E0,0E0,0E0,1.9885712E0,0E0,3.0706272E0,3.366529E0,0E0,0E0,0E0,0E0,0E0,0E0,0E0,0E0,0E0,0E0,0E0,0E0],"parents":[2147483647,0,0,1,1,2,2,3,3,4,4,5,5,6,6,7,7,8,8,9,9,10,10,11,11,12,12,19,19,20,20,22,22,23,23,24,24,25,25,26,26,27,27,31,31,34,34,37,37,39,39,40,40],"right_children":[2,4,6,8,10,12,14,16,18,20,22,24,26,-1,-1,-1,-1,-1,-1,28,30,-1,32,34,36,38,40,42,-1,-1,-1,44,-1,-1,46,-1,-1,48,-1,50,52,-1,-1,-1,-1,-1,-1,-1,-1,-1,-1,-1,-1],"split_conditions":[-3.2425734E-1,-1.0286733E0,1.6688404E0,2.794027E-1,2.2646692E-1,-8.37671E-2,-4.8248056E-1,8.515685E-1,-1.5708636E-1,-6.135766E-1,-1.6902614E-1,8.41525E-1,-6.77432E-1,5.3307988E-2,-2.9392797E-1,2.824889E-1,-3.359203E-1,-1.56605E-2,-4.7342393E-1,-6.734411E-1,8.616961E-1,2.7744532E-2,8.515685E-1,1.10128716E-1,4.808486E-1,1.2752484E0,1.10128716E-1,1.0289156E0,-2.932039E-1,-3.1274873E-1,1.9310938E-1,-1.5708636E-1,5.1091826E-1,1.5708624E-1,-5.1300466E-1,-3.3164248E-1,2.4919128E-1,-6.135766E-1,1.0213095E0,7.2391324E-2,1.3057173E0,3.7475276E-1,-1.5233564E-1,9.126253E-1,-1.11852646E-1,-4.1503054E-1,2.6300645E-2,-1.0743816E-1,-3.576967E-1,-8.6956315E-2,5.796434E-1,-4.2405158E-1,4.0094048E-1],"split_indices":[16,7,24,9,8,19,7,14,0,3,21,16,13,0,0,0,0,0,0,8,10,0,14,15,14,14,14,0,0,0,0,0,0,0,24,0,0,3,0,19,7,0,0,0,0,0,0,0,0,0,0,0,0],"split_type":[0,0,0,0,0,0,0,0,0,0,0,0,0,0,0,0,0,0,0,0,0,0,0,0,0,0,0,0,0,0,0,0,0,0,0,0,0,0,0,0,0,0,0,0,0,0,0,0,0,0,0,0,0],"sum_hessian":[1.25E2,5.5E1,7E1,1.4E1,4.1E1,6.4E1,6E0,1E1,4E0,2.6E1,1.5E1,2.9E1,3.5E1,2E0,4E0,7E0,3E0,2E0,2E0,8E0,1.8E1,4E0,1.1E1,2E1,9E0,1.5E1,2E1,4E0,4E0,1.6E1,2E0,8E0,3E0,1.4E1,6E0,5E0,4E0,1.3E1,2E0,1.3E1,7E0,2E0,2E0,2E0,6E0,2E0,4E0,4E0,9E0,3E0,1E1,5E0,2E0],"tree_param":{"num_deleted":"0","num_feature":"26","num_nodes":"53","size_leaf_vector":"1"}},{"base_weights":[-1.5951417E-1,1.7014925E-1,-2.808743E-1,7.185185E-1,-1.7209302E-1,-1.5620437E-1,-6E-1,4.2173915E-2,-0E0,3.2173914E-1,-6.695652E-1,-4.0526316E-2,-4.46281E-2,-1.7894737E-1,-7.6969695E-1,3.615385E-2,-1.0769231E-1,-4.0526316E-2,-0E0,1.373494E-1,-4.2439026E-1,2.4285715E-2,-4.9333334E-1,-4.3793105E-2,-0E0,-3.0000001E-2,2.4285715E-2,2.5866666E-1,-3.3636365E-2,-5.783784E-1,2.4285715E-2,-3.3636365E-2,-0E0,2.7209302E-2,-4.857143E-3,-3.242424E-2,-0E0],"categories":[],"categories_nodes":[],"categories_segments":[],"categories_sizes":[],"default_left":[0,0,0,0,0,0,0,0,0,0,0,0,0,0,0,0,0,0,0,0,0,0,0,0,0,0,0,0,0,0,0,0,0,0,0,0,0],"id":24,"left_children":[1,3,5,7,9,11,13,-1,-1,15,17,-1,19,21,23,-1,25,-1,-1,27,29,-1,31,-1,-1,-1,-1,33,-1,35,-1,-1,-1,-1,-1,-1,-1],"loss_changes":[5.045891E0,6.6365223E0,3.2729168E0,1.2121096E0,5.7093425E0,4.6901617E0,1.2593622E0,0E0,0E0,2.2834115E0,1.0854006E0,0E0,4.354591E0,2.346837E0,1.3482962E0,0E0,2.3703296E0,0E0,0E0,4.2152658E0,3.3221676E0,0E0,6.637577E-1,0E0,0E0,0E0,0E0,4.023053E0,0E0,7.5013924E-1,0E0,0E0,0E0,0E0,0E0,0E0,0E0],"parents":[2147483647,0,0,1,1,2,2,3,3,4,4,5,5,6,6,9,9,10,10,12,12,13,13,14,14,16,16,19,19,20,20,22,22,27,27,29,29],"right_children":[2,4,6,8,10,12,14,-1,-1,16,18,-1,20,22,24,-1,26,-1,-1,28,30,-1,32,-1,-1,-1,-1,34,-1,36,-1,-1,-1,-1,-1,-1,-1],"split_conditions":[-1.5708636E-1,6.489458E-1,4.8497975E-1,8.616961E-1,8.040714E-1,-1.1576236E0,-6.12447E-1,8.1738394E-1,-1.0004506E-1,1.15121454E-1,2.6085765E0,-3.5347044E-1,-9.518469E-2,-7.05554E-1,1.7002285E0,9.2245847E-1,2.718251E0,-3.1058797E-1,-2.707727E-2,3.1966385E-1,1.5498611E0,2.3687912E-2,-1.1305519E0,-3.15199E-1,3.779356E-1,-3.3091494E-1,9.359904E-2,-8.37671E-2,-3.4257752E-1,1.3857144E0,9.254574E-1,-2.1114846E-1,1.7142677E-1,7.3202945E-2,-1.725092E-2,-3.375724E-1,1.7906275E-1],"split_indices":[0,20,13,8,25,20,6,0,0,13,9,0,25,17,13,0,5,0,0,21,10,0,6,0,0,0,0,19,0,7,0,0,0,0,0,0,0],"split_type":[0,0,0,0,0,0,0,0,0,0,0,0,0,0,0,0,0,0,0,0,0,0,0,0,0,0,0,0,0,0,0,0,0,0,0,0,0],"sum_hessian":[1.22E2,3.2E1,9E1,1.2E1,2E1,6.7E1,2.3E1,1E1,2E0,1E1,1E1,8E0,5.9E1,8E0,1.5E1,5E0,5E0,8E0,2E0,4E1,1.9E1,2E0,6E0,1.3E1,2E0,3E0,2E0,3.6E1,4E0,1.7E1,2E0,4E0,2E0,2E1,1.6E1,1.5E1,2E0],"tree_param":{"num_deleted":"0","num_feature":"26","num_nodes":"37","size_leaf_vector":"1"}},{"base_weights":[-5.4693878E-2,-1.4066985E-1,3.948718E-1,-6.943005E-2,-4.0526316E-2,5.542857E-1,-2.4285715E-2,-1.8362573E-1,6.96E-1,-0E0,4.2173915E-2,2.923077E-1,-3.214815E-1,-0E0,4.1428573E-2,3.0000001E-2,-3.0000001E-2,-1.4782609E-1,4.0526316E-2,-5.505155E-1,2.292683E-1,-3.3636365E-2,1.1333333E-2,7.7777775E-3,-3.0439561E-2,-1.5882354E-2,2.8518518E-2],"categories":[],"categories_nodes":[],"categories_segments":[],"categories_sizes":[],"default_left":[0,0,0,0,0,0,0,0,0,0,0,0,0,0,0,0,0,0,0,0,0,0,0,0,0,0,0],"id":25,"left_children":[1,3,5,7,-1,9,-1,11,13,15,-1,17,19,-1,-1,-1,-1,21,-1,23,25,-1,-1,-1,-1,-1,-1],"loss_changes":[4.7419105E0,4.638387E0,3.1617725E0,8.472942E0,0E0,2.8051677E0,0E0,5.7593775E0,1.1533713E0,3.24E0,0E0,4.826203E0,8.800177E0,0E0,0E0,0E0,0E0,2.6231198E0,0E0,2.2736416E0,4.171938E0,0E0,0E0,0E0,0E0,0E0,0E0],"parents":[2147483647,0,0,1,1,2,2,3,3,5,5,7,7,8,8,9,9,11,11,12,12,17,17,19,19,20,20],"right_children":[2,4,6,8,-1,10,-1,12,14,16,-1,18,20,-1,-1,-1,-1,22,-1,24,26,-1,-1,-1,-1,-1,-1],"split_conditions":[9.747349E-1,1.5210828E0,1.6524547E0,1.2081912E0,-3.0619788E-1,-4.7237313E-1,-2.0690791E-1,-9.559356E-1,6.845494E-1,-8.461461E-1,2.7628943E-1,-7.0318425E-1,2.2646692E-1,-2.2029543E-2,1.8105344E-1,6.724119E-3,-3.1831123E-2,-6.734411E-1,1.04616694E-1,-1.2775158E0,-4.6326104E-1,-3.0457917E-1,3.15332E-1,6.4108324E-1,-2.672701E-1,-3.29955E-1,4.6919867E-1],"split_indices":[18,20,21,21,0,20,0,24,24,20,0,18,11,0,0,0,0,10,0,23,1,0,0,0,0,0,0],"split_type":[0,0,0,0,0,0,0,0,0,0,0,0,0,0,0,0,0,0,0,0,0,0,0,0,0,0,0],"sum_hessian":[1.21E2,1.03E2,1.8E1,9.5E1,8E0,1.6E1,2E0,8.4E1,1.1E1,6E0,1E1,1.8E1,6.6E1,2E0,9E0,3E0,3E0,1E1,8E0,4.7E1,1.9E1,4E0,6E0,3E0,4.4E1,7E0,1.2E1],"tree_param":{"num_deleted":"0","num_feature":"26","num_nodes":"27","size_leaf_vector":"1"}},{"base_weights":[-6.666667E-2,-1.4626865E-1,4.060606E-1,8.5057475E-2,-3.1965813E-1,3.9411765E-2,-0E0,-4.5333333E-2,3.8E-2,-5.1384616E-1,-6.1818182E-2,-3.0000001E-2,4.1538462E-1,2.9777777E-1,-5.272727E-1,-6.561403E-1,3.090909E-1,4.9333334E-1,-2.6511627E-1,3.0000001E-2,-0E0,-2.2666666E-1,5.272727E-1,-4.1428573E-2,-0E0,-1.4782609E-1,-4.5135137E-2,2.4285715E-2,-0E0,-0E0,3.3636365E-2,-5.272727E-1,4.1538462E-1,2.4285715E-2,-3.3636365E-2,3.48E-2,-0E0,-1.5454546E-2,2.4285715E-2,-2.7647061E-2,3.0000001E-2,7.7777775E-3,-3.5925925E-2,3.0000001E-2,-0E0],"categories":[],"categories_nodes":[],"categories_segments":[],"categories_sizes":[],"default_left":[0,0,0,0,0,0,0,0,0,0,0,0,0,0,0,0,0,0,0,0,0,0,0,0,0,0,0,0,0,0,0,0,0,0,0,0,0,0,0,0,0,0,0,0,0],"id":26,"left_children":[1,3,5,7,9,-1,11,13,-1,15,17,-1,19,21,23,25,27,29,31,-1,-1,33,35,-1,37,39,-1,-1,-1,-1,-1,41,43,-1,-1,-1,-1,-1,-1,-1,-1,-1,-1,-1,-1],"loss_changes":[4.357422E0,4.14217E0,2.5605705E0,4.0943546E0,2.7087154E0,0E0,2.7415385E0,6.5053167E0,0E0,4.2140484E0,3.2314053E0,0E0,4.984616E-1,2.9774952E0,2.6212988E0,3.0566158E0,3.002597E-1,6.637577E-1,4.197648E0,0E0,0E0,2.9294717E0,1.4679275E0,0E0,1.3511688E0,3.967519E0,0E0,0E0,0E0,0E0,0E0,2.4912457E0,4.984616E-1,0E0,0E0,0E0,0E0,0E0,0E0,0E0,0E0,0E0,0E0,0E0,0E0],"parents":[2147483647,0,0,1,1,2,2,3,3,4,4,6,6,7,7,9,9,10,10,12,12,13,13,14,14,15,15,16,16,17,17,18,18,21,21,22,22,24,24,25,25,31,31,32,32],"right_children":[2,4,6,8,10,-1,12,14,-1,16,18,-1,20,22,24,26,28,30,32,-1,-1,34,36,-1,38,40,-1,-1,-1,-1,-1,42,44,-1,-1,-1,-1,-1,-1,-1,-1,-1,-1,-1,-1],"split_conditions":[1.5303965E0,-6.842711E-1,1.20595396E-1,8.616961E-1,3.4105396E-1,5.933256E-1,-7.6189625E-1,1.7635417E-1,1.702361E-1,1.9733473E0,-1.0228513E0,-1.1694813E-1,1.4614259E0,-7.527029E-1,-9.114768E-2,-9.1027355E-1,-1.5708636E-1,-6.734411E-1,9.045285E-1,2.0687743E-1,-1.1630881E-1,-6.734411E-1,7.735368E-1,-3.0883688E-1,1.0289156E0,1.3405561E-1,-2.782369E-1,5.6025285E-1,8.7839365E-3,1.8302341E-1,3.7510282E-1,-9.2312586E-1,1.3950574E0,7.801964E-2,-3.866048E-1,4.3322515E-1,-1.74536E-2,-2.955737E-1,4.305589E-1,-2.902314E-1,4.4351617E-1,6.090291E-1,-3.0950055E-1,1.720008E-1,9.208755E-1],"split_indices":[16,15,9,12,7,0,6,7,0,11,6,0,1,20,12,7,0,8,15,0,0,12,20,0,0,1,0,0,0,0,0,24,1,0,0,0,0,0,0,0,0,0,0,0,0],"split_type":[0,0,0,0,0,0,0,0,0,0,0,0,0,0,0,0,0,0,0,0,0,0,0,0,0,0,0,0,0,0,0,0,0,0,0,0,0,0,0,0,0,0,0,0,0],"sum_hessian":[1.14E2,9.9E1,1.5E1,4.2E1,5.7E1,7E0,8E0,3.6E1,6E0,3.1E1,2.6E1,3E0,5E0,2.1E1,1.5E1,2.7E1,4E0,6E0,2E1,3E0,2E0,6E0,1.5E1,9E0,6E0,1E1,1.7E1,2E0,2E0,2E0,4E0,1.5E1,5E0,2E0,4E0,1.1E1,4E0,4E0,2E0,7E0,3E0,3E0,1.2E1,3E0,2E0],"tree_param":{"num_deleted":"0","num_feature":"26","num_nodes":"45","size_leaf_vector":"1"}},{"base_weights":[-1.3413654E-1,-1.9428572E-2,-3.8181818E-1,-2.9620254E-1,1.959596E-1,-6.864865E-1,-7.906976E-2,3.4146342E-2,-6.195122E-1,4.644068E-1,-1.7209302E-1,-0E0,-7.6969695E-1,2.16E-1,-4.4761905E-1,-3.2173914E-1,4.4761905E-1,-7.828571E-1,7.7777775E-3,6.533333E-1,-8.2352936E-2,1.0967742E-1,-3.8E-2,-4.3793105E-2,-0E0,-2.2666666E-1,3.615385E-2,-3.8E-2,7.7777775E-3,2.4285715E-2,-6E-1,3.8E-2,-7.7777775E-3,-0E0,-4.4193547E-2,7.945946E-1,-0E0,2.4285715E-2,-4.1538462E-1,3.615385E-2,-2.5714284E-1,-3.3636365E-2,2.4285715E-2,-3.8E-2,-0E0,4.4545453E-2,-0E0,-2.4285715E-2,2.4285715E-2,-0E0,-3.0000001E-2,-3.8E-2,3.0000001E-2],"categories":[],"categories_nodes":[],"categories_segments":[],"categories_sizes":[],"default_left":[0,0,0,0,0,0,0,0,0,0,0,0,0,0,0,0,0,0,0,0,0,0,0,0,0,0,0,0,0,0,0,0,0,0,0,0,0,0,0,0,0,0,0,0,0,0,0,0,0,0,0,0,0],"id":27,"left_children":[1,3,5,7,9,11,13,15,17,19,21,-1,23,25,27,29,31,33,-1,35,37,39,-1,-1,-1,41,-1,-1,-1,-1,43,-1,-1,-1,-1,45,47,-1,49,-1,51,-1,-1,-1,-1,-1,-1,-1,-1,-1,-1,-1,-1],"loss_changes":[3.4056754E0,5.3333488E0,3.2400694E0,4.4261374E0,5.098309E0,1.0567732E0,2.552591E0,3.2703419E0,2.9662275E0,3.299274E0,3.8817077E0,0E0,1.3482962E0,3.200595E0,2.3370798E0,3.0552795E0,2.3370798E0,1.3838892E0,0E0,2.07654E0,1.8896055E0,3.9062955E0,0E0,0E0,0E0,2.9294717E0,0E0,0E0,0E0,0E0,9.120002E-1,0E0,0E0,0E0,0E0,1.415823E0,1.6514285E0,0E0,4.984616E-1,0E0,5.2577143E0,0E0,0E0,0E0,0E0,0E0,0E0,0E0,0E0,0E0,0E0,0E0,0E0],"parents":[2147483647,0,0,1,1,2,2,3,3,4,4,5,5,6,6,7,7,8,8,9,9,10,10,12,12,13,13,14,14,15,15,16,16,17,17,19,19,20,20,21,21,25,25,30,30,35,35,36,36,38,38,40,40],"right_children":[2,4,6,8,10,12,14,16,18,20,22,-1,24,26,28,30,32,34,-1,36,38,40,-1,-1,-1,42,-1,-1,-1,-1,44,-1,-1,-1,-1,46,48,-1,50,-1,52,-1,-1,-1,-1,-1,-1,-1,-1,-1,-1,-1,-1],"split_conditions":[7.558246E-1,-6.951881E-1,-5.1463383E-1,-5.253911E-1,7.2391324E-2,-1.3370978E0,5.9620347E-2,-5.1463383E-1,1.0104485E0,8.41525E-1,7.6464474E-1,-1.336578E-1,4.3676096E-1,7.558246E-1,8.8113695E-1,-1.3756578E0,-9.622614E-2,-1.1319382E0,3.8122502E-1,9.304778E-1,-1.5708636E-1,-1.5708636E-1,-1.3473038E-1,-1.643713E-1,-1.2902556E-1,-3.7724745E-1,1.6132427E0,-3.0277374E-1,5.2222157E-1,3.4911778E-2,1.0289156E0,2.6727533E-1,-2.2597063E-1,1.0074568E-2,-2.7351087E-1,1.4118102E0,-6.77432E-1,5.077389E-1,-1.2596833E0,6.04196E-1,-6.734411E-1,-2.3321107E-1,1.3406657E0,-3.974677E-1,9.886318E-2,2.2676574E-1,-1.3985984E-1,-4.304238E-1,4.1025853E-1,-8.655236E-2,-3.1667036E-1,-3.09216E-1,5.1900655E-1],"split_indices":[8,16,10,15,19,7,6,9,15,16,23,0,19,10,6,20,13,7,0,1,0,0,0,0,0,16,0,0,0,0,0,0,0,0,0,6,13,0,1,0,8,0,0,0,0,0,0,0,0,0,0,0,0],"split_type":[0,0,0,0,0,0,0,0,0,0,0,0,0,0,0,0,0,0,0,0,0,0,0,0,0,0,0,0,0,0,0,0,0,0,0,0,0,0,0,0,0,0,0,0,0,0,0,0,0,0,0,0,0],"sum_hessian":[1.23E2,8.6E1,3.7E1,3.8E1,4.8E1,1.7E1,2E1,1.9E1,1.9E1,2.8E1,2E1,2E0,1.5E1,1.1E1,9E0,1E1,9E0,1.6E1,3E0,2.1E1,7E0,1.4E1,6E0,1.3E1,2E0,6E0,5E0,6E0,3E0,2E0,8E0,6E0,3E0,2E0,1.4E1,1.7E1,4E0,2E0,5E0,5E0,9E0,4E0,2E0,6E0,2E0,1.5E1,2E0,2E0,2E0,2E0,3E0,6E0,3E0],"tree_param":{"num_deleted":"0","num_feature":"26","num_nodes":"53","size_leaf_vector":"1"}},{"base_weights":[-1.5265307E-1,-7.8733034E-2,-7.185185E-1,-2.5419354E-1,3.1014493E-1,-4.2173915E-2,-0E0,1.1020408E-1,-4.1651377E-1,5.644444E-1,-1.2592593E-1,4.6206897E-1,-3.2173914E-1,-4.9894738E-1,8.2352936E-2,-8.2352936E-2,4.4193547E-2,-3.8E-2,4.9333334E-1,6.695652E-1,-7.7777775E-3,-6E-1,2.4285715E-2,-5.648352E-1,2.4285715E-2,4.1538462E-1,-2.4285715E-2,3.090909E-1,-3.0000001E-2,3.3636365E-2,-0E0,4.0526316E-2,-0E0,-0E0,-3.8E-2,-7.3913047E-3,-3.338028E-2,-0E0,3.0000001E-2,2.4285715E-2,-0E0],"categories":[],"categories_nodes":[],"categories_segments":[],"categories_sizes":[],"default_left":[0,0,0,0,0,0,0,0,0,0,0,0,0,0,0,0,0,0,0,0,0,0,0,0,0,0,0,0,0,0,0,0,0,0,0,0,0,0,0,0,0],"id":28,"left_children":[1,3,5,7,9,-1,-1,11,13,15,17,19,21,23,25,27,-1,-1,29,31,-1,33,-1,35,-1,37,-1,39,-1,-1,-1,-1,-1,-1,-1,-1,-1,-1,-1,-1,-1],"loss_changes":[4.7999945E0,7.6411858E0,1.2121096E0,4.7448E0,4.0639677E0,0E0,0E0,3.988746E0,2.4278374E0,4.998235E0,5.9432592E0,2.1686792E0,3.0552795E0,3.5169258E0,1.8896055E0,2.0878074E0,0E0,0E0,6.637577E-1,1.0854006E0,0E0,9.120002E-1,0E0,1.5572929E0,0E0,4.984616E-1,0E0,3.002597E-1,0E0,0E0,0E0,0E0,0E0,0E0,0E0,0E0,0E0,0E0,0E0,0E0,0E0],"parents":[2147483647,0,0,1,1,2,2,3,3,4,4,7,7,8,8,9,9,10,10,11,11,12,12,13,13,14,14,15,15,18,18,19,19,21,21,23,23,25,25,27,27],"right_children":[2,4,6,8,10,-1,-1,12,14,16,18,20,22,24,26,28,-1,-1,30,32,-1,34,-1,36,-1,38,-1,40,-1,-1,-1,-1,-1,-1,-1,-1,-1,-1,-1,-1,-1],"split_conditions":[1.5210828E0,2.7517283E-1,8.616961E-1,-1.579199E-1,7.9212487E-1,-2.740859E-1,2.872273E-1,-6.842711E-1,8.515685E-1,-4.3597022E-1,1.4439542E0,-3.8211912E-2,9.860593E-1,1.6434119E0,2.4064527E-1,4.658982E-1,4.5136562E-1,-3.520529E-1,5.3226674E-1,1.20595396E-1,-1.153779E-2,-1.3370978E0,5.055613E-1,-1.4587888E0,2.5085163E-1,1.0289156E0,-1.758385E-1,1.0289156E0,-1.6045665E-2,4.1559792E-1,-1.3089089E-1,2.881572E-1,1.4548079E0,1.24069355E-1,-3.4071892E-1,-1.3328982E-2,-2.7066946E-1,-1.5272035E-1,1.1927261E-1,1.4115448E0,-1.1065729E-1],"split_indices":[20,20,12,7,23,0,0,15,14,25,23,8,21,17,18,1,0,0,1,11,0,7,0,1,0,0,0,0,0,0,0,0,0,0,0,0,0,0,0,0,0],"split_type":[0,0,0,0,0,0,0,0,0,0,0,0,0,0,0,0,0,0,0,0,0,0,0,0,0,0,0,0,0,0,0,0,0,0,0,0,0,0,0,0,0],"sum_hessian":[1.21E2,1.09E2,1.2E1,7.6E1,3.3E1,1E1,2E0,2.3E1,5.3E1,2.1E1,1.2E1,1.3E1,1E1,4.6E1,7E0,7E0,1.4E1,6E0,6E0,1E1,3E0,8E0,2E0,4.4E1,2E0,5E0,2E0,4E0,3E0,4E0,2E0,8E0,2E0,2E0,6E0,1E1,3.4E1,2E0,3E0,2E0,2E0],"tree_param":{"num_deleted":"0","num_feature":"26","num_nodes":"41","size_leaf_vector":"1"}},{"base_weights":[-1.984556E-1,-8.062827E-2,-4.9859154E-1,1.14529915E-1,-3.8181818E-1,-5.880597E-1,2.4285715E-2,2.6185566E-1,-4.9565217E-1,3.1764707E-1,-5.619048E-1,-7.632653E-1,-6.666666E-2,6.484848E-1,5.074627E-2,7.7777775E-3,-3.9411765E-2,3.615385E-2,-2.4285715E-2,-6.677966E-1,2.4285715E-2,-1.0769231E-1,-4.5384616E-2,4.1538462E-1,-3.3636365E-2,7.37931E-1,-0E0,-1.4509805E-1,6E-1,-7.163636E-1,-0E0,2.4285715E-2,-3.0000001E-2,3.0000001E-2,-0E0,7.7777775E-3,4.2173915E-2,-0E0,-3.3636365E-2,3.8E-2,-0E0,-3.8627453E-2,-0E0],"categories":[],"categories_nodes":[],"categories_segments":[],"categories_sizes":[],"default_left":[0,0,0,0,0,0,0,0,0,0,0,0,0,0,0,0,0,0,0,0,0,0,0,0,0,0,0,0,0,0,0,0,0,0,0,0,0,0,0,0,0,0,0],"id":29,"left_children":[1,3,5,7,9,11,-1,13,15,17,19,21,23,25,27,-1,-1,-1,-1,29,-1,31,-1,33,-1,35,-1,37,39,41,-1,-1,-1,-1,-1,-1,-1,-1,-1,-1,-1,-1,-1],"loss_changes":[4.3455987E0,5.7592397E0,3.5854197E0,5.3834343E0,5.1906347E0,2.734953E0,0E0,3.6994896E0,2.5648482E0,3.366529E0,4.035592E0,1.8684769E0,3.5639627E0,9.5707417E-1,3.8705943E0,0E0,0E0,0E0,0E0,9.567709E-1,0E0,2.3703296E0,0E0,4.984616E-1,0E0,3.9476538E-1,0E0,1.9522282E0,9.120002E-1,1.1068516E0,0E0,0E0,0E0,0E0,0E0,0E0,0E0,0E0,0E0,0E0,0E0,0E0,0E0],"parents":[2147483647,0,0,1,1,2,2,3,3,4,4,5,5,7,7,8,8,9,9,10,10,11,11,12,12,13,13,14,14,19,19,21,21,23,23,25,25,27,27,28,28,29,29],"right_children":[2,4,6,8,10,12,-1,14,16,18,20,22,24,26,28,-1,-1,-1,-1,30,-1,32,-1,34,-1,36,-1,38,40,42,-1,-1,-1,-1,-1,-1,-1,-1,-1,-1,-1,-1,-1],"split_conditions":[7.1256006E-1,5.724383E-1,1.4692532E0,1.2465156E0,-1.5708636E-1,1.8183312E-1,4.1248932E-1,-7.05554E-1,-6.734411E-1,8.0439466E-1,4.0117472E-1,-1.2208971E0,1.3185798E-3,2.325248E0,8.08224E-1,4.539347E-3,-2.8857455E-1,9.1066676E-1,-2.5013128E-1,1.0205034E0,2.8440982E-1,1.9637282E0,-2.6048765E-1,1.142092E0,-2.2222967E-1,-1.9778697E-1,-2.5176812E-2,1.4614259E0,8.616961E-1,9.045285E-1,-4.7662403E-2,3.4275952E-1,-3.1196892E-1,1.9743271E-1,-1.483922E-1,8.2423404E-2,2.8078914E-1,2.7859688E-3,-2.8502768E-1,3.409175E-1,3.8429238E-2,-2.7037042E-1,7.056556E-2],"split_indices":[18,6,23,23,0,17,0,17,9,22,25,6,1,16,17,0,0,0,0,11,0,15,0,6,0,1,0,1,8,15,0,0,0,0,0,0,0,0,0,0,0,0,0],"split_type":[0,0,0,0,0,0,0,0,0,0,0,0,0,0,0,0,0,0,0,0,0,0,0,0,0,0,0,0,0,0,0,0,0,0,0,0,0,0,0,0,0,0,0],"sum_hessian":[1.28E2,9.4E1,3.4E1,5.7E1,3.7E1,3.2E1,2E0,4.7E1,1E1,7E0,3E1,2.3E1,9E0,1.5E1,3.2E1,3E0,7E0,5E0,2E0,2.8E1,2E0,5E0,1.8E1,5E0,4E0,1.3E1,2E0,2.4E1,8E0,2.6E1,2E0,2E0,3E0,3E0,2E0,3E0,1E1,2E1,4E0,6E0,2E0,2.4E1,2E0],"tree_param":{"num_deleted":"0","num_feature":"26","num_nodes":"43","size_leaf_vector":"1"}},{"base_weights":[-6.443515E-2,-0E0,-6.695652E-1,2.7792206E-1,-1.4758621E-1,-0E0,-4.0526316E-2,-0E0,6.484848E-1,-3.7142858E-1,1.6470589E-2,-3.2413793E-1,4.4761905E-1,7.37931E-1,-0E0,6.666666E-2,-5.644444E-1,3.6216217E-1,-2.2352941E-1,2.4285715E-2,-5.36E-1,-0E0,3.615385E-2,4.28E-2,-0E0,-3.0000001E-2,4.9333334E-1,-3.914286E-2,1.0769231E-1,4.967742E-1,-7.7777775E-3,-3.2765958E-1,2.4285715E-2,-5.3846156E-3,-3.8E-2,2.4285715E-2,-2.4285715E-2,-0E0,3.3636365E-2,-2.4285715E-2,3.0000001E-2,4.1176467E-3,3.9411765E-2,-4.857143E-3,-3.8E-2],"categories":[],"categories_nodes":[],"categories_segments":[],"categories_sizes":[],"default_left":[0,0,0,0,0,0,0,0,0,0,0,0,0,0,0,0,0,0,0,0,0,0,0,0,0,0,0,0,0,0,0,0,0,0,0,0,0,0,0,0,0,0,0,0,0],"id":30,"left_children":[1,3,5,7,9,-1,-1,11,13,15,17,19,21,23,-1,25,27,29,31,-1,33,35,-1,-1,-1,-1,37,-1,39,41,-1,43,-1,-1,-1,-1,-1,-1,-1,-1,-1,-1,-1,-1,-1],"loss_changes":[4.6595016E0,4.5529385E0,1.0854006E0,3.9650218E0,2.7780712E0,0E0,0E0,3.6272578E0,9.5707417E-1,2.8693967E0,3.6890748E0,2.8934658E0,1.294652E0,1.2633376E0,0E0,3.3986666E0,3.6320834E0,1.5075638E0,2.0745752E0,0E0,8.16185E-1,1.6514285E0,0E0,0E0,0E0,0E0,6.637577E-1,0E0,2.3703296E0,1.5136623E0,0E0,1.9741645E0,0E0,0E0,0E0,0E0,0E0,0E0,0E0,0E0,0E0,0E0,0E0,0E0,0E0],"parents":[2147483647,0,0,1,1,2,2,3,3,4,4,7,7,8,8,9,9,10,10,11,11,12,12,13,13,15,15,16,16,17,17,18,18,20,20,21,21,26,26,28,28,29,29,31,31],"right_children":[2,4,6,8,10,-1,-1,12,14,16,18,20,22,24,-1,26,28,30,32,-1,34,36,-1,-1,-1,-1,38,-1,40,42,-1,44,-1,-1,-1,-1,-1,-1,-1,-1,-1,-1,-1,-1,-1],"split_conditions":[1.5210828E0,-4.8248056E-1,-5.253911E-1,-7.084008E-1,-3.6651117E-1,2.9797053E-1,-2.501082E-1,4.2767113E-1,2.794027E-1,-1.0379598E0,-1.3136233E-1,-6.6236657E-1,-3.30524E-1,8.54838E-1,9.267569E-3,-1.5301054E0,8.0113065E-1,1.3857144E0,9.045285E-1,1.5402373E0,-7.05554E-1,8.0439466E-1,1.8756104E-1,1.9727945E-1,5.634467E-1,-2.2359751E-1,-3.226197E-1,-2.7316588E-1,-6.77432E-1,6.5360564E-1,-3.0332908E-1,7.077517E-2,9.7988504E-1,-1.6520248E-1,-1.4186446E-1,5.9086746E-1,-4.4517943E-1,4.0634033E-1,2.183028E-1,-2.6142213E-1,5.455721E-1,9.825468E-3,1.2682752E-1,-8.368802E-3,-3.0902734E-1],"split_indices":[20,7,15,19,14,0,0,22,9,24,17,1,1,13,0,24,19,7,15,0,17,22,0,0,0,0,7,0,13,7,0,22,0,0,0,0,0,0,0,0,0,0,0,0,0],"split_type":[0,0,0,0,0,0,0,0,0,0,0,0,0,0,0,0,0,0,0,0,0,0,0,0,0,0,0,0,0,0,0,0,0,0,0,0,0,0,0,0,0,0,0,0,0],"sum_hessian":[1.18E2,1.08E2,1E1,3.7E1,7.1E1,2E0,8E0,2.2E1,1.5E1,3E1,4.1E1,1.3E1,9E0,1.3E1,2E0,9E0,2.1E1,1.7E1,2.4E1,2E0,1.1E1,4E0,5E0,1.1E1,2E0,3E0,6E0,1.6E1,5E0,1.4E1,3E0,2.2E1,2E0,5E0,6E0,2E0,2E0,2E0,4E0,2E0,3E0,7E0,7E0,1.6E1,6E0],"tree_param":{"num_deleted":"0","num_feature":"26","num_nodes":"45","size_leaf_vector":"1"}},{"base_weights":[-1.14396885E-1,-6.337448E-2,-3.9411765E-2,-1.47186145E-2,-3.8E-2,-7.031964E-2,3.8E-2,-2.7676767E-1,9.268293E-2,1.8620689E-1,-4.5753425E-1,2.0380953E-1,-4.4761905E-1,2.4666667E-2,-4.1176467E-3,-2.876923E-2,1.5454546E-2,-1.4242425E-2,2.0933334E-2,-0E0,-3.615385E-2],"categories":[],"categories_nodes":[],"categories_segments":[],"categories_sizes":[],"default_left":[0,0,0,0,0,0,0,0,0,0,0,0,0,0,0,0,0,0,0,0,0],"id":31,"left_children":[1,3,-1,5,-1,7,-1,9,11,13,15,17,19,-1,-1,-1,-1,-1,-1,-1,-1],"loss_changes":[4.0875263E0,3.8690383E0,0E0,4.8484397E0,0E0,3.778549E0,0E0,4.351864E0,3.756279E0,1.3802217E0,3.6443243E0,5.731093E0,1.294652E0,0E0,0E0,0E0,0E0,0E0,0E0,0E0,0E0],"parents":[2147483647,0,0,1,1,3,3,5,5,7,7,8,8,9,9,10,10,11,11,12,12],"right_children":[2,4,-1,6,-1,8,-1,10,12,14,16,18,20,-1,-1,-1,-1,-1,-1,-1,-1],"split_conditions":[2.1433873E0,1.9147377E0,-8.643689E-2,1.4439542E0,-1.4398341E-1,-5.1463383E-1,7.4226063E-1,-1.0871744E0,8.366479E-1,-7.05554E-1,1.5417178E0,-4.8439634E-1,8.616961E-1,8.839321E-3,-6.510639E-3,-2.6331282E-1,1.7694306E-1,-1.996642E-1,2.5043297E-1,-5.504184E-2,-3.0036125E-1],"split_indices":[23,22,0,23,0,10,0,24,23,17,13,22,10,0,0,0,0,0,0,0,0],"split_type":[0,0,0,0,0,0,0,0,0,0,0,0,0,0,0,0,0,0,0,0,0],"sum_hessian":[1.27E2,1.2E2,7E0,1.14E2,6E0,1.08E2,6E0,4.8E1,6E1,1.3E1,3.5E1,5.1E1,9E0,6E0,7E0,3.1E1,4E0,1.5E1,3.6E1,4E0,5E0],"tree_param":{"num_deleted":"0","num_feature":"26","num_nodes":"21","size_leaf_vector":"1"}},{"base_weights":[-5.4693878E-2,3.3183858E-2,-4.28E-2,4.3492064E-1,-1.19018406E-1,-0E0,7.025641E-1,1.2527472E-1,-4.1866666E-1,-2.4285715E-2,1.4782609E-1,3.1764707E-1,4.28E-2,-3.3636365E-2,2.3373494E-1,3.090909E-1,-5.283582E-1,3.0000001E-2,-8.2352936E-2,3.3636365E-2,-7.7777775E-3,2.9620254E-1,-2.4285715E-2,-0E0,2.4285715E-2,-6.2539685E-1,2.4285715E-2,1.5454546E-2,-3.0000001E-2,4.4262293E-3,4.1428573E-2,-3.5818182E-2,-0E0],"categories":[],"categories_nodes":[],"categories_segments":[],"categories_sizes":[],"default_left":[0,0,0,0,0,0,0,0,0,0,0,0,0,0,0,0,0,0,0,0,0,0,0,0,0,0,0,0,0,0,0,0,0],"id":32,"left_children":[1,3,-1,5,7,9,11,13,15,-1,17,19,-1,-1,21,23,25,-1,27,-1,-1,29,-1,-1,-1,31,-1,-1,-1,-1,-1,-1,-1],"loss_changes":[8.91553E0,6.990111E0,0E0,3.666716E0,6.132654E0,1.0770185E0,3.917179E-1,4.042254E0,3.304328E0,0E0,1.4263427E0,1.7403327E0,0E0,0E0,2.0240548E0,3.002597E-1,3.7940912E0,0E0,2.0878074E0,0E0,0E0,3.9820185E0,0E0,0E0,0E0,1.7920465E0,0E0,0E0,0E0,0E0,0E0,0E0,0E0],"parents":[2147483647,0,0,1,1,3,3,4,4,5,5,6,6,7,7,8,8,10,10,11,11,14,14,15,15,16,16,18,18,21,21,25,25],"right_children":[2,4,-1,6,8,10,12,14,16,-1,18,20,-1,-1,22,24,26,-1,28,-1,-1,30,-1,-1,-1,32,-1,-1,-1,-1,-1,-1,-1],"split_conditions":[1.458704E0,-6.12447E-1,-2.152798E-1,-1.2208971E0,-6.842711E-1,-6.842711E-1,-6.842711E-1,-1.5915258E0,-1.5915258E0,-3.301188E-1,-3.9608395E-1,4.658982E-1,1.10700324E-1,-9.9087946E-2,1.7086685E0,1.0289156E0,1.6563896E0,2.773367E-1,-1.5708636E-1,1.0926869E0,-3.386204E-1,2.2646692E-1,-2.1892641E-1,2.4681428E-1,3.5958627E-1,9.045285E-1,9.883089E-2,3.3049822E-1,-2.0883875E-1,7.5958255E-3,3.4437045E-1,-2.4573158E-1,1.8628089E-1],"split_indices":[22,6,0,6,15,15,15,1,1,0,19,1,0,0,10,0,18,0,0,0,0,10,0,0,0,15,0,0,0,0,0,0,0],"split_type":[0,0,0,0,0,0,0,0,0,0,0,0,0,0,0,0,0,0,0,0,0,0,0,0,0,0,0,0,0,0,0,0,0],"sum_hessian":[1.21E2,1.1E2,1.1E1,3E1,8E1,1.2E1,1.8E1,4.4E1,3.6E1,2E0,1E1,7E0,1.1E1,4E0,4E1,4E0,3.2E1,3E0,7E0,4E0,3E0,3.8E1,2E0,2E0,2E0,3E1,2E0,4E0,3E0,2.9E1,9E0,2.6E1,4E0],"tree_param":{"num_deleted":"0","num_feature":"26","num_nodes":"33","size_leaf_vector":"1"}},{"base_weights":[-1.292181E-1,-4.2533938E-2,-4.28E-2,-1.4051282E-1,6E-1,-9.655172E-3,-4.7924528E-1,-0E0,4.1428573E-2,-1.0075188E-1,3.8E-2,3.3636365E-2,-7.4222225E-1,2.4285715E-2,-2.4285715E-2,1.2844036E-2,-5.703704E-1,-8.1463414E-1,-0E0,7.52809E-3,-2.478261E-2,-4.1428573E-2,7.7777775E-3,-4.485714E-2,-7.7777775E-3],"categories":[],"categories_nodes":[],"categories_segments":[],"categories_sizes":[],"default_left":[0,0,0,0,0,0,0,0,0,0,0,0,0,0,0,0,0,0,0,0,0,0,0,0,0],"id":33,"left_children":[1,3,-1,5,7,9,11,13,-1,15,-1,-1,17,-1,-1,19,21,23,-1,-1,-1,-1,-1,-1,-1],"loss_changes":[7.3303843E0,6.9451165E0,0E0,4.168148E0,1.9885712E0,5.000279E0,8.797789E0,1.6514285E0,0E0,3.725805E0,0E0,0E0,1.2092791E0,0E0,0E0,3.8249907E0,2.9256086E0,5.896406E-1,0E0,0E0,0E0,0E0,0E0,0E0,0E0],"parents":[2147483647,0,0,1,1,3,3,4,4,5,5,6,6,7,7,9,9,12,12,15,15,16,16,17,17],"right_children":[2,4,-1,6,8,10,12,14,-1,16,-1,-1,18,-1,-1,20,22,24,-1,-1,-1,-1,-1,-1,-1],"split_conditions":[1.458704E0,1.4990847E0,-2.5964174E-1,8.3340354E-2,-8.461461E-1,1.2752484E0,-1.0379598E0,7.2391324E-2,2.9431745E-1,5.4663646E-1,1.5251116E-1,7.864214E-3,8.616961E-1,3.4544727E-1,-1.8099271E-1,1.4118102E0,8.8113695E-1,8.1743E-1,1.1691234E-1,1.566472E-2,-2.2033294E-1,-1.9735055E-1,8.484745E-3,-2.2384587E-1,-1.503582E-2],"split_indices":[22,18,0,18,20,14,24,19,0,22,0,0,10,0,0,6,6,18,0,0,0,0,0,0,0],"split_type":[0,0,0,0,0,0,0,0,0,0,0,0,0,0,0,0,0,0,0,0,0,0,0,0,0],"sum_hessian":[1.2E2,1.09E2,1.1E1,9.6E1,1.3E1,7.1E1,2.5E1,4E0,9E0,6.5E1,6E0,4E0,2.1E1,2E0,2E0,5.3E1,1.2E1,1.9E1,2E0,4.3E1,1E1,9E0,3E0,1.6E1,3E0],"tree_param":{"num_deleted":"0","num_feature":"26","num_nodes":"25","size_leaf_vector":"1"}},{"base_weights":[-1.502008E-1,-3.3109245E-1,1.0526315E-2,3.4146342E-2,-5.1111114E-1,3.5272726E-1,-2.1481481E-1,-3.3636365E-2,2.8484848E-1,-6.112676E-1,1.0769231E-1,-6.666666E-2,5.783784E-1,8.717949E-2,-4.7555557E-1,5.703704E-1,-3.0000001E-2,-2.923077E-1,-4.485714E-2,3.0000001E-2,-2.4285715E-2,2.2666666E-1,-3.0000001E-2,7.548387E-1,-7.7777775E-3,2.8484848E-1,-3.0000001E-2,-6.685714E-1,1.0769231E-1,1.0769231E-1,3.9411765E-2,3.090909E-1,-4.967742E-1,3.3636365E-2,-2.4285715E-2,4.3333333E-2,-0E0,-8.2352936E-2,6E-1,-4.28E-2,-1.0769231E-1,3.0000001E-2,-2.4285715E-2,2.4285715E-2,-7.7777775E-3,-0E0,2.4285715E-2,-3.347826E-2,-0E0,1.5454546E-2,-3.0000001E-2,3.8E-2,-0E0,7.7777775E-3,-2.4285715E-2],"categories":[],"categories_nodes":[],"categories_segments":[],"categories_sizes":[],"default_left":[0,0,0,0,0,0,0,0,0,0,0,0,0,0,0,0,0,0,0,0,0,0,0,0,0,0,0,0,0,0,0,0,0,0,0,0,0,0,0,0,0,0,0,0,0,0,0,0,0,0,0,0,0,0,0],"id":34,"left_children":[1,3,5,7,9,11,13,-1,15,17,19,21,23,25,27,29,-1,31,-1,-1,-1,33,-1,35,-1,37,-1,39,41,43,-1,45,47,-1,-1,-1,-1,49,51,-1,53,-1,-1,-1,-1,-1,-1,-1,-1,-1,-1,-1,-1,-1,-1],"loss_changes":[3.7211347E0,4.081382E0,5.2829747E0,3.8039765E0,2.7598915E0,2.813861E0,3.3677607E0,0E0,4.6730638E0,2.4867897E0,2.3703296E0,1.9586668E0,2.7518525E0,2.8105829E0,2.809226E0,9.647093E-1,0E0,2.684462E0,0E0,0E0,0E0,2.9294717E0,0E0,1.3083878E0,0E0,2.1388593E0,0E0,1.4122982E0,2.3703296E0,8.592185E-1,0E0,3.002597E-1,1.3304906E0,0E0,0E0,0E0,0E0,2.0878074E0,9.120002E-1,0E0,8.592185E-1,0E0,0E0,0E0,0E0,0E0,0E0,0E0,0E0,0E0,0E0,0E0,0E0,0E0,0E0],"parents":[2147483647,0,0,1,1,2,2,3,3,4,4,5,5,6,6,8,8,9,9,10,10,11,11,12,12,13,13,14,14,15,15,17,17,21,21,23,23,25,25,27,27,28,28,29,29,31,31,32,32,37,37,38,38,40,40],"right_children":[2,4,6,8,10,12,14,-1,16,18,20,22,24,26,28,30,-1,32,-1,-1,-1,34,-1,36,-1,38,-1,40,42,44,-1,46,48,-1,-1,-1,-1,50,52,-1,54,-1,-1,-1,-1,-1,-1,-1,-1,-1,-1,-1,-1,-1,-1],"split_conditions":[-1.0171123E-1,-4.531976E-1,-5.489563E-1,-3.5582653E-1,1.0104485E0,-3.2425734E-1,-8.37671E-2,-3.109186E-1,1.7086685E0,-5.253911E-1,-1.3141845E-1,1.10128716E-1,1.3401378E0,8.515685E-1,2.2646692E-1,-7.05554E-1,-1.9918005E-1,-1.3133624E0,-2.4940716E-1,3.750082E-1,-2.1849275E-1,1.20595396E-1,-2.8178403E-1,1.20595396E-1,-2.3951033E-1,-3.6041063E-1,-2.9071313E-1,5.724383E-1,1.15121454E-1,2.6679265E-1,3.4139538E-1,-6.6236657E-1,1.8172958E-1,2.418646E-1,-3.0323106E-1,1.3170464E-1,-2.4112595E-2,1.10430285E-1,8.616961E-1,-2.0115872E-1,1.10128716E-1,8.668519E-3,-4.6778813E-1,1.2828285E0,-8.182507E-2,1.450899E-1,3.6040067E-3,-2.5645563E-1,1.6194455E-1,8.746743E-3,-6.351137E-3,5.080039E-1,-9.5370196E-2,6.536436E-2,-1.8940417E-1],"split_indices":[14,6,17,8,15,16,19,0,12,15,1,14,6,15,8,17,0,20,0,0,0,9,0,8,0,13,0,6,13,1,0,1,20,0,0,0,0,22,8,0,14,0,0,0,0,0,0,0,0,0,0,0,0,0,0],"split_type":[0,0,0,0,0,0,0,0,0,0,0,0,0,0,0,0,0,0,0,0,0,0,0,0,0,0,0,0,0,0,0,0,0,0,0,0,0,0,0,0,0,0,0,0,0,0,0,0,0,0,0,0,0,0,0],"sum_hessian":[1.23E2,5.8E1,6.5E1,1.9E1,3.9E1,2.6E1,3.9E1,4E0,1.5E1,3.4E1,5E0,9E0,1.7E1,1.8E1,2.1E1,1.2E1,3E0,1.8E1,1.6E1,3E0,2E0,6E0,3E0,1.4E1,3E0,1.5E1,3E0,1.6E1,5E0,5E0,7E0,4E0,1.4E1,4E0,2E0,1.2E1,2E0,7E0,8E0,1.1E1,5E0,3E0,2E0,2E0,3E0,2E0,2E0,1E1,4E0,4E0,3E0,6E0,2E0,3E0,2E0],"tree_param":{"num_deleted":"0","num_feature":"26","num_nodes":"55","size_leaf_vector":"1"}},{"base_weights":[-1.127572E-1,2.2985074E-1,-2.424581E-1,6.195122E-1,-3.2413793E-1,-0E0,-4.3838385E-1,4.485714E-2,-3.0000001E-2,4.1538462E-1,-4.0526316E-2,2.6101694E-1,-5.703704E-1,-6.680851E-1,-2.0727272E-1,3.0000001E-2,-0E0,4.5882353E-1,-3.3636365E-2,-0E0,-4.0526316E-2,-2.5714284E-1,-4.3793105E-2,-6E-1,1.8620689E-1,-0E0,7.548387E-1,2.4285715E-2,-2.4285715E-2,-4.9333334E-1,7.7777775E-3,-6.96E-1,-0E0,-4.1538462E-1,6E-1,1.5882354E-2,-3.0000001E-2,4.3333333E-2,-0E0,-3.3636365E-2,-0E0,-4.1428573E-2,-0E0,-3.0000001E-2,-0E0,-0E0,3.8E-2],"categories":[],"categories_nodes":[],"categories_segments":[],"categories_sizes":[],"default_left":[0,0,0,0,0,0,0,0,0,0,0,0,0,0,0,0,0,0,0,0,0,0,0,0,0,0,0,0,0,0,0,0,0,0,0,0,0,0,0,0,0,0,0,0,0,0,0],"id":35,"left_children":[1,3,5,7,9,11,13,-1,-1,15,-1,17,19,21,23,-1,-1,25,-1,27,-1,29,-1,31,33,35,37,-1,-1,39,-1,41,-1,43,45,-1,-1,-1,-1,-1,-1,-1,-1,-1,-1,-1,-1],"loss_changes":[5.4864182E0,7.621402E0,4.251589E0,7.8373384E0,5.839143E0,6.4016824E0,2.1574612E0,0E0,0E0,4.984616E-1,0E0,5.8474956E0,1.8492007E0,1.3287964E0,4.541304E0,0E0,0E0,3.4633775E0,0E0,1.6514285E0,0E0,1.2399364E0,0E0,8.3519983E-1,4.0387797E0,2.477647E0,1.3083878E0,0E0,0E0,6.637577E-1,0E0,1.1533713E0,0E0,4.984616E-1,9.120002E-1,0E0,0E0,0E0,0E0,0E0,0E0,0E0,0E0,0E0,0E0,0E0,0E0],"parents":[2147483647,0,0,1,1,2,2,3,3,4,4,5,5,6,6,9,9,11,11,12,12,13,13,14,14,17,17,19,19,21,21,23,23,24,24,25,25,26,26,29,29,31,31,33,33,34,34],"right_children":[2,4,6,8,10,12,14,-1,-1,16,-1,18,20,22,24,-1,-1,26,-1,28,-1,30,-1,32,34,36,38,-1,-1,40,-1,42,-1,44,46,-1,-1,-1,-1,-1,-1,-1,-1,-1,-1,-1,-1],"split_conditions":[-1.5708636E-1,7.9212487E-1,9.217135E-3,1.6989282E0,1.2604284E0,2.794027E-1,-3.2425734E-1,5.839967E-1,-1.8675733E-1,2.0042413E-1,-2.2195017E-1,8.1743E-1,-5.1463383E-1,-6.842711E-1,1.0289156E0,1.2433529E-1,-8.995085E-2,-9.084416E-1,-5.574131E-3,-6.734411E-1,-1.836601E-1,-5.1463383E-1,-2.4694243E-1,2.2646692E-1,-1.0131271E0,-7.05554E-1,8.616961E-1,2.3723746E-2,-3.2601386E-1,1.4614259E0,2.7233982E-2,8.08224E-1,1.0919511E-1,2.2149177E0,5.009148E-1,2.0094728E-2,-8.741999E-2,1.3839792E-1,-4.7285058E-2,-2.079022E-1,-5.5141844E-2,-1.8922105E-1,3.904884E-2,-2.2194634E-1,-1.00590244E-1,1.1467593E-1,2.5053382E-2],"split_indices":[0,23,7,14,22,9,16,0,0,1,0,18,8,15,0,0,0,20,0,11,0,9,0,10,21,17,10,0,0,1,0,17,0,0,7,0,0,0,0,0,0,0,0,0,0,0,0],"split_type":[0,0,0,0,0,0,0,0,0,0,0,0,0,0,0,0,0,0,0,0,0,0,0,0,0,0,0,0,0,0,0,0,0,0,0,0,0,0,0,0,0,0,0,0,0,0,0],"sum_hessian":[1.2E2,3.2E1,8.8E1,1.9E1,1.3E1,4E1,4.8E1,1.6E1,3E0,5E0,8E0,2.8E1,1.2E1,2.2E1,2.6E1,3E0,2E0,2.4E1,4E0,4E0,8E0,9E0,1.3E1,1.3E1,1.3E1,1E1,1.4E1,2E0,2E0,6E0,3E0,1.1E1,2E0,5E0,8E0,7E0,3E0,1.2E1,2E0,4E0,2E0,9E0,2E0,3E0,2E0,2E0,6E0],"tree_param":{"num_deleted":"0","num_feature":"26","num_nodes":"47","size_leaf_vector":"1"}},{"base_weights":[-1.6213992E-1,1.4432989E-2,-2.7785236E-1,1.3103448E-1,-3.615385E-2,3.7837837E-2,-3.773913E-1,-2.0888889E-1,4.7555557E-1,3.76E-1,-4.9333334E-1,-1.2542373E-1,-6E-1,3.2173914E-1,-6.96E-1,7.548387E-1,-8.2352936E-2,3.8E-2,-1.0769231E-1,-0E0,-3.3636365E-2,-3.5510203E-1,3.615385E-2,-7.056604E-1,7.7777775E-3,6E-1,-2.4285715E-2,-4.1428573E-2,-0E0,4.3333333E-2,-0E0,3.0000001E-2,-3.3636365E-2,-3.0000001E-2,2.4285715E-2,-5.219512E-1,3.090909E-1,-8.1463414E-1,-2.2666666E-1,-0E0,3.8E-2,-4.1176467E-3,-3.5925925E-2,2.4285715E-2,-0E0,-4.485714E-2,-7.7777775E-3,-3.0000001E-2,7.7777775E-3],"categories":[],"categories_nodes":[],"categories_segments":[],"categories_sizes":[],"default_left":[0,0,0,0,0,0,0,0,0,0,0,0,0,0,0,0,0,0,0,0,0,0,0,0,0,0,0,0,0,0,0,0,0,0,0,0,0,0,0,0,0,0,0,0,0,0,0,0,0],"id":36,"left_children":[1,3,5,7,-1,9,11,13,15,17,19,21,23,25,27,29,31,-1,33,-1,-1,35,-1,37,-1,39,-1,-1,-1,-1,-1,-1,-1,-1,-1,41,43,45,47,-1,-1,-1,-1,-1,-1,-1,-1,-1,-1],"loss_changes":[2.5674903E0,4.135255E0,2.464334E0,5.323325E0,0E0,3.5660467E0,2.8946762E0,6.2638574E0,3.800815E0,2.6401849E0,6.637577E-1,6.0237813E0,2.6847382E0,3.0552795E0,1.1533713E0,1.3083878E0,4.0514436E0,0E0,2.3703296E0,0E0,0E0,3.0209446E0,0E0,7.9387474E-1,0E0,9.120002E-1,0E0,0E0,0E0,0E0,0E0,0E0,0E0,0E0,0E0,1.4423985E0,3.002597E-1,5.896406E-1,1.3435556E0,0E0,0E0,0E0,0E0,0E0,0E0,0E0,0E0,0E0,0E0],"parents":[2147483647,0,0,1,1,2,2,3,3,5,5,6,6,7,7,8,8,9,9,10,10,11,11,12,12,13,13,14,14,15,15,16,16,18,18,21,21,23,23,25,25,35,35,36,36,37,37,38,38],"right_children":[2,4,6,8,-1,10,12,14,16,18,20,22,24,26,28,30,32,-1,34,-1,-1,36,-1,38,-1,40,-1,-1,-1,-1,-1,-1,-1,-1,-1,42,44,46,48,-1,-1,-1,-1,-1,-1,-1,-1,-1,-1],"split_conditions":[-7.05554E-1,1.4118102E0,-1.5708636E-1,-3.2425734E-1,-2.1807376E-1,9.604233E-1,-8.37671E-2,-5.717582E-1,7.558246E-1,1.10128716E-1,-6.734411E-1,8.08224E-1,1.265446E0,1.2081912E0,9.146319E-1,1.9543173E0,2.5863385E-1,4.0341622E-1,-6.734411E-1,7.120833E-1,-1.8905513E-1,-6.042952E-1,1.2836276E-1,4.9114576E-1,9.010315E-3,-1.5251573E0,-2.726975E-1,-2.7731127E-1,-3.9120438E-3,5.113696E-1,2.1992384E-1,3.7861537E-2,-1.0344644E-1,-2.0964766E-2,3.5139957E-1,-1.3141845E-1,2.6679265E-1,2.2646692E-1,1.20595396E-1,7.230013E-2,2.309681E-1,-1.791668E-3,-5.2954196E-3,4.9948946E-1,4.3461323E-3,-1.9401494E-1,-2.4818034E-1,-1.3668395E-2,2.749717E-1],"split_indices":[17,6,0,16,0,20,19,13,12,14,9,17,16,21,11,16,16,0,12,0,0,19,0,9,0,1,0,0,0,0,0,0,0,0,0,1,1,11,12,0,0,0,0,0,0,0,0,0,0],"split_type":[0,0,0,0,0,0,0,0,0,0,0,0,0,0,0,0,0,0,0,0,0,0,0,0,0,0,0,0,0,0,0,0,0,0,0,0,0,0,0,0,0,0,0,0,0,0,0,0,0],"sum_hessian":[1.2E2,4.7E1,7.3E1,4.2E1,5E0,1.7E1,5.6E1,2.1E1,2.1E1,1.1E1,6E0,2.8E1,2.8E1,1E1,1.1E1,1.4E1,7E0,6E0,5E0,2E0,4E0,2.3E1,5E0,2.5E1,3E0,8E0,2E0,9E0,2E0,1.2E1,2E0,3E0,4E0,3E0,2E0,1.9E1,4E0,1.9E1,6E0,2E0,6E0,7E0,1.2E1,2E0,2E0,1.6E1,3E0,3E0,3E0],"tree_param":{"num_deleted":"0","num_feature":"26","num_nodes":"49","size_leaf_vector":"1"}},{"base_weights":[-1.506383E-1,1.2527472E-1,-3.2244897E-1,2.3373494E-1,-3.3636365E-2,-2.0347826E-1,-6.685714E-1,-3.4146342E-2,4.7555557E-1,-1.8181818E-2,-5.219512E-1,-4.3333333E-2,-0E0,2.3870967E-1,-3.615385E-2,6.484848E-1,-0E0,1.10447764E-1,-3.615385E-2,-6.864865E-1,2.4285715E-2,-2.4285715E-2,2.4285715E-2,4.2222223E-1,-2.4285715E-2,4.28E-2,-0E0,3.090909E-1,-2.4285715E-2,-4.2222223E-1,4.511628E-1,-7.6969695E-1,-0E0,3.8E-2,-0E0,2.4285715E-2,-2.4285715E-2,2.4285715E-2,-0E0,-3.347826E-2,2.4285715E-2,-2.4285715E-2,3.0000001E-2,-4.3333333E-2,-7.7777775E-3],"categories":[],"categories_nodes":[],"categories_segments":[],"categories_sizes":[],"default_left":[0,0,0,0,0,0,0,0,0,0,0,0,0,0,0,0,0,0,0,0,0,0,0,0,0,0,0,0,0,0,0,0,0,0,0,0,0,0,0,0,0,0,0,0,0],"id":37,"left_children":[1,3,5,7,-1,9,11,13,15,17,19,-1,21,23,-1,25,27,29,-1,31,-1,-1,-1,33,-1,-1,35,37,-1,39,41,43,-1,-1,-1,-1,-1,-1,-1,-1,-1,-1,-1,-1,-1],"loss_changes":[5.689809E0,4.042254E0,2.5609403E0,2.8451178E0,0E0,3.2169096E0,2.3177147E0,4.257785E0,1.8503437E0,3.7943912E0,3.9592142E0,0E0,1.6514285E0,2.349155E0,0E0,2.2204118E0,1.3511688E0,6.374289E0,0E0,1.0567732E0,0E0,0E0,0E0,1.9253335E0,0E0,0E0,1.6514285E0,3.002597E-1,0E0,3.5746994E0,3.4694352E0,4.7373772E-1,0E0,0E0,0E0,0E0,0E0,0E0,0E0,0E0,0E0,0E0,0E0,0E0,0E0],"parents":[2147483647,0,0,1,1,2,2,3,3,5,5,6,6,7,7,8,8,9,9,10,10,12,12,13,13,15,15,16,16,17,17,19,19,23,23,26,26,27,27,29,29,30,30,31,31],"right_children":[2,4,6,8,-1,10,12,14,16,18,20,-1,22,24,-1,26,28,30,-1,32,-1,-1,-1,34,-1,-1,36,38,-1,40,42,44,-1,-1,-1,-1,-1,-1,-1,-1,-1,-1,-1,-1,-1],"split_conditions":[-7.05554E-1,1.5210828E0,